#include "myFc.h"
#include "myConvLayer.h"
#include "myMaxPool.h"
#include "myGru.h"
#include "myUtils.h"

#define CONV_SIZE 54 //input window size
#define CONV_K_SIZE 7 //kernel size
#define CHANNEL_SIZE 31 // nb channels
//#define CONV1_PADDING 0 //int((CONV1_K_SIZE-1)/2) //default value, not implemented anymore for optimization reason
#define CONV_STRIDE 1
#define CONV_DILATION 1

#define POOL_K_SIZE 7
//#define POOL_PADDING 0 //int((POOL1_K_SIZE-1)/2) //default value, not implemented anymore for optimization reason
#define POOL_STRIDE 1
#define POOL_DILATION 1

//Layer 1
#define INPUT1 CONV_SIZE
myConvLayer<INPUT1,CONV_K_SIZE,CHANNEL_SIZE,1,CONV_STRIDE,CONV_DILATION> conv1;
#define INPUT2 int((INPUT1 + 2*0 - CONV_DILATION*(CONV_K_SIZE-1) - 1)/CONV_STRIDE + 1)
myMaxPool<INPUT2,POOL_K_SIZE,CHANNEL_SIZE,POOL_STRIDE,POOL_DILATION> pool1;

//Layer 2
#define INPUT3 int((INPUT2 + 2*0 - POOL_DILATION*(POOL_K_SIZE-1) - 1)/POOL_STRIDE + 1)
myConvLayer<INPUT3,CONV_K_SIZE,CHANNEL_SIZE,CHANNEL_SIZE,CONV_STRIDE,CONV_DILATION> conv2;
#define INPUT4 int((INPUT3 + 2*0 - CONV_DILATION*(CONV_K_SIZE-1) - 1)/CONV_STRIDE + 1)
myMaxPool<INPUT4,POOL_K_SIZE,CHANNEL_SIZE,POOL_STRIDE,POOL_DILATION> pool2;

//Layer 3
#define INPUT5 int((INPUT4 + 2*0 - POOL_DILATION*(POOL_K_SIZE-1) - 1)/POOL_STRIDE + 1)
myConvLayer<INPUT5,CONV_K_SIZE,CHANNEL_SIZE,CHANNEL_SIZE,CONV_STRIDE,CONV_DILATION> conv3;
#define INPUT6 int((INPUT5 + 2*0 - CONV_DILATION*(CONV_K_SIZE-1) - 1)/CONV_STRIDE + 1)
myMaxPool<INPUT6,POOL_K_SIZE,CHANNEL_SIZE,POOL_STRIDE,POOL_DILATION> pool3;
#define INPUT7 int((INPUT6 + 2*0 - POOL_DILATION*(POOL_K_SIZE-1) - 1)/POOL_STRIDE + 1)

//GRU
#define GRU_INPUT_SIZE INPUT7*CHANNEL_SIZE
#define GRU_HIDDEN_SIZE 7
#define GRU_WI_SIZE 3*GRU_HIDDEN_SIZE*GRU_INPUT_SIZE
#define GRU_WH_SIZE 3*GRU_HIDDEN_SIZE*GRU_HIDDEN_SIZE
#define GRU_B_SIZE 3*GRU_HIDDEN_SIZE
myGru<GRU_INPUT_SIZE,GRU_HIDDEN_SIZE> gru1;

//FC
#define FC_INPUT_SIZE GRU_HIDDEN_SIZE
#define FC_OUTPUT_SIZE 1
#define FC_WEIGHT_SIZE FC_INPUT_SIZE*FC_OUTPUT_SIZE
myFc<FC_INPUT_SIZE,FC_OUTPUT_SIZE> fc;

const parameter_fixed_type conv1_input1_kernel[CHANNEL_SIZE][1][CONV_K_SIZE] = {{{-0.23709867894649505615234375, 0.11058358848094940185546875, 0.041478656232357025146484375, 0.293302595615386962890625, -0.00798978842794895172119140625, -0.14688478410243988037109375, -0.113511122763156890869140625}}, {{0.0172824151813983917236328125, 0.173808753490447998046875, -0.09541414678096771240234375, -0.160757839679718017578125, 0.2030504643917083740234375, 0.24962876737117767333984375, -0.4478016197681427001953125}}, {{-0.12767888605594635009765625, 0.0943181514739990234375, 0.113243840634822845458984375, -0.0938056409358978271484375, -0.19476412236690521240234375, -0.13967935740947723388671875, 0.4310910403728485107421875}}, {{0.069213233888149261474609375, 0.036027766764163970947265625, 0.099078767001628875732421875, -0.1486103534698486328125, 0.02259559929370880126953125, -0.084986336529254913330078125, 0.234123706817626953125}}, {{0.14715762436389923095703125, 0.044261373579502105712890625, -0.1634678542613983154296875, -0.1263823211193084716796875, 0.15810044109821319580078125, 0.11907994747161865234375, -0.1426095068454742431640625}}, {{-0.24450941383838653564453125, -0.0378512442111968994140625, 0.21546252071857452392578125, 0.02033661864697933197021484375, -0.0526740588247776031494140625, 0.0959628522396087646484375, 0.097627699375152587890625}}, {{-0.21919311583042144775390625, 0.104396343231201171875, 0.1546695232391357421875, 0.117277093231678009033203125, -0.2661329209804534912109375, -0.2224922478199005126953125, 0.297680079936981201171875}}, {{-0.10154874622821807861328125, -0.106963284313678741455078125, 0.0611584521830081939697265625, 0.250068366527557373046875, 0.119954906404018402099609375, -0.03482033312320709228515625, -0.216286718845367431640625}}, {{0.07056201994419097900390625, 0.120946176350116729736328125, -0.13686023652553558349609375, -0.20482669770717620849609375, -0.00189412222243845462799072265625, -0.079427652060985565185546875, 0.2820393741130828857421875}}, {{0.0663266479969024658203125, -0.00389446131885051727294921875, 0.0482154972851276397705078125, -0.14569519460201263427734375, -0.13773410022258758544921875, 0.13952617347240447998046875, 0.2133868038654327392578125}}, {{0.07292960584163665771484375, 0.089156307280063629150390625, 0.0876455008983612060546875, -0.0555741526186466217041015625, -0.2916910350322723388671875, -0.0511601530015468597412109375, 0.22028319537639617919921875}}, {{0.06591646373271942138671875, 0.110870636999607086181640625, -0.24348698556423187255859375, -0.0043013761751353740692138671875, 0.1589054167270660400390625, 0.3424407541751861572265625, -0.403819143772125244140625}}, {{0.14305151998996734619140625, -0.17884840071201324462890625, 0.11265195906162261962890625, 0.1266555488109588623046875, -0.14439050853252410888671875, -0.143425285816192626953125, 0.140851318836212158203125}}, {{0.1991516053676605224609375, -0.0559318400919437408447265625, -0.0198730714619159698486328125, -0.073481611907482147216796875, -0.19887506961822509765625, 0.084674574434757232666015625, 0.166683137416839599609375}}, {{-0.2668962776660919189453125, 0.13969038426876068115234375, 0.068958617746829986572265625, 0.09653069078922271728515625, -0.1719131767749786376953125, -0.078398697078227996826171875, 0.383121192455291748046875}}, {{-0.0765989124774932861328125, -0.1386849582195281982421875, 0.23774929344654083251953125, 0.18385715782642364501953125, -0.330812036991119384765625, -0.19254152476787567138671875, 0.29139697551727294921875}}, {{0.048912696540355682373046875, 0.010109641589224338531494140625, -0.078955195844173431396484375, 0.0487406738102436065673828125, 0.090171635150909423828125, 0.3555826842784881591796875, -0.389033615589141845703125}}, {{0.098811767995357513427734375, 0.012387752532958984375, 0.00858637504279613494873046875, 0.087243877351284027099609375, -0.0873663723468780517578125, -0.16778413951396942138671875, -0.0362351723015308380126953125}}, {{0.2845660150051116943359375, -0.07487118244171142578125, -0.20178730785846710205078125, 0.0803671181201934814453125, -0.076689861714839935302734375, -0.0486818812787532806396484375, 0.2537401020526885986328125}}, {{0.13482810556888580322265625, 0.0371277891099452972412109375, -0.16207601130008697509765625, -0.111358411610126495361328125, 0.07900662720203399658203125, 0.2349352538585662841796875, -0.3199060261249542236328125}}, {{0.10479165613651275634765625, -0.0525042973458766937255859375, -0.02178508229553699493408203125, -0.038219846785068511962890625, -0.049468092620372772216796875, -0.3225742876529693603515625, 0.3981156051158905029296875}}, {{-0.1587472259998321533203125, -0.13734924793243408203125, 0.1312981545925140380859375, -0.0200798474252223968505859375, -0.1012493073940277099609375, -0.071000762283802032470703125, 0.2569305002689361572265625}}, {{-0.05831964313983917236328125, -0.09519635140895843505859375, -0.0584537088871002197265625, 0.0741139948368072509765625, 0.012829675339162349700927734375, 0.1589349806308746337890625, -0.23811805248260498046875}}, {{0.23007042706012725830078125, 0.02311471663415431976318359375, -0.1103208065032958984375, -0.08614961802959442138671875, 0.08910574018955230712890625, 0.20632839202880859375, -0.2534035742282867431640625}}, {{-0.1809585094451904296875, 0.122452519834041595458984375, -0.14825122058391571044921875, 0.15718184411525726318359375, -0.0320451967418193817138671875, -0.073350273072719573974609375, 0.17065887153148651123046875}}, {{-0.13945357501506805419921875, 0.14662261307239532470703125, -0.01081701554358005523681640625, 0.067790560424327850341796875, -0.127605378627777099609375, -0.105845786631107330322265625, 0.197695910930633544921875}}, {{0.013518254272639751434326171875, -0.0371721349656581878662109375, -0.07389700412750244140625, 0.0780227184295654296875, -0.13677366077899932861328125, -0.1073668897151947021484375, 0.00360704003833234310150146484375}}, {{-0.1692912876605987548828125, 0.2182067334651947021484375, 0.0465060174465179443359375, 0.105076275765895843505859375, -0.2592735588550567626953125, -0.110284171998500823974609375, 0.19831658899784088134765625}}, {{0.16399918496608734130859375, 0.12774445116519927978515625, -0.1633103787899017333984375, -0.14549760520458221435546875, 0.24610145390033721923828125, -0.01665423251688480377197265625, -0.13168276846408843994140625}}, {{-0.100673027336597442626953125, -0.11132644116878509521484375, -0.14726729691028594970703125, 0.18087662756443023681640625, 0.2999359071254730224609375, -0.0572288222610950469970703125, -0.2606732547283172607421875}}, {{-0.07490901648998260498046875, 0.15241362154483795166015625, 0.110246963798999786376953125, 0.074883766472339630126953125, -0.1480194628238677978515625, -0.103756703436374664306640625, -0.054728008806705474853515625}}};
const parameter_fixed_type conv1_input1_bias[CHANNEL_SIZE] = {-0.12594927847385406494140625, -0.00904059223830699920654296875, -0.051312543451786041259765625, -0.0196853987872600555419921875, -0.0584959574043750762939453125, -0.3358474671840667724609375, 0.01748740114271640777587890625, -0.219050467014312744140625, -0.2484445869922637939453125, -0.166207492351531982421875, -0.083375774323940277099609375, 0.0056699258275330066680908203125, -0.1898390352725982666015625, 0.00465245731174945831298828125, -0.01717488281428813934326171875, 0.02507462911307811737060546875, -0.079366743564605712890625, -0.23036174476146697998046875, -0.250034809112548828125, -0.014067037962377071380615234375, -0.03080780990421772003173828125, -0.07672332227230072021484375, -0.063167236745357513427734375, -0.18222872912883758544921875, -0.01636954955756664276123046875, -0.124994270503520965576171875, -0.391546785831451416015625, -0.0448906123638153076171875, -0.006804029457271099090576171875, -0.0433806888759136199951171875, -0.3170801699161529541015625};
const parameter_fixed_type gru1_input1_w_ih[GRU_WI_SIZE] = {0.075371168553829193115234375, 0.02342095039784908294677734375, -0.004349601455032825469970703125, -0.072558574378490447998046875, 0.154699802398681640625, 0.16784708201885223388671875, 0.121575646102428436279296875, 0.2522148787975311279296875, 0.17914478480815887451171875, 0.15137557685375213623046875, 0.1385371983051300048828125, 0.19076149165630340576171875, 0.187053680419921875, 0.2155214250087738037109375, -0.1202922165393829345703125, -0.2447095215320587158203125, -1.31719243526458740234375, -1.950920581817626953125, 0.3555628955364227294921875, 0.096375830471515655517578125, 0.13391293585300445556640625, 0.23396115005016326904296875, 0.14342534542083740234375, 0.090228445827960968017578125, -0.106241442263126373291015625, 0.22299574315547943115234375, -0.00112139782868325710296630859375, 0.30899536609649658203125, 0.106545366346836090087890625, 0.14821709692478179931640625, 0.1929813921451568603515625, 0.084987647831439971923828125, 0.22646720707416534423828125, 0.287515699863433837890625, 0.20375971496105194091796875, 0.4109747409820556640625, 0.001298077520914375782012939453125, 0.217363536357879638671875, 0.0326973833143711090087890625, 0.19377847015857696533203125, 0.2072044312953948974609375, 0.074671320617198944091796875, 0.0465252734720706939697265625, -0.176056087017059326171875, -0.20648889243602752685546875, -0.083421520888805389404296875, -0.0647680759429931640625, 0.0182549916207790374755859375, -0.4173471629619598388671875, -0.37560498714447021484375, -0.4156273305416107177734375, -0.7657206058502197265625, -0.9630873203277587890625, -1.84763622283935546875, -0.1515103280544281005859375, 0.14396031200885772705078125, 0.01991271041333675384521484375, 0.077464886009693145751953125, -0.020542621612548828125, 0.01803733967244625091552734375, 0.13457448780536651611328125, -0.0041911602020263671875, 0.1555033028125762939453125, 0.00944617949426174163818359375, 0.3010596930980682373046875, 0.090415708720684051513671875, -0.0393058992922306060791015625, 0.16985370218753814697265625, -0.020161889493465423583984375, 0.329769611358642578125, 0.14510764181613922119140625, 0.2800860702991485595703125, -0.516771137714385986328125, -0.324748575687408447265625, -0.334553062915802001953125, -0.3385469019412994384765625, -0.3241986930370330810546875, -0.149687826633453369140625, -0.1286488473415374755859375, -0.12924306094646453857421875, -0.032738976180553436279296875, -0.06331880390644073486328125, -0.16203594207763671875, 0.0568477325141429901123046875, -0.12497277557849884033203125, -0.0432389415800571441650390625, 0.00969901494681835174560546875, 0.0043829162605106830596923828125, -0.0499669574201107025146484375, -0.041700907051563262939453125, 0.098089389503002166748046875, 0.083658792078495025634765625, 0.0370854921638965606689453125, 0.24595423042774200439453125, -0.22165872156620025634765625, -0.184800624847412109375, -0.0609126277267932891845703125, -0.069810949265956878662109375, 0.14579926431179046630859375, 0.077566139400005340576171875, 0.1770536899566650390625, -0.02646291069686412811279296875, 0.1958616673946380615234375, 0.116775013506412506103515625, -0.0538097135722637176513671875, 0.08965645730495452880859375, -0.0345142967998981475830078125, -0.6419818401336669921875, 0.03419794142246246337890625, -0.16842316091060638427734375, -0.0553534328937530517578125, -0.174346625804901123046875, -0.0899350345134735107421875, 0.078143596649169921875, 0.153509557247161865234375, 0.042696289718151092529296875, 0.3440897166728973388671875, -0.0196598581969738006591796875, 0.0493659563362598419189453125, -0.07340013980865478515625, -0.1322134435176849365234375, -0.0455181598663330078125, -0.2786978185176849365234375, -0.5901813507080078125, -0.86496531963348388671875, -1.46459996700286865234375, -0.47456443309783935546875, -0.3736520707607269287109375, -0.299147129058837890625, -0.2864674031734466552734375, -0.1360768377780914306640625, -0.30613040924072265625, -0.12778420746326446533203125, -0.215009868144989013671875, -0.194025456905364990234375, -0.1615494191646575927734375, -0.07302506268024444580078125, -0.10733170807361602783203125, -0.1939377486705780029296875, -0.360082685947418212890625, -0.3674829900264739990234375, -0.2729857861995697021484375, -0.3839617073535919189453125, -0.511068403720855712890625, 0.0553947724401950836181640625, 0.22890742123126983642578125, 0.4780271947383880615234375, 0.3332607448101043701171875, 0.1121890246868133544921875, 0.21429717540740966796875, 0.475717484951019287109375, 0.2761051654815673828125, 0.2739386856555938720703125, 0.18391679227352142333984375, 0.098375536501407623291015625, 0.03455995023250579833984375, -0.02116924338042736053466796875, 0.223310530185699462890625, 0.0269797258079051971435546875, 0.111943662166595458984375, 0.090472735464572906494140625, -0.0536196343600749969482421875, 0.09042203426361083984375, 0.07375954091548919677734375, -0.1397319138050079345703125, 0.02555347979068756103515625, 0.15321548283100128173828125, 0.102388627827167510986328125, 0.1854946315288543701171875, -0.0005438653170131146907806396484375, -0.079493187367916107177734375, 0.097418241202831268310546875, -0.0264427475631237030029296875, 0.21668557822704315185546875, -0.0063408277928829193115234375, -0.018933951854705810546875, 0.087089218199253082275390625, 0.1457171142101287841796875, -0.091740675270557403564453125, -0.10149557888507843017578125, 0.412192881107330322265625, 0.077641986310482025146484375, 0.20357191562652587890625, 0.24462558329105377197265625, 0.359184086322784423828125, 0.19147945940494537353515625, 0.30515420436859130859375, 0.2562382221221923828125, 0.20903103053569793701171875, 0.3682754337787628173828125, 0.21073479950428009033203125, 0.1660936772823333740234375, 0.15014640986919403076171875, -0.0264265239238739013671875, 0.1933287680149078369140625, 0.18351478874683380126953125, 0.216428220272064208984375, 0.274748146533966064453125, -0.050358712673187255859375, 0.005581586621701717376708984375, 0.117005147039890289306640625, -0.109354116022586822509765625, -0.20882008969783782958984375, 0.10012142360210418701171875, 0.060230292379856109619140625, -0.066835463047027587890625, 0.0417407266795635223388671875, -0.022276826202869415283203125, 0.0348884202539920806884765625, -0.0564581044018268585205078125, -0.0358223803341388702392578125, -0.04310525953769683837890625, -0.00067187822423875331878662109375, -0.0469363667070865631103515625, -0.119397483766078948974609375, 0.102688528597354888916015625, 0.1071557104587554931640625, 0.072576411068439483642578125, 0.02468867041170597076416015625, 0.1265556812286376953125, 0.035200648009777069091796875, 0.008248954080045223236083984375, -0.10314981639385223388671875, 0.091168798506259918212890625, 0.109974764287471771240234375, 0.11783190071582794189453125, 0.009778029285371303558349609375, -0.16484458744525909423828125, -0.052221767604351043701171875, -0.260674417018890380859375, -0.3048928678035736083984375, -0.55529689788818359375, -1.05105745792388916015625, -2.1444332599639892578125, 0.0618451125919818878173828125, 0.0490097701549530029296875, 0.23268605768680572509765625, 0.117852874100208282470703125, 0.24315412342548370361328125, -0.035897023975849151611328125, 0.16020841896533966064453125, -0.122380577027797698974609375, 0.0373996831476688385009765625, 0.2968257963657379150390625, 0.14915366470813751220703125, 0.1518902480602264404296875, 0.13072742521762847900390625, 0.23778755962848663330078125, 0.1702717244625091552734375, 0.110412068665027618408203125, 0.1657979786396026611328125, 0.3438611924648284912109375, 0.008779386989772319793701171875, 0.23260748386383056640625, 0.05820192396640777587890625, 0.1667960584163665771484375, 0.266642272472381591796875, 0.16374041140079498291015625, 0.02932265587151050567626953125, 0.17636080086231231689453125, -0.11990620195865631103515625, 0.107161380350589752197265625, -0.031251706182956695556640625, 0.011758730746805667877197265625, -0.21055199205875396728515625, -0.267373502254486083984375, -0.4471996724605560302734375, -0.549963474273681640625, -1.0241076946258544921875, -1.56237685680389404296875, -0.01810174249112606048583984375, 0.0069383122026920318603515625, -0.0422582589089870452880859375, 0.122255764901638031005859375, -0.06534488499164581298828125, 0.02095658518373966217041015625, 0.072649709880352020263671875, 0.078384213149547576904296875, 0.19691662490367889404296875, 0.16831554472446441650390625, 0.0496948659420013427734375, 0.284506380558013916015625, 0.07735981047153472900390625, 0.227485179901123046875, 0.307682514190673828125, 0.12649054825305938720703125, 0.2901550829410552978515625, 0.62724673748016357421875, -0.0407468266785144805908203125, 0.0472078435122966766357421875, -0.00979365594685077667236328125, 0.01346804201602935791015625, -0.21711541712284088134765625, -0.080377258360385894775390625, -0.0617818869650363922119140625, 0.09548187255859375, 0.0299641825258731842041015625, -0.068751193583011627197265625, -0.082421816885471343994140625, -0.3304705321788787841796875, -0.193832576274871826171875, -0.2399968206882476806640625, -0.687561094760894775390625, -0.83654701709747314453125, -1.34236013889312744140625, -1.64344704151153564453125, 0.17180645465850830078125, 0.10774920880794525146484375, 0.1836167275905609130859375, 0.15303896367549896240234375, 0.146778762340545654296875, 0.2016368806362152099609375, 0.06361915171146392822265625, 0.07033549249172210693359375, 0.06968136131763458251953125, 0.079995572566986083984375, 0.167100012302398681640625, 0.1602300703525543212890625, -0.06637676060199737548828125, -0.0472268871963024139404296875, -0.0440411083400249481201171875, -0.113537691533565521240234375, -0.0351383686065673828125, 0.23850418627262115478515625, 0.2506554424762725830078125, 0.24013672769069671630859375, 0.2688432633876800537109375, 0.215436637401580810546875, 0.09396660327911376953125, 0.2115627229213714599609375, 0.15370510518550872802734375, 0.13570816814899444580078125, 0.034979067742824554443359375, 0.1427652537822723388671875, -0.0087712295353412628173828125, 0.0058005563914775848388671875, -0.1272107064723968505859375, -0.1848612129688262939453125, 0.0418085642158985137939453125, -0.561118066310882568359375, -1.06367313861846923828125, -1.98605263233184814453125, 0.0449590794742107391357421875, 0.072506599128246307373046875, -0.095103047788143157958984375, -0.12200902402400970458984375, 0.0528008081018924713134765625, 0.04127024114131927490234375, -0.043292127549648284912109375, -0.022022448480129241943359375, 0.01639842987060546875, 0.13072971999645233154296875, 0.14225013554096221923828125, 0.085560239851474761962890625, 0.21915160119533538818359375, 0.249079227447509765625, 0.17328871786594390869140625, 0.3167496621608734130859375, 0.15884494781494140625, 0.28148901462554931640625, 0.16535525023937225341796875, 0.2522148787975311279296875, 0.24925220012664794921875, 0.1698038876056671142578125, 0.099384881556034088134765625, 0.01833788864314556121826171875, 0.111229419708251953125, -0.14541094005107879638671875, 0.009945333935320377349853515625, -0.14630472660064697265625, 0.19761188328266143798828125, -0.086507774889469146728515625, 0.0228108577430248260498046875, -0.0531493090093135833740234375, -0.13554744422435760498046875, -0.22594539821147918701171875, -0.290290772914886474609375, -0.10281299054622650146484375, -0.4340806305408477783203125, -0.4005549252033233642578125, 0.0004738163552246987819671630859375, -0.16796676814556121826171875, -0.0177817009389400482177734375, -0.1837813854217529296875, -0.0324086733162403106689453125, -0.1547921001911163330078125, -0.289762318134307861328125, -0.02418208681046962738037109375, -0.108135260641574859619140625, 0.033174403011798858642578125, -0.09492017328739166259765625, -0.15852649509906768798828125, -0.0326152928173542022705078125, -0.1981534659862518310546875, -0.18544806540012359619140625, -0.194176852703094482421875, -0.121976368129253387451171875, 0.08922310173511505126953125, -0.0548198111355304718017578125, 0.01071959920227527618408203125, -0.0528008081018924713134765625, -0.099806480109691619873046875, 0.16823844611644744873046875, 0.0169266276061534881591796875, -0.06569261848926544189453125, 0.143787086009979248046875, -0.011469581164419651031494140625, -0.02636246196925640106201171875, -0.02213618718087673187255859375, 0.0102041549980640411376953125, -0.24503453075885772705078125, -0.08240540325641632080078125, 0.20295368134975433349609375, -0.132191717624664306640625, 0.1919269859790802001953125, 0.3725057542324066162109375, 0.3193491995334625244140625, 0.2396116554737091064453125, 0.3899810612201690673828125, 0.1574432551860809326171875, 0.20087115466594696044921875, -0.0383192710578441619873046875, 0.0477135814726352691650390625, -0.03993260860443115234375, 0.16572768986225128173828125, 0.037404634058475494384765625, 0.042788453400135040283203125, 0.0511575527489185333251953125, -0.153338909149169921875, -0.030231751501560211181640625, -0.0741076171398162841796875, -0.600910961627960205078125, -0.07121478021144866943359375, 0.046232037246227264404296875, -0.012413787655532360076904296875, -0.00530846975743770599365234375, -0.0043189176358282566070556640625, 0.0883702933788299560546875, 0.1297359764575958251953125, 0.067021548748016357421875, -0.037815012037754058837890625, 0.07207672297954559326171875, 0.0027157827280461788177490234375, 0.05003134906291961669921875, 0.118828900158405303955078125, 0.0929767787456512451171875, 0.05918012559413909912109375, 0.1921547949314117431640625, 0.084584675729274749755859375, 0.2344304025173187255859375, 0.00030830249306745827198028564453125, 0.02262961864471435546875, -0.16147269308567047119140625, 0.10287089645862579345703125, 0.01132551394402980804443359375, 0.096322916448116302490234375, 0.0685615241527557373046875, -0.01617713458836078643798828125, 0.059698499739170074462890625, 0.22921772301197052001953125, 0.049050815403461456298828125, 0.097278594970703125, 0.022951878607273101806640625, 0.153987705707550048828125, 0.12727604806423187255859375, 0.01534537971019744873046875, 0.279881775379180908203125, 0.00919357128441333770751953125, -0.105526469647884368896484375, -0.15174795687198638916015625, -0.07862050831317901611328125, 0.045942388474941253662109375, 0.0458524860441684722900390625, 0.0823467075824737548828125, -0.122175998985767364501953125, 0.15287411212921142578125, -0.15599535405635833740234375, 0.1282142102718353271484375, 0.0309475846588611602783203125, -0.0228219218552112579345703125, -0.1296930015087127685546875, 0.112017817795276641845703125, 0.22548036277294158935546875, 0.084814645349979400634765625, 0.01326354034245014190673828125, 0.2697527408599853515625, -0.0073768966831266880035400390625, 0.0160795189440250396728515625, -0.18259073793888092041015625, 0.174021542072296142578125, -0.20350396633148193359375, -0.2719907462596893310546875, 0.1114331781864166259765625, -0.063722975552082061767578125, -0.1057157814502716064453125, 0.0321111939847469329833984375, -0.081786565482616424560546875, -0.343730270862579345703125, -0.314835488796234130859375, -0.4818625152111053466796875, -0.4009656012058258056640625, -0.639968693256378173828125, -0.86098849773406982421875, -1.5497653484344482421875, 0.04816697537899017333984375, -0.015972554683685302734375, -0.1150093376636505126953125, -0.12005348503589630126953125, -0.0438629686832427978515625, 0.05627310276031494140625, -0.0036376677453517913818359375, 0.10374282300472259521484375, -0.112302072346210479736328125, 0.0626417100429534912109375, 0.120377719402313232421875, -0.0675248801708221435546875, 0.0642385184764862060546875, 0.0042476472444832324981689453125, -0.067491255700588226318359375, -0.0224272906780242919921875, -0.108927555382251739501953125, -0.069952540099620819091796875, 0.4783073365688323974609375, 0.075445353984832763671875, 0.2934177815914154052734375, 0.1290092170238494873046875, 0.2378013432025909423828125, 0.0617516823112964630126953125, 0.17437778413295745849609375, 0.099823139607906341552734375, -0.067626334726810455322265625, 0.059359967708587646484375, 0.14639770984649658203125, 0.15776683390140533447265625, 0.0065353554673492908477783203125, 0.1907548010349273681640625, 0.2834922373294830322265625, 0.3115587532520294189453125, 0.2316938340663909912109375, -0.1260052621364593505859375, -0.2195705473423004150390625, -0.14998389780521392822265625, -0.22769041359424591064453125, -0.3065280616283416748046875, -0.058081530034542083740234375, -0.09284679591655731201171875, -0.12258823215961456298828125, -0.05042874813079833984375, -0.3307320177555084228515625, 0.03905005753040313720703125, -0.29302775859832763671875, -0.118611134588718414306640625, 0.01045132242143154144287109375, -0.0400176942348480224609375, -0.20514093339443206787109375, -0.083158262073993682861328125, -0.1294705867767333984375, -0.4862638413906097412109375, -0.00035899630165658891201019287109375, 0.03298814594745635986328125, -0.056766904890537261962890625, -0.150529563426971435546875, -0.0353980995714664459228515625, -0.0033740862272679805755615234375, -0.1948973238468170166015625, -0.02888779155910015106201171875, 0.0059946686960756778717041015625, -0.0313055031001567840576171875, -0.09528505802154541015625, 0.062933646142482757568359375, -0.0923590362071990966796875, -0.072466485202312469482421875, -0.105394996702671051025390625, 0.1664325892925262451171875, 0.03313483297824859619140625, -0.0333186201751232147216796875, 0.85456049442291259765625, 0.814978122711181640625, 0.65235435962677001953125, 0.67948973178863525390625, 0.677886962890625, 0.527408540248870849609375, 0.2503714263439178466796875, 0.15118546783924102783203125, 0.02144034206867218017578125, 0.14932949841022491455078125, -0.07033096253871917724609375, -0.1663202345371246337890625, -0.13052402436733245849609375, -0.26485574245452880859375, -0.122007273137569427490234375, -0.2121665775775909423828125, -0.21842563152313232421875, 0.0328822471201419830322265625, -0.0322439558804035186767578125, -0.12999500334262847900390625, -0.273796737194061279296875, 0.02752615511417388916015625, 0.02685968577861785888671875, -0.081783808767795562744140625, 0.06312711536884307861328125, 0.0383527986705303192138671875, 0.1591620743274688720703125, -0.0025571878068149089813232421875, 0.01941503025591373443603515625, 0.09218323230743408203125, 0.120315350592136383056640625, -0.0390821509063243865966796875, 0.122310854494571685791015625, 0.066170878708362579345703125, -0.1180311739444732666015625, -0.0461573190987110137939453125, -0.01944819651544094085693359375, 0.094653584063053131103515625, 0.106860406696796417236328125, 0.088265903294086456298828125, 0.01474423520267009735107421875, -0.17078827321529388427734375, 0.078323163092136383056640625, 0.082003124058246612548828125, -0.00971624068915843963623046875, -0.11841119825839996337890625, -0.1525633633136749267578125, -0.1307075023651123046875, -0.266091525554656982421875, -0.0281281657516956329345703125, -0.1098612844944000244140625, -0.1767479479312896728515625, -0.18141804635524749755859375, -0.4190286695957183837890625, -0.864043891429901123046875, -0.529798448085784912109375, -0.3555259406566619873046875, -0.3989729583263397216796875, -0.5479948520660400390625, -0.1702847778797149658203125, -0.274472296237945556640625, -0.3760396540164947509765625, -0.2704823017120361328125, -0.13753490149974822998046875, -0.2684013843536376953125, -0.2027644813060760498046875, -0.419341504573822021484375, -0.2049624919891357421875, -0.2383705079555511474609375, -0.3263624012470245361328125, -0.377629339694976806640625, -0.4647504389286041259765625, 0.265015900135040283203125, 0.188440024852752685546875, 0.166769921779632568359375, 0.06676746904850006103515625, 0.1405744850635528564453125, 0.1444101631641387939453125, 0.20619730651378631591796875, 0.310235202312469482421875, 0.2334309518337249755859375, 0.22095811367034912109375, 0.24437840282917022705078125, 0.3388738930225372314453125, 0.3638758361339569091796875, 0.3225962817668914794921875, 0.389868080615997314453125, 0.4175737798213958740234375, 0.3548681437969207763671875, 0.620588123798370361328125, 0.0336275994777679443359375, -0.12355768680572509765625, 0.0463178344070911407470703125, -0.080342404544353485107421875, -0.004315168596804141998291015625, 0.01818309910595417022705078125, 0.0591250360012054443359375, 0.0134582258760929107666015625, 0.0181124918162822723388671875, -0.0562076158821582794189453125, -0.13048924505710601806640625, -0.062616221606731414794921875, 0.049375511705875396728515625, -0.02314662002027034759521484375, -0.0237288363277912139892578125, -0.011341505683958530426025390625, 0.0619308613240718841552734375, 0.2691751420497894287109375, -0.278809130191802978515625, -0.18030856549739837646484375, -0.15180595219135284423828125, -0.3191882669925689697265625, 0.17105104029178619384765625, -0.085673905909061431884765625, -0.1684265434741973876953125, -0.2219928801059722900390625, 0.1125324666500091552734375, -0.0610498674213886260986328125, 0.08258916437625885009765625, -0.073570422828197479248046875, -0.0428942404687404632568359375, -0.4194476902484893798828125, -0.11581690609455108642578125, -0.297095954418182373046875, -0.306935489177703857421875, -0.15950311720371246337890625, 0.21091111004352569580078125, 0.281613171100616455078125, 0.16039665043354034423828125, 0.3203277885913848876953125, 0.153693616390228271484375, -0.037424080073833465576171875, 0.074824988842010498046875, 0.2858407199382781982421875, 0.20137989521026611328125, 0.104776762425899505615234375, -0.008845687843859195709228515625, 0.1228533089160919189453125, 0.059784412384033203125, -0.088453114032745361328125, 0.00300099351443350315093994140625, -0.08057625591754913330078125, -0.1843380630016326904296875, -0.093944244086742401123046875, 0.118236593902111053466796875, 0.1369027793407440185546875, 0.107073836028575897216796875, 0.18704940378665924072265625, 0.0919336974620819091796875, 0.22616253793239593505859375, 0.07206498086452484130859375, 0.116765327751636505126953125, -0.0385178029537200927734375, 0.03358756005764007568359375, 0.182683885097503662109375, -0.09309367835521697998046875, 0.00418500788509845733642578125, -0.1451423168182373046875, 0.0344558767974376678466796875, 0.08919869363307952880859375, 0.1014559566974639892578125, 0.3248333632946014404296875, 0.9934475421905517578125, 0.75913465023040771484375, 0.909566819667816162109375, 0.94180583953857421875, 0.55547726154327392578125, 0.4502470493316650390625, 0.712525427341461181640625, 0.609225451946258544921875, 0.3331998884677886962890625, 0.378873527050018310546875, 0.4302634894847869873046875, 0.651512444019317626953125, 0.3894494473934173583984375, 0.5575466156005859375, 0.389838159084320068359375, 0.76447451114654541015625, 0.77112138271331787109375, 0.751419842243194580078125, 0.0378840602934360504150390625, -0.0956772267818450927734375, 0.071382842957973480224609375, -0.2297365665435791015625, 0.0546235255897045135498046875, 0.01848279125988483428955078125, -0.240870296955108642578125, -0.0565058998763561248779296875, 0.080362923443317413330078125, 0.12029850482940673828125, 0.17031429708003997802734375, 0.34508836269378662109375, -0.0606958083808422088623046875, -0.010367580689489841461181640625, 0.1404182910919189453125, -0.00198489218018949031829833984375, 0.073236949741840362548828125, 0.4358956515789031982421875, -0.047550134360790252685546875, 0.045682959258556365966796875, -0.0623855851590633392333984375, 0.0320261605083942413330078125, -0.2103284299373626708984375, 0.0436634719371795654296875, -0.1216521561145782470703125, 0.08565412461757659912109375, -0.13644586503505706787109375, 0.01812067814171314239501953125, 0.0005641917814500629901885986328125, 0.0540831983089447021484375, -0.0339368991553783416748046875, 0.072039745748043060302734375, 0.014493404887616634368896484375, 0.1954438388347625732421875, 0.008297684602439403533935546875, 0.0387906692922115325927734375, 0.949789702892303466796875, 0.868727028369903564453125, 0.84388792514801025390625, 0.7793900966644287109375, 0.3773817121982574462890625, 0.674712836742401123046875, 0.607188761234283447265625, 0.50123679637908935546875, 0.407633364200592041015625, 0.76609551906585693359375, 0.277632057666778564453125, 0.20050537586212158203125, -0.02430059947073459625244140625, -0.12746791541576385498046875, 0.06936509907245635986328125, 0.1344439983367919921875, 0.1631823480129241943359375, 0.69668614864349365234375, 0.17215628921985626220703125, -0.014084615744650363922119140625, -0.01658702082931995391845703125, 0.11760072410106658935546875, 0.047835119068622589111328125, -0.047598697245121002197265625, -0.1974140703678131103515625, 0.10556532442569732666015625, 0.14252056181430816650390625, -0.0085871517658233642578125, -0.21057365834712982177734375, -0.21768932044506072998046875, 0.17168305814266204833984375, -0.0022874209098517894744873046875, 0.0530850403010845184326171875, 0.064182795584201812744140625, 0.016044370830059051513671875, -0.0320102386176586151123046875, -0.0051378994248807430267333984375, -0.05900037288665771484375, 0.03027920424938201904296875, -0.0238637290894985198974609375, 0.22594995796680450439453125, 0.096994422376155853271484375, -0.01722053252160549163818359375, 0.2032174766063690185546875, -0.063793174922466278076171875, 0.20171201229095458984375, -0.228141486644744873046875, -0.21376667916774749755859375, -0.285802304744720458984375, 0.0249603576958179473876953125, -0.4936208426952362060546875, 0.10472361743450164794921875, 0.18005253374576568603515625, 0.4395282566547393798828125, 0.1911757886409759521484375, 0.204584777355194091796875, 0.0443466566503047943115234375, 0.1217395365238189697265625, 0.2502458393573760986328125, 0.009451805613934993743896484375, 0.19471721351146697998046875, 0.2570909559726715087890625, 0.12413243949413299560546875, 0.118955262005329132080078125, 0.21721293032169342041015625, 0.15526007115840911865234375, 0.184099733829498291015625, 0.0145598389208316802978515625, -0.0525454990565776824951171875, 0.3111226260662078857421875, 0.17770780622959136962890625, 0.4370588362216949462890625, -0.0317825563251972198486328125, -0.0168943144381046295166015625, 0.076847262680530548095703125, 0.123015202581882476806640625, -0.012920551002025604248046875, -0.001511142239905893802642822265625, -0.08351008594036102294921875, -0.0373117886483669281005859375, -0.049842186272144317626953125, 0.012579985894262790679931640625, -0.01473446749150753021240234375, 0.18563427031040191650390625, -0.02262875251471996307373046875, 0.1573841869831085205078125, 0.0474550314247608184814453125, 0.120259940624237060546875, 0.20177887380123138427734375, 0.4292577803134918212890625, 0.0595920644700527191162109375, 0.16209231317043304443359375, -0.1669283211231231689453125, -0.06474412977695465087890625, -0.07428629696369171142578125, -0.0232232920825481414794921875, -0.15871353447437286376953125, -0.10432238876819610595703125, 0.21501050889492034912109375, -0.22587440907955169677734375, 0.18796481192111968994140625, -0.00272007402963936328887939453125, 0.15402956306934356689453125, 0.078951634466648101806640625, 0.15254773199558258056640625, -0.1868494451045989990234375, -0.14274166524410247802734375, 0.0422223396599292755126953125, 0.545139014720916748046875, 0.372931957244873046875, 0.3247314393520355224609375, 0.3447743356227874755859375, 0.363082826137542724609375, 0.2685660421848297119140625, 0.072819836437702178955078125, 0.07054312527179718017578125, 0.0148208551108837127685546875, -0.084082387387752532958984375, -0.090889953076839447021484375, -0.13633666932582855224609375, 0.0077732228673994541168212890625, -0.13619653880596160888671875, -0.4071075916290283203125, -0.077883951365947723388671875, 0.13125757873058319091796875, 0.2143538892269134521484375, 0.0210924409329891204833984375, 0.20094723999500274658203125, -0.06694757938385009765625, -0.221765220165252685546875, -0.0116818957030773162841796875, -0.14202632009983062744140625, -0.0433184467256069183349609375, -0.075559444725513458251953125, -0.05006195604801177978515625, 0.145427763462066650390625, -0.02385102026164531707763671875, 0.03296472132205963134765625, -0.0324218161404132843017578125, 0.011799662373960018157958984375, -0.088035441935062408447265625, -0.0058707301504909992218017578125, -0.01656095497310161590576171875, 0.112670801579952239990234375, -0.22360096871852874755859375, 0.13206399977207183837890625, 0.0143119506537914276123046875, 0.14653503894805908203125, 0.0371022783219814300537109375, -0.067101098597049713134765625, -0.015543990768492221832275390625, 0.02654408849775791168212890625, -0.002169527113437652587890625, -0.20185680687427520751953125, -0.11400496959686279296875, -0.16169582307338714599609375, -0.15899135172367095947265625, -0.069163240492343902587890625, -0.12541516125202178955078125, -0.075709044933319091796875, -0.106721542775630950927734375, -0.04178754985332489013671875, 0.90938150882720947265625, 0.811089694499969482421875, 0.84560430049896240234375, 0.9659125804901123046875, 0.8652527332305908203125, 0.53549587726593017578125, 0.626951873302459716796875, 0.706583321094512939453125, 0.543504059314727783203125, 0.397399008274078369140625, 0.15971298515796661376953125, 0.17406769096851348876953125, 0.24977429211139678955078125, -0.029464788734912872314453125, -0.0478056930005550384521484375, 0.109475217759609222412109375, 0.3070029318332672119140625, 0.4168272316455841064453125, 0.509335994720458984375, 0.711583912372589111328125, 0.45169794559478759765625, 0.23624344170093536376953125, 0.3516288697719573974609375, 0.51628208160400390625, 0.2905450761318206787109375, 0.469457685947418212890625, 0.27177035808563232421875, 0.3654232323169708251953125, 0.57523572444915771484375, 0.425131976604461669921875, 0.441625416278839111328125, 0.5135481357574462890625, 0.668147146701812744140625, 0.3122121989727020263671875, 0.3854038715362548828125, 0.398761272430419921875, -0.4658679962158203125, -0.500631272792816162109375, -0.29596269130706787109375, -0.4606583416461944580078125, -0.090004093945026397705078125, -0.0574470870196819305419921875, -0.006223010830581188201904296875, -0.373603522777557373046875, -0.1957262456417083740234375, -0.333588063716888427734375, -0.2715694010257720947265625, -0.4865308105945587158203125, -0.472612321376800537109375, -0.1953034698963165283203125, -0.14492855966091156005859375, -0.171395242214202880859375, 0.033726938068866729736328125, 0.2873108685016632080078125, 1.39286839962005615234375, 1.22891294956207275390625, 1.1668059825897216796875, 1.23174202442169189453125, 1.1164302825927734375, 1.06299293041229248046875, 1.0637962818145751953125, 1.19157993793487548828125, 1.07204377651214599609375, 1.22529923915863037109375, 1.352328777313232421875, 1.1419124603271484375, 1.1810338497161865234375, 1.06412899494171142578125, 1.38025414943695068359375, 1.3041431903839111328125, 1.4551131725311279296875, 1.68006598949432373046875, 0.15774953365325927734375, 0.081255204975605010986328125, 0.352277576923370361328125, 0.33681476116180419921875, 0.17894519865512847900390625, 0.418966591358184814453125, 0.4686122834682464599609375, 0.4067431986331939697265625, 0.3483731448650360107421875, 0.1253767311573028564453125, 0.04192744195461273193359375, 0.14344680309295654296875, 0.2935972511768341064453125, 0.2225255668163299560546875, 0.1900177896022796630859375, 0.19444750249385833740234375, 0.3005058467388153076171875, 0.2720192372798919677734375, 0.2937304079532623291015625, 0.079665072262287139892578125, 0.2157380878925323486328125, 0.1489687263965606689453125, -0.00197127577848732471466064453125, 0.078301407396793365478515625, -0.01693101041018962860107421875, -0.01082522608339786529541015625, 0.3082065880298614501953125, 0.073728002607822418212890625, -0.00327143794856965541839599609375, -0.1682517528533935546875, -0.099127046763896942138671875, -0.059782005846500396728515625, 0.14327944815158843994140625, 0.063562057912349700927734375, 0.091597378253936767578125, -0.13109759986400604248046875, 0.079491548240184783935546875, 0.2521543204784393310546875, 0.05542780458927154541015625, 0.383744895458221435546875, 0.4873099625110626220703125, 0.3422062695026397705078125, 0.289583384990692138671875, 0.355503737926483154296875, 0.3921179473400115966796875, 0.3480137884616851806640625, 0.1882296502590179443359375, 0.031164325773715972900390625, 0.2766713798046112060546875, 0.121623970568180084228515625, 0.1471594274044036865234375, 0.2823404371738433837890625, 0.57750427722930908203125, 0.638670980930328369140625, 0.489086925983428955078125, 0.4737203419208526611328125, 0.4192853271961212158203125, 0.4913300573825836181640625, 0.3907598555088043212890625, 0.1188743114471435546875, 0.25746929645538330078125, 0.20528267323970794677734375, 0.244434356689453125, 0.3185634911060333251953125, -0.02739075385034084320068359375, 0.0576629899442195892333984375, 0.0434813015162944793701171875, -0.0511182285845279693603515625, 0.21123416721820831298828125, -0.01376661472022533416748046875, -0.090325891971588134765625, -0.13860373198986053466796875, 0.112117119133472442626953125, 0.1323300302028656005859375, 0.0009717065258882939815521240234375, 0.10935397446155548095703125, 0.117292486131191253662109375, 0.119641371071338653564453125, 0.18554973602294921875, 0.0578837096691131591796875, 0.13528423011302947998046875, 0.1574676036834716796875, 0.14819724857807159423828125, 0.13027973473072052001953125, -0.01586543209850788116455078125, 0.1209456622600555419921875, 0.01892091520130634307861328125, 0.18505418300628662109375, 0.200558125972747802734375, 0.065141372382640838623046875, 0.053300909698009490966796875, 0.13899265229701995849609375, -0.092697553336620330810546875, -0.0042081438004970550537109375, 0.1643573939800262451171875, -0.054480850696563720703125, 0.098119907081127166748046875, 0.1782348155975341796875, 0.13463859260082244873046875, 0.189206540584564208984375, 0.1807296574115753173828125, -0.056645095348358154296875, -0.109233193099498748779296875, 0.12395615875720977783203125, 0.22618663311004638671875, 0.1766378581523895263671875, 0.4989992082118988037109375, 0.8063042163848876953125, 0.2500133216381072998046875, 0.0589160956442356109619140625, 0.36994707584381103515625, 0.2540657818317413330078125, 0.1811833679676055908203125, 0.3485821187496185302734375, 0.2528005540370941162109375, 0.4279865324497222900390625, 0.40529477596282958984375, 0.3822046220302581787109375, 0.35544621944427490234375, 0.0441860966384410858154296875, 0.27258932590484619140625, 0.16813831031322479248046875, 0.078730113804340362548828125, 0.2577176988124847412109375, 0.1266014575958251953125, 0.18256013095378875732421875, -0.2750333845615386962890625, -0.18862731754779815673828125, -0.132686078548431396484375, -0.0501341186463832855224609375, -0.080967180430889129638671875, -0.13401353359222412109375, -0.007576945237815380096435546875, -0.2020943462848663330078125, -0.02583523280918598175048828125, -0.084113352000713348388671875, 0.03359995782375335693359375, -0.2158541977405548095703125, -0.21788479387760162353515625, 0.0041368012316524982452392578125, 0.07037746906280517578125, -0.04316987097263336181640625, 0.15241134166717529296875, 0.518858015537261962890625, 0.3177628219127655029296875, 0.1895507276058197021484375, 0.25783216953277587890625, 0.2020526230335235595703125, 0.14074908196926116943359375, 0.2542832791805267333984375, 0.12246052920818328857421875, 0.078256048262119293212890625, 0.100928656756877899169921875, 0.203566372394561767578125, 0.3514970242977142333984375, 0.264797985553741455078125, 0.287774145603179931640625, 0.3839513957500457763671875, 0.2195662558078765869140625, 0.1666898429393768310546875, 0.16852664947509765625, 0.3017402589321136474609375, 0.279800474643707275390625, 0.358478486537933349609375, 0.13417197763919830322265625, 0.287478506565093994140625, 0.292129456996917724609375, 0.189237415790557861328125, 0.17703151702880859375, 0.112210147082805633544921875, 0.09056644141674041748046875, 0.085040442645549774169921875, 0.038525521755218505859375, 0.0258010514080524444580078125, -0.054211772978305816650390625, -0.040487207472324371337890625, -0.06005652248859405517578125, -0.06698109209537506103515625, -0.15232460200786590576171875, -0.086301542818546295166015625, -0.1917719542980194091796875, -0.1227844655513763427734375, -0.28152072429656982421875, -0.30897128582000732421875, -0.117165260016918182373046875, -0.2321453392505645751953125, -0.2520983219146728515625, -0.1706276834011077880859375, -0.1650281250476837158203125, -0.082936160266399383544921875, -0.0551711730659008026123046875, 0.0107150375843048095703125, -0.21939133107662200927734375, -0.3031816184520721435546875, -0.22693717479705810546875, -0.06340168416500091552734375, -0.034867085516452789306640625, 0.0714399516582489013671875, 0.1661271154880523681640625, 0.4518200457096099853515625, 0.296630084514617919921875, 0.3921945393085479736328125, 0.2237648665904998779296875, 0.2355315983295440673828125, 0.23044551908969879150390625, 0.30269920825958251953125, 0.195038974285125732421875, 0.14646489918231964111328125, 0.1993260681629180908203125, 0.10613133013248443603515625, 0.092789031565189361572265625, -0.0180657207965850830078125, 0.11512152850627899169921875, 0.3349082171916961669921875, 0.39754974842071533203125, 0.52509307861328125, 0.220495283603668212890625, 0.101717241108417510986328125, 0.13838990032672882080078125, -0.0034552779980003833770751953125, -0.005793325603008270263671875, 0.12565927207469940185546875, -0.0166803486645221710205078125, 0.202478229999542236328125, 0.048863120377063751220703125, 0.119216240942478179931640625, -0.0060632233507931232452392578125, 0.0160541869699954986572265625, -0.00874099321663379669189453125, 0.21810476481914520263671875, 0.0536370575428009033203125, -0.02389455027878284454345703125, 0.0904885232448577880859375, 0.2790939509868621826171875, 0.10007794201374053955078125, 0.251775085926055908203125, 0.0426855422556400299072265625, 0.0323137938976287841796875, 0.114975802600383758544921875, -0.080833069980144500732421875, 0.05532848834991455078125, -0.0380489416420459747314453125, 0.1637600958347320556640625, 0.101143859326839447021484375, 0.0532839410006999969482421875, 0.1982989609241485595703125, 0.21725983917713165283203125, 0.01233202032744884490966796875, 0.23668481409549713134765625, 0.24222968518733978271484375, 0.1966603100299835205078125, 0.172186195850372314453125, 0.22961752116680145263671875, 0.17523322999477386474609375, 0.151135027408599853515625, 0.3519896566867828369140625, 0.18281151354312896728515625, 0.3041404783725738525390625, 0.3051404654979705810546875, 0.3938138186931610107421875, 0.22011898458003997802734375, 0.347238719463348388671875, 0.345286905765533447265625, 0.4940355122089385986328125, 0.3539174497127532958984375, 0.610409677028656005859375, 0.636146843433380126953125, 0.585517942905426025390625, 0.7182290554046630859375, 0.55813515186309814453125, -1.0435621738433837890625, -0.837853610515594482421875, -0.801342487335205078125, -0.822078287601470947265625, -0.774424970149993896484375, -0.7882635593414306640625, -0.824856579303741455078125, -0.779416382312774658203125, -0.73822247982025146484375, -0.698850214481353759765625, -0.72187697887420654296875, -0.512294769287109375, -0.594066560268402099609375, -0.7022769451141357421875, -0.734829962253570556640625, -0.657783985137939453125, -0.890431463718414306640625, -0.95044648647308349609375, 0.108868487179279327392578125, -0.160133898258209228515625, -0.11716167628765106201171875, -0.0694725811481475830078125, -0.0670169889926910400390625, -0.0588056258857250213623046875, 0.07524730265140533447265625, -0.0623055584728717803955078125, -0.0344164334237575531005859375, -0.06542955338954925537109375, -0.0863942205905914306640625, -0.084982760250568389892578125, 0.02164519764482975006103515625, 0.2733104526996612548828125, 0.00034469747333787381649017333984375, 0.17033447325229644775390625, -0.0589906759560108184814453125, -0.081999801099300384521484375, -0.4077436923980712890625, -0.1773101985454559326171875, -0.33404672145843505859375, -0.29340422153472900390625, -0.24236606061458587646484375, -0.2162950038909912109375, -0.292880475521087646484375, -0.25194084644317626953125, -0.251396715641021728515625, -0.16090439260005950927734375, -0.283951222896575927734375, -0.3324992954730987548828125, -0.309052944183349609375, -0.29453384876251220703125, -0.303925812244415283203125, -0.137950420379638671875, -0.02631033398211002349853515625, 0.1873406469821929931640625, -0.4084885120391845703125, -0.105885088443756103515625, -0.18879111111164093017578125, -0.20436902344226837158203125, -0.21077167987823486328125, 0.056452341377735137939453125, -0.2553828060626983642578125, -0.21349664032459259033203125, -0.214965522289276123046875, -0.0620967112481594085693359375, 0.06950938701629638671875, -0.066290013492107391357421875, -0.094215072691440582275390625, 0.01174793578684329986572265625, -0.17662441730499267578125, -0.2176569402217864990234375, -0.124053776264190673828125, -0.29198467731475830078125, 0.102757118642330169677734375, 0.2995112836360931396484375, 0.3163914382457733154296875, 0.279056489467620849609375, 0.2143683731555938720703125, 0.4313502609729766845703125, 0.17085064947605133056640625, 0.18038690090179443359375, 0.3509533107280731201171875, 0.058518148958683013916015625, 0.1651484072208404541015625, 0.2247962057590484619140625, 0.15598081052303314208984375, 0.2071228921413421630859375, 0.25424683094024658203125, 0.30402982234954833984375, 0.3543720245361328125, 0.629256427288055419921875, 0.72463214397430419921875, 0.731707632541656494140625, 0.73955976963043212890625, 0.640102565288543701171875, 0.535930454730987548828125, 0.7303049564361572265625, 0.7425382137298583984375, 0.652854502201080322265625, 0.579600393772125244140625, 0.649967133998870849609375, 0.7780578136444091796875, 0.549375474452972412109375, 0.568391323089599609375, 0.631640732288360595703125, 0.6204121112823486328125, 0.4704608917236328125, 0.519405663013458251953125, 0.645692646503448486328125, -0.027690403163433074951171875, 0.10314594209194183349609375, 0.16748501360416412353515625, 0.1605648100376129150390625, 0.0199656784534454345703125, 0.1614757478237152099609375, 0.252078950405120849609375, 0.0449283309280872344970703125, 0.09292466938495635986328125, 0.074924886226654052734375, 0.046352066099643707275390625, 0.105393461883068084716796875, 0.2151491641998291015625, 0.15426205098628997802734375, 0.2723771035671234130859375, 0.4914091527462005615234375, 0.3437689840793609619140625, 0.773620128631591796875, 0.90831053256988525390625, 0.79697418212890625, 0.7100064754486083984375, 0.7290041446685791015625, 0.79269301891326904296875, 0.47233676910400390625, 0.50856983661651611328125, 0.579377591609954833984375, 0.586071670055389404296875, 0.404123604297637939453125, 0.73554515838623046875, 0.777050316333770751953125, 0.772030353546142578125, 0.674732208251953125, 0.662194788455963134765625, 0.72367274761199951171875, 0.66515636444091796875, 0.723423659801483154296875, 0.17367337644100189208984375, -0.14902792870998382568359375, 0.09765307605266571044921875, 0.0716029107570648193359375, 0.2537404000759124755859375, 0.15826658904552459716796875, 0.079762957990169525146484375, 0.2557936012744903564453125, 0.298455893993377685546875, 0.015804536640644073486328125, 0.2905351817607879638671875, 0.14104616641998291015625, 0.1631735265254974365234375, 0.18159554898738861083984375, 0.18583036959171295166015625, 0.093192793428897857666015625, 0.532395303249359130859375, 0.647408962249755859375, 0.0470060072839260101318359375, 0.05779565870761871337890625, 0.1561250388622283935546875, -0.00257893488742411136627197265625, 0.21760283410549163818359375, 0.2427424490451812744140625, 0.317706167697906494140625, 0.3808235824108123779296875, 0.2805120944976806640625, 0.2643832266330718994140625, 0.34516048431396484375, 0.13448333740234375, 0.4669956862926483154296875, 0.298764288425445556640625, 0.51381170749664306640625, 0.463021934032440185546875, 0.569730579853057861328125, 0.531472146511077880859375, 0.1504032313823699951171875, 0.2724111080169677734375, 0.02496898360550403594970703125, -0.0203342773020267486572265625, -0.0697305500507354736328125, -0.005233990959823131561279296875, -0.058714918792247772216796875, -0.056912481784820556640625, -0.02423755638301372528076171875, 0.0528809018433094024658203125, 0.06879629194736480712890625, -0.135163962841033935546875, -0.058820791542530059814453125, -0.11915548145771026611328125, -0.0428912229835987091064453125, 0.112422429025173187255859375, 0.0480284802615642547607421875, 0.12730109691619873046875, 0.75809228420257568359375, 0.757325351238250732421875, 0.541342079639434814453125, 0.588725626468658447265625, 0.527336418628692626953125, 0.3056163489818572998046875, 0.469027996063232421875, 0.69862806797027587890625, 0.5772202014923095703125, 0.4221571981906890869140625, 0.521621525287628173828125, 0.4057644307613372802734375, 0.294266879558563232421875, 0.581215083599090576171875, 0.3943604528903961181640625, 0.53909599781036376953125, 0.4692032635211944580078125, 0.88890659809112548828125, -0.44206941127777099609375, -0.21416796743869781494140625, -0.101435996592044830322265625, -0.13110883533954620361328125, -0.16297484934329986572265625, -0.13096542656421661376953125, -0.1363563835620880126953125, -0.3103182613849639892578125, -0.174242198467254638671875, -0.1875024735927581787109375, -0.024981088936328887939453125, -0.112541638314723968505859375, 0.0486306846141815185546875, 0.0816060602664947509765625, -0.0192025937139987945556640625, -0.15890021622180938720703125, -0.19534839689731597900390625, -0.2658933699131011962890625, -0.758293569087982177734375, -1.0296461582183837890625, -0.760273158550262451171875, -0.764518201351165771484375, -0.683427512645721435546875, -0.783894717693328857421875, -0.72603142261505126953125, -0.58468663692474365234375, -0.4591702520847320556640625, -0.5139167308807373046875, -0.591634690761566162109375, -0.41471898555755615234375, -0.49332416057586669921875, -0.332036793231964111328125, -0.617471635341644287109375, -0.544063270092010498046875, -0.657367229461669921875, -0.509510040283203125, 0.51158905029296875, 0.3641818463802337646484375, 0.564032495021820068359375, 0.391977250576019287109375, 0.511900603771209716796875, 0.37013280391693115234375, 0.386450290679931640625, 0.308641374111175537109375, 0.4158730804920196533203125, 0.3075862228870391845703125, 0.4364078044891357421875, 0.308464944362640380859375, 0.122082360088825225830078125, 0.3664548397064208984375, 0.2781434953212738037109375, 0.31972324848175048828125, 0.3104574680328369140625, 0.2927195727825164794921875, -0.636928081512451171875, -0.761805951595306396484375, -0.468152344226837158203125, -0.50043737888336181640625, -0.433422863483428955078125, -0.516542136669158935546875, -0.2991088926792144775390625, -0.4389958083629608154296875, -0.468595683574676513671875, -0.3852528035640716552734375, -0.4922618567943572998046875, -0.49889218807220458984375, -0.4748574793338775634765625, -0.465587615966796875, -0.438200414180755615234375, -0.4950028359889984130859375, -0.645586192607879638671875, -0.7698967456817626953125, -0.079739786684513092041015625, -0.168596327304840087890625, -0.1188711822032928466796875, -0.2717187106609344482421875, -0.138128757476806640625, -0.2814593017101287841796875, -0.20334787666797637939453125, -0.3570623099803924560546875, -0.2389510571956634521484375, -0.3350925445556640625, -0.041417233645915985107421875, -0.24880252778530120849609375, -0.30576503276824951171875, -0.14073145389556884765625, -0.2188189029693603515625, -0.386223733425140380859375, -0.36952483654022216796875, -0.3351196944713592529296875, -0.18635113537311553955078125, -0.00386916636489331722259521484375, 0.084157355129718780517578125, 0.083511002361774444580078125, 0.0574065484106540679931640625, 0.12657178938388824462890625, 0.347432553768157958984375, 0.0356071479618549346923828125, 0.3179934322834014892578125, 0.16564781963825225830078125, 0.20693020522594451904296875, 0.12057729065418243408203125, 0.2250740826129913330078125, 0.072690106928348541259765625, 0.3621901571750640869140625, 0.07181341946125030517578125, 0.37271559238433837890625, 0.40191185474395751953125, -0.2963739931583404541015625, -0.1353639662265777587890625, -0.19396854937076568603515625, -0.22952592372894287109375, -0.13487900793552398681640625, -0.0357238911092281341552734375, 0.0285164155066013336181640625, 0.008250338025391101837158203125, -0.01209332235157489776611328125, -0.066852636635303497314453125, -0.108101613819599151611328125, -0.123670518398284912109375, -0.02250695787370204925537109375, 0.0443214140832424163818359375, 0.1045316755771636962890625, 0.08947612345218658447265625, -0.137714207172393798828125, -0.0573465339839458465576171875, 0.090275727212429046630859375, 0.07772593200206756591796875, 0.127557575702667236328125, 0.4720589816570281982421875, 0.11080627143383026123046875, 0.048431538045406341552734375, 0.01589781232178211212158203125, 0.2786243259906768798828125, 0.141938030719757080078125, 0.2176631391048431396484375, 0.4196474254131317138671875, 0.21655540168285369873046875, 0.17740710079669952392578125, 0.4691037237644195556640625, 0.3863042294979095458984375, 0.677478730678558349609375, 0.52453982830047607421875, 0.53718197345733642578125, -0.2057044506072998046875, -0.1784292161464691162109375, -0.22052238881587982177734375, -0.1424171924591064453125, -0.3447079360485076904296875, -0.2978063523769378662109375, -0.124131582677364349365234375, -0.168806731700897216796875, -0.1827185153961181640625, -0.3340596258640289306640625, -0.2537813484668731689453125, -0.09575474262237548828125, -0.16434504091739654541015625, -0.2734934985637664794921875, -0.221332013607025146484375, -0.117398552596569061279296875, 0.08547301590442657470703125, 0.080678321421146392822265625, 0.111821912229061126708984375, 0.09618091583251953125, 0.09333963692188262939453125, 0.1644737422466278076171875, 0.2044920623302459716796875, 0.288563251495361328125, 0.23158134520053863525390625, 0.3072205483913421630859375, 0.2725923955440521240234375, 0.24830757081508636474609375, 0.156661212444305419921875, 0.0471539087593555450439453125, 0.086270630359649658203125, 0.02264508046209812164306640625, -0.1480820178985595703125, -0.104964531958103179931640625, 0.17945230007171630859375, 0.58644592761993408203125, -0.4194009602069854736328125, -0.249061524868011474609375, -0.23419375717639923095703125, -0.100018464028835296630859375, -0.1462223231792449951171875, -0.25639736652374267578125, -0.17697799205780029296875, -0.05494613945484161376953125, -0.3346950709819793701171875, -0.24145114421844482421875, -0.21347868442535400390625, -0.18975709378719329833984375, -0.4459211528301239013671875, -0.2951420843601226806640625, -0.4250622689723968505859375, -0.3574368953704833984375, -0.3838279247283935546875, -0.278499126434326171875, -0.01647494547069072723388671875, -0.19879873096942901611328125, -0.0384915880858898162841796875, 0.1123776137828826904296875, -0.0412376858294010162353515625, 0.12790150940418243408203125, 0.16210602223873138427734375, 0.0386436171829700469970703125, 0.0326180718839168548583984375, -0.02400513552129268646240234375, -0.085469909012317657470703125, -0.089742980897426605224609375, 0.100238151848316192626953125, 0.2709770500659942626953125, 0.14850841462612152099609375, 0.17955337464809417724609375, 0.15014843642711639404296875, 0.492265999317169189453125, -0.0070961727760732173919677734375, 0.157603800296783447265625, 0.0323567576706409454345703125, 0.2150981426239013671875, 0.209944665431976318359375, 0.1731243133544921875, 0.0085722394287586212158203125, 0.082137860357761383056640625, -0.0575289763510227203369140625, 0.17936266958713531494140625, -0.14439974725246429443359375, 0.131463468074798583984375, 0.18045727908611297607421875, 0.092410691082477569580078125, -0.082099616527557373046875, 0.06870482861995697021484375, -0.012423931621015071868896484375, 0.07869243621826171875, 0.2806729376316070556640625, 0.3867435753345489501953125, 0.22538916766643524169921875, 0.067275919020175933837890625, 0.18238283693790435791015625, 0.1748028695583343505859375, -0.009939559735357761383056640625, 0.17683233320713043212890625, 0.00113558466546237468719482421875, 0.083528392016887664794921875, 0.2602693736553192138671875, 0.20280389487743377685546875, 0.0549216084182262420654296875, 0.13266386091709136962890625, 0.095962949097156524658203125, 0.12030793726444244384765625, 0.207454860210418701171875, 0.011261346749961376190185546875, 0.364255368709564208984375, 0.24237515032291412353515625, 0.13124857842922210693359375, 0.406257569789886474609375, 0.3508485853672027587890625, 0.16797451674938201904296875, 0.20649053156375885009765625, 0.270747482776641845703125, 0.275250494480133056640625, 0.4182280004024505615234375, 0.3986742794513702392578125, 0.713490188121795654296875, 0.57109224796295166015625, 0.2890932857990264892578125, 0.4281086623668670654296875, 0.381307899951934814453125, 0.68279826641082763671875, 0.84217548370361328125, -0.0935208499431610107421875, -0.001982023008167743682861328125, 0.1530800759792327880859375, 0.05632762610912322998046875, 0.0511971302330493927001953125, -0.060472227632999420166015625, 0.075880825519561767578125, 0.008662742562592029571533203125, -0.1040442883968353271484375, 0.20451800525188446044921875, -0.054080076515674591064453125, -0.184387981891632080078125, -0.3297961652278900146484375, -0.22539167106151580810546875, -0.260974586009979248046875, -0.0382796935737133026123046875, -0.0321204476058483123779296875, 0.344899952411651611328125, 1.10268402099609375, 0.77668035030364990234375, 0.909482061862945556640625, 0.620000422000885009765625, 0.76430761814117431640625, 0.651205956935882568359375, 0.574434757232666015625, 0.734472811222076416015625, 0.522862851619720458984375, 0.395954668521881103515625, 0.703126013278961181640625, 0.69378936290740966796875, 0.97203099727630615234375, 0.858121931552886962890625, 0.967804491519927978515625, 1.35689342021942138671875, 1.74276864528656005859375, 1.615232944488525390625, 0.310528099536895751953125, 0.505841672420501708984375, 0.3592096865177154541015625, 0.093865431845188140869140625, 0.0070450534112751483917236328125, 0.2774277031421661376953125, 0.0205941684544086456298828125, 0.31831490993499755859375, 0.00731022842228412628173828125, 0.027782209217548370361328125, 0.071232296526432037353515625, 0.03324539959430694580078125, -0.03631378710269927978515625, -0.0273025892674922943115234375, 0.02164368517696857452392578125, 0.18919892609119415283203125, 0.008075279183685779571533203125, -0.00426495075225830078125, 0.0720990002155303955078125, 0.068151287734508514404296875, 0.068046100437641143798828125, 0.054246269166469573974609375, 0.241726934909820556640625, 0.0033762608654797077178955078125, 0.1402014195919036865234375, 0.328036963939666748046875, 0.3061344921588897705078125, 0.14264006912708282470703125, 0.118928037583827972412109375, 0.110574640333652496337890625, 0.472177326679229736328125, 0.52278649806976318359375, 0.2729928195476531982421875, 0.55774366855621337890625, 0.596869409084320068359375, 1.01863610744476318359375, 0.4634661972522735595703125, 0.4246652424335479736328125, 0.564122676849365234375, 0.5225961208343505859375, 0.596853554248809814453125, 0.2989553511142730712890625, 0.377198696136474609375, 0.3677518069744110107421875, 0.437825858592987060546875, 0.24949811398983001708984375, 0.531967341899871826171875, 0.3724271357059478759765625, 0.52083492279052734375, 0.2757515609264373779296875, 0.650232374668121337890625, 0.3584744632244110107421875, 0.3054538667201995849609375, 0.2940454185009002685546875, 0.2456094920635223388671875, 0.2375001013278961181640625, 0.2349173128604888916015625, 0.19295816123485565185546875, 0.3826939165592193603515625, 0.259639203548431396484375, 0.20482577383518218994140625, 0.25672805309295654296875, 0.16606719791889190673828125, 0.2051945030689239501953125, 0.27452182769775390625, 0.23381523787975311279296875, 0.0569972731173038482666015625, 0.18649841845035552978515625, 0.3182800710201263427734375, 0.4837798178195953369140625, 0.346835315227508544921875, 0.285180389881134033203125, 0.2916558086872100830078125, 0.2156138122081756591796875, -0.0523631237447261810302734375, 0.13319079577922821044921875, 0.380327045917510986328125, 0.2867579162120819091796875, 0.27682209014892578125, 0.20505641400814056396484375, 0.38079965114593505859375, 0.38977682590484619140625, 0.3297999203205108642578125, 0.4654944241046905517578125, 0.349703311920166015625, 0.3052906692028045654296875, 0.2147908508777618408203125, 0.575816690921783447265625, 0.2986392080783843994140625, 0.61295497417449951171875, 0.20326340198516845703125, 0.14609359204769134521484375, 0.01189378462731838226318359375, 0.11960451304912567138671875, 0.18677295744419097900390625, 0.2749264538288116455078125, 0.03708641231060028076171875, 0.10308219492435455322265625, 0.029480852186679840087890625, 0.036363907158374786376953125, 0.02664544992148876190185546875, -0.02928668446838855743408203125, -0.082838721573352813720703125, 0.061699055135250091552734375, -0.157131671905517578125, 0.06326355040073394775390625, 0.080133147537708282470703125, 0.13258802890777587890625, -0.2812135219573974609375, -0.071799062192440032958984375, -0.20986373722553253173828125, -0.14869113266468048095703125, -0.20112274587154388427734375, -0.2404341995716094970703125, -0.15446712076663970947265625, -0.21714399755001068115234375, -0.17177481949329376220703125, -0.0324743501842021942138671875, -0.23233981430530548095703125, -0.083231411874294281005859375, -0.16320206224918365478515625, -0.26942193508148193359375, -0.0598473362624645233154296875, -0.1500125229358673095703125, 0.14196468889713287353515625, 0.24289254844188690185546875, 0.1275026500225067138671875, 0.3260959684848785400390625, 0.32747519016265869140625, 0.2659893333911895751953125, 0.12876784801483154296875, 0.191012918949127197265625, 0.2889243066310882568359375, 0.22410736978054046630859375, 0.112801015377044677734375, 0.13587284088134765625, 0.4260118007659912109375, 0.1105322539806365966796875, 0.101537920534610748291015625, 0.20554952323436737060546875, 0.20941795408725738525390625, 0.23001320660114288330078125, 0.17877621948719024658203125, -0.012910197488963603973388671875, -0.21167616546154022216796875, -0.2710472047328948974609375, -0.17014603316783905029296875, -0.0329142101109027862548828125, -0.1488023698329925537109375, -0.0227013044059276580810546875, -0.0015440485440194606781005859375, -0.089122764766216278076171875, 0.1149997413158416748046875, -0.0460734069347381591796875, -0.099854074418544769287109375, 0.06103624403476715087890625, -0.15017063915729522705078125, 0.2007670700550079345703125, 0.2681001126766204833984375, 0.2778322994709014892578125, 0.641283929347991943359375, 0.9314820766448974609375, -0.2583242356777191162109375, -0.21175704896450042724609375, -0.2912988364696502685546875, -0.1943871974945068359375, -0.13748000562191009521484375, -0.360802233219146728515625, -0.2923729419708251953125, -0.23269413411617279052734375, -0.1320086419582366943359375, -0.29473912715911865234375, -0.15662954747676849365234375, -0.2182523906230926513671875, -0.17706668376922607421875, -0.12734501063823699951171875, -0.16674400866031646728515625, -0.17541778087615966796875, -0.4144850671291351318359375, -0.3017762005329132080078125, -0.10370139777660369873046875, 0.3289348781108856201171875, 0.1391799449920654296875, 0.11443708837032318115234375, 0.191914856433868408203125, 0.359449088573455810546875, 0.1939504444599151611328125, 0.411716043949127197265625, 0.52473080158233642578125, 0.2485139667987823486328125, 0.2347585856914520263671875, 0.012896950356662273406982421875, 0.24842207133769989013671875, 0.12588463723659515380859375, 0.13880442082881927490234375, 0.4673474729061126708984375, 0.38749206066131591796875, 0.4010066986083984375, 0.21184177696704864501953125, 0.01597013510763645172119140625, -0.0246487893164157867431640625, -0.02700803242623805999755859375, 0.02083806879818439483642578125, -0.02830990217626094818115234375, -0.0193492136895656585693359375, 0.2583087384700775146484375, -0.0437084138393402099609375, -0.00290169450454413890838623046875, 0.1277187764644622802734375, 0.03020598180592060089111328125, 0.109955005347728729248046875, 0.035050094127655029296875, -0.11669649183750152587890625, -0.02636335231363773345947265625, -0.15352411568164825439453125, -0.19319547712802886962890625, -0.3477438390254974365234375, -0.449491977691650390625, -0.36931169033050537109375, -0.3640920221805572509765625, -0.3509785830974578857421875, -0.105052493512630462646484375, -0.3790715634822845458984375, -0.4489041864871978759765625, -0.2529828250408172607421875, -0.19703353941440582275390625, -0.254655539989471435546875, -0.397245347499847412109375, -0.4151829779148101806640625, -0.29810965061187744140625, -0.5919263362884521484375, -0.50899326801300048828125, -0.0460582487285137176513671875, -0.14913745224475860595703125, 0.728554069995880126953125, 0.2466500699520111083984375, 0.331856787204742431640625, 0.3550469577312469482421875, 0.355220019817352294921875, -0.00783474184572696685791015625, 0.323858737945556640625, 0.3300316333770751953125, 0.101102374494075775146484375, 0.267235219478607177734375, 0.2241456508636474609375, 0.1536241471767425537109375, 0.2858755886554718017578125, 0.290563046932220458984375, 0.46926224231719970703125, 0.3955358564853668212890625, 0.23584759235382080078125, 0.3971394002437591552734375, 0.237307727336883544921875, 0.2522057592868804931640625, 0.3016279637813568115234375, 0.31618177890777587890625, 0.15846259891986846923828125, 0.048865564167499542236328125, 0.23589606583118438720703125, -0.0503599345684051513671875, 0.085470549762248992919921875, -0.101131595671176910400390625, 0.1505560576915740966796875, 0.111103534698486328125, -0.002114809118211269378662109375, 0.20799951255321502685546875, 0.03119581378996372222900390625, 0.3598689138889312744140625, 0.305266797542572021484375, 0.15591354668140411376953125, -0.661310493946075439453125, -0.5382840633392333984375, -0.22916795313358306884765625, -0.55456268787384033203125, -0.504086971282958984375, -0.32313072681427001953125, -0.20379720628261566162109375, -0.0242508687078952789306640625, -0.20417506992816925048828125, -0.3645327985286712646484375, 0.02811581827700138092041015625, -0.08523638546466827392578125, -0.19536660611629486083984375, -0.21369718015193939208984375, 0.07867623865604400634765625, -0.3245967924594879150390625, -0.118165113031864166259765625, -0.6126582622528076171875, 0.20438359677791595458984375, -0.051111482083797454833984375, 0.0207500569522380828857421875, 0.06553827226161956787109375, 0.0179086960852146148681640625, 0.1577145755290985107421875, -0.01560721360146999359130859375, -0.04155971109867095947265625, 0.0222700573503971099853515625, -0.0533227957785129547119140625, -0.054591350257396697998046875, 0.02807970158755779266357421875, 0.045417726039886474609375, -0.050303064286708831787109375, -0.07479798793792724609375, 0.063361383974552154541015625, -0.023091398179531097412109375, 0.19968567788600921630859375, 0.0053355679847300052642822265625, -0.0551510117948055267333984375, 0.0514622665941715240478515625, -0.0158311240375041961669921875, 0.077370561659336090087890625, 0.10136829316616058349609375, 0.18715099990367889404296875, 0.01051223278045654296875, -0.00341603881679475307464599609375, 0.18409921228885650634765625, 0.13769070804119110107421875, -0.07010696828365325927734375, -0.070173017680644989013671875, 0.01715777628123760223388671875, 0.2242626249790191650390625, 0.0561526715755462646484375, 0.0126495659351348876953125, 0.004237651824951171875, 0.641576230525970458984375, 0.559745132923126220703125, 0.617291867733001708984375, 0.566431939601898193359375, 0.60483968257904052734375, 0.3795898258686065673828125, 0.24998281896114349365234375, 0.4266386330127716064453125, 0.15868146717548370361328125, 0.30103206634521484375, 0.1258793175220489501953125, 0.159401595592498779296875, 0.17888201773166656494140625, -0.016763150691986083984375, 0.3647259771823883056640625, 0.2768890559673309326171875, 0.15805865824222564697265625, 0.14523921906948089599609375, -0.40586090087890625, -0.520481646060943603515625, -0.6102659702301025390625, -0.1236151158809661865234375, -0.41466081142425537109375, -0.4570796489715576171875, -0.157332360744476318359375, -0.14337341487407684326171875, -0.4012189805507659912109375, -0.12665258347988128662109375, -0.09187673032283782958984375, -0.164979159832000732421875, -0.24533207714557647705078125, -0.0801242291927337646484375, -0.025693811476230621337890625, -0.20166803896427154541015625, 0.013576964847743511199951171875, -0.19218276441097259521484375, 0.19271810352802276611328125, 0.061832793056964874267578125, -0.0063581825233995914459228515625, 0.02149073779582977294921875, -0.02154296450316905975341796875, -0.1826446950435638427734375, 0.24018143117427825927734375, 0.009234674274921417236328125, 0.0343075431883335113525390625, -0.14452286064624786376953125, 0.12456245720386505126953125, 0.2535798251628875732421875, -0.10981261730194091796875, -0.111893497407436370849609375, 0.2288974225521087646484375, 0.0506589412689208984375, 0.18582482635974884033203125, 0.17960189282894134521484375, 0.2091912925243377685546875, -0.146611034870147705078125, -0.0573119334876537322998046875, 0.0612047724425792694091796875, -0.2049027979373931884765625, 0.130092680454254150390625, -0.02506672777235507965087890625, 0.283680498600006103515625, 0.410510599613189697265625, 0.408782303333282470703125, 0.37762582302093505859375, 0.2369534075260162353515625, 0.299253880977630615234375, 0.56036841869354248046875, 0.0558577440679073333740234375, 0.343064725399017333984375, 0.6075823307037353515625, 0.933936178684234619140625, 0.731057643890380859375, 0.660804092884063720703125, 0.399812221527099609375, 0.555886209011077880859375, 0.52219498157501220703125, 0.320297181606292724609375, 0.2922341823577880859375, 0.303250253200531005859375, 0.2567404806613922119140625, 0.415686428546905517578125, 0.4660267531871795654296875, 0.654718816280364990234375, 0.3700922429561614990234375, 0.397053241729736328125, 0.781646430492401123046875, 0.822674930095672607421875, 1.04290485382080078125, 1.6406819820404052734375, 0.088768817484378814697265625, -0.0972087085247039794921875, -0.0988394320011138916015625, 0.01660662330687046051025390625, 0.0218547284603118896484375, 0.24995349347591400146484375, -0.0011190366931259632110595703125, -0.0994079113006591796875, -0.0498360730707645416259765625, 0.0428461097180843353271484375, 0.02946983836591243743896484375, 0.02707745134830474853515625, 0.18630276620388031005859375, 0.0410342998802661895751953125, 0.1167844831943511962890625, 0.070130281150341033935546875, 0.046692721545696258544921875, 0.2801177203655242919921875, 0.8728816509246826171875, 0.67898190021514892578125, 0.843561649322509765625, 0.4247457683086395263671875, 0.650871574878692626953125, 0.306378841400146484375, 0.1829000413417816162109375, 0.011449976824223995208740234375, -0.01522953622043132781982421875, 0.0106588304042816162109375, -0.103292278945446014404296875, -0.050420276820659637451171875, -0.2115330994129180908203125, -0.14950726926326751708984375, -0.065279461443424224853515625, -0.1128818988800048828125, 0.056563250720500946044921875, 0.12569971382617950439453125, -0.0051096319220960140228271484375, -0.15488909184932708740234375, -0.124248325824737548828125, -0.15227615833282470703125, -0.2136685848236083984375, -0.0508993305265903472900390625, 0.00332251866348087787628173828125, -0.130074560642242431640625, -0.0026800334453582763671875, -0.0324878990650177001953125, 0.006677703000605106353759765625, -0.00737430155277252197265625, -0.090399853885173797607421875, -0.16527630388736724853515625, -0.0780149996280670166015625, -0.0485310256481170654296875, -0.0380332171916961669921875, -0.0234614647924900054931640625, -0.01736878789961338043212890625, -0.32403838634490966796875, -0.1381498873233795166015625, -0.399639606475830078125, -0.160259723663330078125, -0.34575879573822021484375, -0.2976516783237457275390625, -0.3499980270862579345703125, -0.3064949214458465576171875, -0.3810282051563262939453125, -0.32030999660491943359375, -0.2855727374553680419921875, -0.37952840328216552734375, -0.4698846638202667236328125, -0.4881521165370941162109375, -0.6880400180816650390625, -0.56683838367462158203125, -0.61452138423919677734375, -0.1657512187957763671875, -0.17045389115810394287109375, 0.0396279357373714447021484375, 0.13003458082675933837890625, 0.3440473079681396484375, 0.30497729778289794921875, 0.53805387020111083984375, 0.24725963175296783447265625, 0.15487800538539886474609375, 0.26228296756744384765625, 0.13565933704376220703125, -0.008519497700035572052001953125, 0.038274012506008148193359375, -0.01581124030053615570068359375, -0.17080338299274444580078125, -0.2823884487152099609375, -0.34193623065948486328125, -0.17009641230106353759765625, 0.4623343646526336669921875, 0.409950792789459228515625, 0.292957484722137451171875, 0.2511095106601715087890625, 0.0243578739464282989501953125, 0.10520203411579132080078125, 0.21412961184978485107421875, 0.25255501270294189453125, 0.072149731218814849853515625, 0.125494539737701416015625, 0.2813083231449127197265625, 0.3368525207042694091796875, 0.448131382465362548828125, 0.36709392070770263671875, 0.3076110780239105224609375, 0.4691713154315948486328125, 0.3237593472003936767578125, 0.34627687931060791015625, -0.104563869535923004150390625, -0.06990619003772735595703125, -0.13179902732372283935546875, -0.0474579222500324249267578125, -0.12364113330841064453125, 0.02582991681993007659912109375, -0.034864418208599090576171875, 0.082662083208560943603515625, 0.00040870462544262409210205078125, -0.18720357120037078857421875, 0.04184019565582275390625, -0.10234987735748291015625, 0.10476426780223846435546875, 0.041982807219028472900390625, 0.21654199063777923583984375, 0.20710040628910064697265625, 0.1625828444957733154296875, 0.1672542095184326171875, -0.05856178700923919677734375, 0.323350846767425537109375, 0.244321882724761962890625, 0.22674910724163055419921875, 0.2867097556591033935546875, 0.379584789276123046875, 0.01711025647819042205810546875, 0.3536488115787506103515625, 0.15758548676967620849609375, 0.34369742870330810546875, 0.083876192569732666015625, 0.20519702136516571044921875, -0.112422369420528411865234375, 0.06944631040096282958984375, 0.159179210662841796875, 0.005380063317716121673583984375, -0.15605188906192779541015625, 0.0406729616224765777587890625, -0.274158537387847900390625, -0.16166560351848602294921875, -0.2432656586170196533203125, -0.17999212443828582763671875, -0.2976512908935546875, -0.083629719913005828857421875, -0.079264961183071136474609375, -0.13227045536041259765625, -0.15917633473873138427734375, -0.10494236648082733154296875, -0.0465667359530925750732421875, 0.17108951508998870849609375, -0.022989638149738311767578125, 0.041276939213275909423828125, 0.22657240927219390869140625, 0.15307505428791046142578125, 0.22208797931671142578125, 0.36983716487884521484375, -0.3242311179637908935546875, -0.3260838985443115234375, -0.1646218597888946533203125, -0.10250985622406005859375, -0.093765549361705780029296875, -0.10131175816059112548828125, -0.008245983161032199859619140625, 0.009668259881436824798583984375, 0.08226108551025390625, -0.066909812390804290771484375, 0.1744385063648223876953125, 0.2134301364421844482421875, 0.22743950784206390380859375, 0.075320221483707427978515625, 0.20234851539134979248046875, 0.17300035059452056884765625, 0.17068435251712799072265625, 0.372878849506378173828125, 0.795669138431549072265625, 0.5986244678497314453125, 0.38541710376739501953125, 0.273456394672393798828125, 0.346607267856597900390625, 0.381484448909759521484375, 0.0316916741430759429931640625, 0.19308149814605712890625, 0.28444492816925048828125, 0.17721481621265411376953125, 0.27361476421356201171875, 0.170281589031219482421875, 0.057979024946689605712890625, -0.0172559209167957305908203125, 0.0195615701377391815185546875, 0.17963235080242156982421875, 0.056368291378021240234375, 0.19128720462322235107421875, -0.0383271761238574981689453125, 0.010000416077673435211181640625, 0.282055079936981201171875, 0.03098538704216480255126953125, 0.0345160402357578277587890625, -0.0062150419689714908599853515625, -0.1192044317722320556640625, -0.055201031267642974853515625, -0.070305593311786651611328125, -0.0064028310589492321014404296875, 0.0780194699764251708984375, -0.1398297846317291259765625, 0.000171823150594718754291534423828125, -0.1659661829471588134765625, -0.0602278746664524078369140625, -0.2399960458278656005859375, -0.14035816490650177001953125, -0.0315976440906524658203125, -0.14594061672687530517578125, 0.1724102795124053955078125, -0.0183182768523693084716796875, -0.009862364269793033599853515625, 0.1476661860942840576171875, 0.02484280057251453399658203125, -0.082175321877002716064453125, -0.1748495995998382568359375, -0.0021750577725470066070556640625, -0.109727911651134490966796875, 0.02874023653566837310791015625, -0.0601004660129547119140625, 0.192437827587127685546875, -0.018455542623996734619140625, 0.0445452295243740081787109375, 0.1925566196441650390625, 0.075503684580326080322265625, 0.041822351515293121337890625, 0.0861972868442535400390625, 0.2387259006500244140625, 0.034996211528778076171875, 0.0550804995000362396240234375, -0.0336677990853786468505859375, 0.01670902408659458160400390625, 0.0502878911793231964111328125, 0.0550850592553615570068359375, 0.17848493158817291259765625, 0.275952398777008056640625, 0.1529640853404998779296875, 0.19175191223621368408203125, 0.1636115014553070068359375, -0.065996371209621429443359375, -0.070588715374469757080078125, 0.067896135151386260986328125, 0.02607999742031097412109375, 0.101950585842132568359375, -0.2231197357177734375, -0.095928542315959930419921875, -0.1326571404933929443359375, -0.112976215779781341552734375, -0.0352327823638916015625, -0.121175132691860198974609375, -0.10815964639186859130859375, -0.098404146730899810791015625, -0.095373265445232391357421875, 0.077311456203460693359375, -0.02742094732820987701416015625, -0.01770084537565708160400390625, 0.01625083386898040771484375, -0.12704372406005859375, -0.14351356029510498046875, -0.1460711061954498291015625, -0.22414444386959075927734375, -0.337535321712493896484375, 0.276893079280853271484375, 0.0342116691172122955322265625, 0.11696155369281768798828125, 0.0950686633586883544921875, 0.1919486224651336669921875, 0.13754181563854217529296875, 0.22187869250774383544921875, 0.0162930078804492950439453125, 0.1347362697124481201171875, -0.20107744634151458740234375, 0.11362670361995697021484375, -0.096640028059482574462890625, -0.099414527416229248046875, 0.078927464783191680908203125, -0.097026884555816650390625, 0.1378536224365234375, 0.045135565102100372314453125, -0.12667696177959442138671875, -0.0036901882849633693695068359375, -0.013377915136516094207763671875, 0.02131489105522632598876953125, -0.09196619689464569091796875, -0.01862150616943836212158203125, -0.099735669791698455810546875, -0.09268261492252349853515625, -0.1271022856235504150390625, 0.01585688255727291107177734375, 0.09389694035053253173828125, -0.012725968845188617706298828125, -0.058339409530162811279296875, -0.0479050315916538238525390625, 0.09515464305877685546875, 0.094396822154521942138671875, 0.16734112799167633056640625, 0.09993048012256622314453125, -0.057395555078983306884765625, 0.9501554965972900390625, 1.05362927913665771484375, 0.712001502513885498046875, 0.65057647228240966796875, 0.3917166292667388916015625, 0.414720237255096435546875, 0.4975407421588897705078125, 0.079644910991191864013671875, 0.48635804653167724609375, 0.16280545294284820556640625, 0.250570356845855712890625, -0.035577990114688873291015625, 0.093563742935657501220703125, 0.105148948729038238525390625, 0.4216449260711669921875, 0.21169503033161163330078125, 0.251947224140167236328125, 0.436474621295928955078125, -0.0544810853898525238037109375, -0.13121049106121063232421875, -0.12943617999553680419921875, -0.05432303249835968017578125, -0.0946401655673980712890625, -0.15388949215412139892578125, -0.1281457245349884033203125, 0.0049592196010053157806396484375, -0.338969409465789794921875, -0.19684422016143798828125, -0.03152807056903839111328125, -0.190634250640869140625, 0.0314281471073627471923828125, 0.108373068273067474365234375, -0.0460551269352436065673828125, -0.116975925862789154052734375, -0.0529952347278594970703125, 0.0233503319323062896728515625, 0.4208921492099761962890625, 0.3535654246807098388671875, 0.0329281203448772430419921875, 0.08201794326305389404296875, -0.0651004016399383544921875, -0.1482074260711669921875, -0.10411389172077178955078125, -0.12174451351165771484375, -0.128058493137359619140625, -0.3359014987945556640625, -0.13525736331939697265625, -0.12278206646442413330078125, -0.267967879772186279296875, -0.2941756546497344970703125, -0.03478205204010009765625, -0.0604050643742084503173828125, -0.166518151760101318359375, 0.086057208478450775146484375, 0.0508838780224323272705078125, -0.0404745638370513916015625, 0.17257489264011383056640625, 0.060166232287883758544921875, 0.2618739604949951171875, 0.30016839504241943359375, 0.2888610363006591796875, 0.1250265538692474365234375, 0.2059287130832672119140625, 0.2819811403751373291015625, 0.361084997653961181640625, 0.23134012520313262939453125, 0.192820072174072265625, 0.16326807439327239990234375, 0.350356638431549072265625, 0.4300508797168731689453125, 0.4361966550350189208984375, 0.358741223812103271484375, -0.551451265811920166015625, -0.4983530342578887939453125, -0.3875002562999725341796875, -0.451115667819976806640625, -0.3512443602085113525390625, -0.4029062092304229736328125, -0.14464463293552398681640625, -0.297987401485443115234375, -0.38338172435760498046875, -0.10084281861782073974609375, -0.352263867855072021484375, -0.082618176937103271484375, -0.2585854232311248779296875, -0.18467612564563751220703125, -0.081571452319622039794921875, -0.12214221060276031494140625, -0.10335125029087066650390625, -0.042013920843601226806640625, 0.21635340154170989990234375, 0.097385108470916748046875, 0.15386211872100830078125, -0.00881868787109851837158203125, -0.0295762307941913604736328125, -0.12909589707851409912109375, -0.12875632941722869873046875, -0.0072668525390326976776123046875, 0.13316424190998077392578125, 0.0612380839884281158447265625, 0.03670513629913330078125, -0.072328589856624603271484375, -0.00790391303598880767822265625, -0.17093585431575775146484375, -0.27290880680084228515625, -0.17085342109203338623046875, -0.1037808954715728759765625, 0.08070500195026397705078125, 0.408999979496002197265625, 0.389689505100250244140625, 0.414539158344268798828125, 0.1652173101902008056640625, 0.190603554248809814453125, 0.2568988502025604248046875, 0.20117516815662384033203125, 0.17784522473812103271484375, 0.33191430568695068359375, 0.409525930881500244140625, 0.22104918956756591796875, 0.33898103237152099609375, 0.43512248992919921875, 0.5651187896728515625, 0.559042990207672119140625, 0.3708104193210601806640625, 0.716319620609283447265625, 0.4407951831817626953125, 0.00280194543302059173583984375, 0.118396691977977752685546875, 0.2839834392070770263671875, 0.1982275545597076416015625, 0.2857215404510498046875, 0.32513904571533203125, 0.3599069118499755859375, 0.3162496984004974365234375, 0.09392662346363067626953125, 0.08632503449916839599609375, 0.2116372585296630859375, 0.2639706432819366455078125, 0.2532974779605865478515625, 0.0382933318614959716796875, 0.13114203512668609619140625, 0.083374045789241790771484375, 0.1525678932666778564453125, 0.254484951496124267578125, 1.24060094356536865234375, 0.89830029010772705078125, 0.906603038311004638671875, 0.877090632915496826171875, 0.9555509090423583984375, 0.7904036045074462890625, 0.635171711444854736328125, 0.697518169879913330078125, 0.4695387780666351318359375, 0.4882846772670745849609375, 0.4859888553619384765625, 0.3709736764430999755859375, 0.62580776214599609375, 0.644844353199005126953125, 0.544143855571746826171875, 0.665393829345703125, 0.675573766231536865234375, 0.720551908016204833984375, -0.42615234851837158203125, -0.2661050260066986083984375, -0.2819388210773468017578125, -0.328274667263031005859375, -0.2432269155979156494140625, -0.4302507340908050537109375, -0.1765497028827667236328125, -0.088867194950580596923828125, 0.040026687085628509521484375, 0.025595344603061676025390625, 0.123625703155994415283203125, 0.13591744005680084228515625, 0.088352002203464508056640625, 0.107090212404727935791015625, -0.015602611005306243896484375, 0.0385151803493499755859375, 0.20697243511676788330078125, 0.3508170545101165771484375, 0.3945019245147705078125, 0.3037163317203521728515625, 0.15522257983684539794921875, 0.2488792240619659423828125, 0.14260537922382354736328125, 0.2520274221897125244140625, 0.206859171390533447265625, 0.180208384990692138671875, 0.2911677658557891845703125, 0.113684393465518951416015625, 0.23471803963184356689453125, 0.19212330877780914306640625, 0.2297042310237884521484375, 0.4635862410068511962890625, 0.3415868282318115234375, 0.3419329822063446044921875, 0.4916256368160247802734375, 0.3827192783355712890625, 0.23169080913066864013671875, 0.0068271174095571041107177734375, 0.17837001383304595947265625, 0.30004203319549560546875, 0.24711211025714874267578125, 0.1999143660068511962890625, 0.107174120843410491943359375, 0.22851033508777618408203125, 0.16792519390583038330078125, 0.001815593685023486614227294921875, 0.0192987956106662750244140625, 0.012444368563592433929443359375, 0.026074878871440887451171875, 0.0594854094088077545166015625, -0.0728838443756103515625, 0.07218743860721588134765625, 0.10381793975830078125, 0.036788403987884521484375, -0.081466697156429290771484375, -0.2640119493007659912109375, -0.16929696500301361083984375, -0.14683361351490020751953125, -0.125750124454498291015625, -0.20448310673236846923828125, -0.00233943085186183452606201171875, 0.15843312442302703857421875, 0.0826869904994964599609375, -0.1978966891765594482421875, -0.02556154318153858184814453125, -0.092991344630718231201171875, 0.0404766835272312164306640625, 0.1497364938259124755859375, -0.00960955582559108734130859375, 0.1847335398197174072265625, 0.3478859961032867431640625, 0.07612164318561553955078125, -0.108613573014736175537109375, -0.1854656636714935302734375, -0.25656223297119140625, -0.10687325894832611083984375, -0.189430415630340576171875, -0.01318639330565929412841796875, -0.082133471965789794921875, 0.083455644547939300537109375, -0.011848029680550098419189453125, -0.02225292287766933441162109375, 0.021629393100738525390625, 0.00868898816406726837158203125, -0.15714681148529052734375, -0.15194360911846160888671875, -0.013400622643530368804931640625, 0.108128726482391357421875, -0.1085210740566253662109375, -0.32036101818084716796875, -0.009773194789886474609375, 0.02726597897708415985107421875, 0.1913101673126220703125, 0.100869096815586090087890625, 0.13677962124347686767578125, 0.105676390230655670166015625, 0.119623847305774688720703125, 0.23108528554439544677734375, 0.090855233371257781982421875, 0.0475737638771533966064453125, 0.2270914614200592041015625, 0.22259120643138885498046875, 0.1648349463939666748046875, 0.3772389590740203857421875, 0.2538596689701080322265625, 0.2647836506366729736328125, 0.2026456892490386962890625, 0.15672266483306884765625, 0.491311490535736083984375, 0.386238634586334228515625, 0.262675344944000244140625, 0.4260654747486114501953125, 0.18979169428348541259765625, 0.137543380260467529296875, 0.349078118801116943359375, 0.21097745001316070556640625, 0.3941018879413604736328125, 0.2024124562740325927734375, 0.3255455493927001953125, 0.09532783925533294677734375, 0.0527656637132167816162109375, 0.118465207517147064208984375, 0.2027970254421234130859375, 0.24060012400150299072265625, 0.14546050131320953369140625, 0.503324806690216064453125, 0.25917875766754150390625, 0.2706939280033111572265625, -0.091432504355907440185546875, 0.23476816713809967041015625, 0.191547334194183349609375, 0.17157627642154693603515625, 0.005172319710254669189453125, 0.0783298909664154052734375, 0.12105904519557952880859375, 0.0548331178724765777587890625, 0.105929724872112274169921875, 0.17052376270294189453125, 0.0636776983737945556640625, -0.042150683701038360595703125, -0.067768074572086334228515625, -0.094647705554962158203125, 0.2353952229022979736328125, 0.12572193145751953125, 0.3475523293018341064453125, 0.482997417449951171875, 0.2626135349273681640625, 0.2978274822235107421875, 0.3106521666049957275390625, 0.343112468719482421875, 0.3015995919704437255859375, 0.23670892417430877685546875, 0.0555945523083209991455078125, 0.15492744743824005126953125, -0.0212977267801761627197265625, -0.153242170810699462890625, -0.01957465894520282745361328125, 0.1523800790309906005859375, -0.063142351806163787841796875, -0.0240736901760101318359375, 0.09333322942256927490234375, 0.02669133059680461883544921875, 0.079147584736347198486328125, 0.141069591045379638671875, -0.038733907043933868408203125, -0.0026074820198118686676025390625, 0.13940133154392242431640625, 0.00769422017037868499755859375, -0.13587488234043121337890625, 0.03091778419911861419677734375, 0.13941995799541473388671875, -0.009140440262854099273681640625, -0.106129713356494903564453125, -0.012702091597020626068115234375, 0.03027736954391002655029296875, 0.055260360240936279296875, 0.104963101446628570556640625, 0.20658671855926513671875, 0.102744095027446746826171875, -0.009715855121612548828125, 0.3544942438602447509765625, 0.19693009555339813232421875, 0.2451355457305908203125, 0.666997611522674560546875, 0.2147895991802215576171875, 0.4164826869964599609375, 0.5254490375518798828125, 0.3170886933803558349609375, 0.193789184093475341796875, 0.49961864948272705078125, 0.704153478145599365234375, 0.386024057865142822265625, 0.650947630405426025390625, 0.243313729763031005859375, 0.35214817523956298828125, 0.36165988445281982421875, -0.03260318934917449951171875, -0.1346469819545745849609375, -0.0660943090915679931640625, -0.2840563356876373291015625, -0.093846000730991363525390625, -0.12841780483722686767578125, -0.116734087467193603515625, -0.074487142264842987060546875, -0.011456360109150409698486328125, -0.10209842026233673095703125, -0.0186627618968486785888671875, -0.0533815436065196990966796875, 0.1837799549102783203125, 0.15996731817722320556640625, 0.0545077659189701080322265625, 0.3053609430789947509765625, 0.2437472045421600341796875, 0.32551634311676025390625, 0.1328905522823333740234375, 0.0657685101032257080078125, 0.1860116422176361083984375, 0.2896012365818023681640625, 0.267817318439483642578125, 0.01029467396438121795654296875, 0.1020835340023040771484375, 0.23768506944179534912109375, 0.094661235809326171875, 0.048619993031024932861328125, 0.106397569179534912109375, 0.1754519045352935791015625, 0.2869157493114471435546875, -0.0451053269207477569580078125, 0.18033225834369659423828125, -0.0012859036214649677276611328125, 0.1101411283016204833984375, 0.059112913906574249267578125, 0.11203448474407196044921875, 0.01549057103693485260009765625, 0.12743179500102996826171875, 0.234733164310455322265625, 0.0981803238391876220703125, 0.19167287647724151611328125, -0.12811611592769622802734375, 0.156688690185546875, 0.3357021808624267578125, -0.090114124119281768798828125, 0.108979202806949615478515625, -0.0558783151209354400634765625, 0.1411297619342803955078125, -0.04630379378795623779296875, 0.078183569014072418212890625, 0.3775114715099334716796875, 0.16450653970241546630859375, 0.2038349211215972900390625, 0.17437304556369781494140625, 0.26431357860565185546875, 0.317992627620697021484375, 0.4595214426517486572265625, 0.4683974683284759521484375, 0.3607641160488128662109375, 0.3395277559757232666015625, 0.0908997952938079833984375, 0.1991660296916961669921875, 0.18209905922412872314453125, 0.0587418079376220703125, 0.13272695243358612060546875, -0.052084349095821380615234375, 0.00311906519345939159393310546875, 0.047149099409580230712890625, 0.1397998332977294921875, 0.0061463196761906147003173828125, 0.0538680814206600189208984375, 0.2153935730457305908203125, 0.0332944691181182861328125, 0.3830086886882781982421875, 0.424497067928314208984375, 0.22691081464290618896484375, 0.08444188535213470458984375, 0.244769513607025146484375, 0.1585659682750701904296875, 0.17481164634227752685546875, -0.0030032922513782978057861328125, -0.0506804548203945159912109375, -0.086959175765514373779296875, -0.0885990560054779052734375, -0.21669565141201019287109375, -0.260562598705291748046875, -0.02779137529432773590087890625, -0.15539182722568511962890625, -0.332483470439910888671875, -0.22470629215240478515625, -0.4928066432476043701171875, -0.22835020720958709716796875, -0.2403564751148223876953125, -0.12882964313030242919921875, -0.062793910503387451171875, -0.0612229071557521820068359375, -0.100686304271221160888671875, -0.13314811885356903076171875, 0.008327164687216281890869140625, -0.20266737043857574462890625, 0.0504945330321788787841796875, 0.0559100769460201263427734375, 0.12713326513767242431640625, -0.0602641887962818145751953125, 0.02496777661144733428955078125, -0.086003012955188751220703125, -0.1468455791473388671875, -0.072268418967723846435546875, -0.23362331092357635498046875, 0.087755717337131500244140625, -0.0571388304233551025390625, -0.077096261084079742431640625, -0.0053342389874160289764404296875, 0.1829357147216796875, 0.1202042102813720703125, 0.103063799440860748291015625, -0.0069226920604705810546875, 0.0394976399838924407958984375, 0.005997239612042903900146484375, 0.072355143725872039794921875, -0.01333226263523101806640625, -0.083914361894130706787109375, 0.1530654728412628173828125, -0.18746237456798553466796875, -0.19888062775135040283203125, 