#include "myFc.h"
#include "myConvLayer.h"
#include "myMaxPool.h"
#include "myGru.h"
#include "myUtils.h"

#define CONV_SIZE 54 //input window size
#define CONV_K_SIZE 7 //kernel size
#define CHANNEL_SIZE 31 // nb channels
//#define CONV1_PADDING 0 //int((CONV1_K_SIZE-1)/2) //default value, not implemented anymore for optimization reason
#define CONV_STRIDE 1
#define CONV_DILATION 1

#define POOL_K_SIZE 7
//#define POOL_PADDING 0 //int((POOL1_K_SIZE-1)/2) //default value, not implemented anymore for optimization reason
#define POOL_STRIDE 1
#define POOL_DILATION 1

//Layer 1
#define INPUT1 CONV_SIZE
myConvLayer<INPUT1,CONV_K_SIZE,CHANNEL_SIZE,1,CONV_STRIDE,CONV_DILATION> conv1;
#define INPUT2 int((INPUT1 + 2*0 - CONV_DILATION*(CONV_K_SIZE-1) - 1)/CONV_STRIDE + 1)
myMaxPool<INPUT2,POOL_K_SIZE,CHANNEL_SIZE,POOL_STRIDE,POOL_DILATION> pool1;

//Layer 2
#define INPUT3 int((INPUT2 + 2*0 - POOL_DILATION*(POOL_K_SIZE-1) - 1)/POOL_STRIDE + 1)
myConvLayer<INPUT3,CONV_K_SIZE,CHANNEL_SIZE,CHANNEL_SIZE,CONV_STRIDE,CONV_DILATION> conv2;
#define INPUT4 int((INPUT3 + 2*0 - CONV_DILATION*(CONV_K_SIZE-1) - 1)/CONV_STRIDE + 1)
myMaxPool<INPUT4,POOL_K_SIZE,CHANNEL_SIZE,POOL_STRIDE,POOL_DILATION> pool2;

//Layer 3
#define INPUT5 int((INPUT4 + 2*0 - POOL_DILATION*(POOL_K_SIZE-1) - 1)/POOL_STRIDE + 1)
myConvLayer<INPUT5,CONV_K_SIZE,CHANNEL_SIZE,CHANNEL_SIZE,CONV_STRIDE,CONV_DILATION> conv3;
#define INPUT6 int((INPUT5 + 2*0 - CONV_DILATION*(CONV_K_SIZE-1) - 1)/CONV_STRIDE + 1)
myMaxPool<INPUT6,POOL_K_SIZE,CHANNEL_SIZE,POOL_STRIDE,POOL_DILATION> pool3;
#define INPUT7 int((INPUT6 + 2*0 - POOL_DILATION*(POOL_K_SIZE-1) - 1)/POOL_STRIDE + 1)

//GRU
#define GRU_INPUT_SIZE INPUT7*CHANNEL_SIZE
#define GRU_HIDDEN_SIZE 7
#define GRU_WI_SIZE 3*GRU_HIDDEN_SIZE*GRU_INPUT_SIZE
#define GRU_WH_SIZE 3*GRU_HIDDEN_SIZE*GRU_HIDDEN_SIZE
#define GRU_B_SIZE 3*GRU_HIDDEN_SIZE
myGru<GRU_INPUT_SIZE,GRU_HIDDEN_SIZE> gru1;

//FC
#define FC_INPUT_SIZE GRU_HIDDEN_SIZE
#define FC_OUTPUT_SIZE 1
#define FC_WEIGHT_SIZE FC_INPUT_SIZE*FC_OUTPUT_SIZE
myFc<FC_INPUT_SIZE,FC_OUTPUT_SIZE> fc;

const parameter_fixed_type conv1_input1_kernel[CHANNEL_SIZE][1][CONV_K_SIZE] = {{{-0.071890644729137420654296875, 0.095020823180675506591796875, -0.21975119411945343017578125, 0.06395880877971649169921875, -0.006287620402872562408447265625, 0.3211776912212371826171875, -0.2690518796443939208984375}}, {{-0.00565151870250701904296875, -0.13142134249210357666015625, -0.0073969638906419277191162109375, 0.16912896931171417236328125, 0.108190238475799560546875, 0.081349067389965057373046875, -0.242257595062255859375}}, {{-0.020475171506404876708984375, -0.097498856484889984130859375, 0.069108955562114715576171875, 0.19418239593505859375, -0.2842395305633544921875, -0.17829747498035430908203125, 0.3922767937183380126953125}}, {{-0.3163960874080657958984375, 0.2523167431354522705078125, 0.0558843314647674560546875, -0.078873999416828155517578125, -0.03418217599391937255859375, -0.3805301487445831298828125, 0.37804520130157470703125}}, {{0.2774717509746551513671875, -0.15045414865016937255859375, -0.20909835398197174072265625, 0.031097196042537689208984375, 0.10232101380825042724609375, -0.01877082884311676025390625, -0.041742272675037384033203125}}, {{0.1583941876888275146484375, 0.02408429421484470367431640625, -0.0152322985231876373291015625, 0.0492614321410655975341796875, -0.18369579315185546875, -0.24224112927913665771484375, 0.2993995845317840576171875}}, {{0.04375381767749786376953125, 0.16882388293743133544921875, -0.18346185982227325439453125, -0.090419255197048187255859375, -0.0466583408415317535400390625, -0.0480919815599918365478515625, 0.2002315819263458251953125}}, {{-0.062345825135707855224609375, 0.0263050459325313568115234375, -0.158763349056243896484375, 0.0357655584812164306640625, 0.13291235268115997314453125, 0.20100788772106170654296875, -0.240990161895751953125}}, {{-0.15757341682910919189453125, 0.011436081491410732269287109375, 0.013531803153455257415771484375, 0.118489690124988555908203125, -0.0072087035514414310455322265625, -0.04461435973644256591796875, 0.05182825028896331787109375}}, {{-0.322488605976104736328125, 0.254028022289276123046875, 0.14312346279621124267578125, 0.116382680833339691162109375, -0.075708694756031036376953125, -0.2027428448200225830078125, 0.0599390305578708648681640625}}, {{0.3133453428745269775390625, -0.22940750420093536376953125, -0.3838564455509185791015625, 0.1849310398101806640625, 0.2994141280651092529296875, 0.1332364976406097412109375, -0.3224219977855682373046875}}, {{0.005776698701083660125732421875, -0.2521065771579742431640625, 0.116949558258056640625, 0.049161158502101898193359375, 0.21473769843578338623046875, -0.2222979962825775146484375, -0.063635893166065216064453125}}, {{-0.060064457356929779052734375, 0.19046340882778167724609375, -0.12845920026302337646484375, -0.056284435093402862548828125, 0.102120853960514068603515625, 0.114389218389987945556640625, -0.2999087870121002197265625}}, {{0.08530120551586151123046875, 0.148486912250518798828125, -0.304251372814178466796875, 0.0040831253863871097564697265625, 0.093838222324848175048828125, 0.263968288898468017578125, -0.323192059993743896484375}}, {{0.2214654982089996337890625, -0.2101630270481109619140625, 0.018364131450653076171875, -0.1618630588054656982421875, -0.104932792484760284423828125, -0.238989651203155517578125, 0.489829599857330322265625}}, {{0.0316428355872631072998046875, -0.072478897869586944580078125, 0.12653852999210357666015625, -0.011863621883094310760498046875, -0.197476863861083984375, -0.191955626010894775390625, 0.305857002735137939453125}}, {{-0.1204578876495361328125, -0.078742079436779022216796875, 0.19277875125408172607421875, -0.080112256109714508056640625, -0.1381784975528717041015625, 0.0435460172593593597412109375, 0.255829274654388427734375}}, {{0.2073283493518829345703125, 0.126756131649017333984375, -0.079437844455242156982421875, -0.1601482331752777099609375, 0.1863308846950531005859375, 0.0037536215968430042266845703125, -0.2402275502681732177734375}}, {{0.048714064061641693115234375, -0.124125353991985321044921875, 0.107958950102329254150390625, 0.0432830043137073516845703125, -0.19827152788639068603515625, 0.078971274197101593017578125, -0.220356762409210205078125}}, {{-0.217452466487884521484375, 0.16200296580791473388671875, 0.19290836155414581298828125, -0.20455129444599151611328125, -0.114256300032138824462890625, 0.08581431210041046142578125, 0.1345177590847015380859375}}, {{0.2328166663646697998046875, -0.16921542584896087646484375, 0.0538480095565319061279296875, -0.04250742495059967041015625, -0.2598060667514801025390625, -0.088637359440326690673828125, 0.22678269445896148681640625}}, {{-0.273858129978179931640625, 0.17913974821567535400390625, -0.18942083418369293212890625, 0.07004915177822113037109375, 0.21481584012508392333984375, 0.0007575475610792636871337890625, -0.00969248451292514801025390625}}, {{-0.3520834445953369140625, 0.057348243892192840576171875, 0.28940141201019287109375, 0.1297309100627899169921875, -0.11315266788005828857421875, -0.1761265695095062255859375, -0.039503969252109527587890625}}, {{0.078374810516834259033203125, -0.0332822613418102264404296875, -0.02367166243493556976318359375, -0.029110483825206756591796875, 0.080979205667972564697265625, 0.36233484745025634765625, -0.4438510835170745849609375}}, {{0.0225763805210590362548828125, 0.034654058516025543212890625, 0.067472822964191436767578125, 0.0367048420011997222900390625, 0.223651111125946044921875, -0.09072034060955047607421875, -0.375508248805999755859375}}, {{0.153599262237548828125, -0.105802960693836212158203125, 0.107820503413677215576171875, -0.26649558544158935546875, 0.11445619165897369384765625, 0.044526092708110809326171875, 0.18489269912242889404296875}}, {{-0.180046856403350830078125, 0.1869646608829498291015625, -0.096438892185688018798828125, 0.1221781671047210693359375, 0.14313434064388275146484375, 0.081793777644634246826171875, -0.27336406707763671875}}, {{0.24421514570713043212890625, -0.02181944809854030609130859375, -0.096551828086376190185546875, 0.0362085141241550445556640625, 0.13409900665283203125, -0.167440474033355712890625, 0.1548673212528228759765625}}, {{0.12887339293956756591796875, -0.0364143662154674530029296875, -0.1351554691791534423828125, 0.0247349776327610015869140625, 0.07935346662998199462890625, 0.073318101465702056884765625, -0.105487205088138580322265625}}, {{0.2614027559757232666015625, -0.04967547953128814697265625, 0.0370052345097064971923828125, -0.3790697157382965087890625, 0.15409786999225616455078125, 0.103682480752468109130859375, 0.07258431613445281982421875}}, {{-0.076731093227863311767578125, 0.0993452966213226318359375, 0.0159290172159671783447265625, -0.310496807098388671875, 0.114048302173614501953125, 0.3027701675891876220703125, -0.22114680707454681396484375}}};
const parameter_fixed_type conv1_input1_bias[CHANNEL_SIZE] = {0.02464049123227596282958984375, -0.1756165325641632080078125, 0.0147439874708652496337890625, -0.0471335463225841522216796875, -0.16640956699848175048828125, -0.020688109099864959716796875, -0.02324954606592655181884765625, -0.0389885045588016510009765625, -0.037633478641510009765625, -0.104165732860565185546875, -0.0202093534171581268310546875, -0.0023748963139951229095458984375, -0.004645382054150104522705078125, 0.02385144494473934173583984375, -0.16987438499927520751953125, -0.0059593431651592254638671875, -0.0510175712406635284423828125, -0.0672741234302520751953125, -0.20616470277309417724609375, -0.043357901275157928466796875, -0.070875160396099090576171875, -0.2644923031330108642578125, -0.0740049779415130615234375, 0.02491254545748233795166015625, -0.18347738683223724365234375, -0.10234315693378448486328125, -0.0174199976027011871337890625, -0.3943845331668853759765625, -0.00918516702950000762939453125, 0.009785485453903675079345703125, -0.033924527466297149658203125};
const parameter_fixed_type gru1_input1_w_ih[GRU_WI_SIZE] = {-0.051669023931026458740234375, -0.0216397903859615325927734375, 0.3499523699283599853515625, 0.198961317539215087890625, -0.031422920525074005126953125, 0.1296891272068023681640625, 0.268686771392822265625, 0.148848831653594970703125, 0.1331736743450164794921875, 0.2878944873809814453125, 0.064334444701671600341796875, 0.368221700191497802734375, 0.15345929563045501708984375, 0.4943502843379974365234375, 0.1440947055816650390625, 0.5468270778656005859375, 0.3656156957149505615234375, 0.700824558734893798828125, 0.23985831439495086669921875, -0.20611388981342315673828125, 0.14162190258502960205078125, -0.02652536891400814056396484375, 0.10435338318347930908203125, -0.275188744068145751953125, -0.186854064464569091796875, 0.15760552883148193359375, -0.009385689161717891693115234375, 0.4083377420902252197265625, 0.40887725353240966796875, 0.555239021778106689453125, 0.304923713207244873046875, 0.637264192104339599609375, 0.3703825771808624267578125, 0.637525856494903564453125, 0.7732150554656982421875, 1.007475376129150390625, 0.0610410533845424652099609375, -0.105828382074832916259765625, -0.12978647649288177490234375, -0.23635549843311309814453125, 0.105100713670253753662109375, -0.116866327822208404541015625, -0.251230180263519287109375, 0.0639069974422454833984375, 0.0292159654200077056884765625, 0.15630806982517242431640625, 0.1020198762416839599609375, -0.1327719390392303466796875, -0.17217560112476348876953125, 0.11269007623195648193359375, -0.19098891317844390869140625, -0.02458648197352886199951171875, -0.15817053616046905517578125, -0.2811525166034698486328125, 0.0518106706440448760986328125, -0.085137374699115753173828125, -0.08537133038043975830078125, -0.23110611736774444580078125, -0.076790668070316314697265625, 0.069486834108829498291015625, 0.0561813078820705413818359375, -0.167630732059478759765625, -0.0886629521846771240234375, -0.035409487783908843994140625, 0.12486328184604644775390625, 0.1441468894481658935546875, 0.097992591559886932373046875, -0.1282496154308319091796875, 0.1354136168956756591796875, -0.08615113794803619384765625, 0.010228910483419895172119140625, -0.249152600765228271484375, -0.4769427478313446044921875, -0.1862953603267669677734375, -0.097187452018260955810546875, -0.2598569095134735107421875, -0.2084381580352783203125, 0.060698807239532470703125, -0.130126655101776123046875, 0.364313066005706787109375, 0.2002903521060943603515625, 0.12745726108551025390625, 0.22368042171001434326171875, 0.084150753915309906005859375, 0.25881302356719970703125, 0.24711902439594268798828125, -0.10958237946033477783203125, 0.051144473254680633544921875, 0.3458901345729827880859375, 0.19287143647670745849609375, 0.0341313742101192474365234375, -0.0047181188128888607025146484375, -0.0548527278006076812744140625, 0.015912733972072601318359375, 0.07737751305103302001953125, 0.19852416217327117919921875, 0.238430798053741455078125, -0.2552220821380615234375, -0.0474300682544708251953125, -0.0739358961582183837890625, 0.17129959166049957275390625, -0.218290388584136962890625, 0.0410504639148712158203125, 0.091439001262187957763671875, -0.0412508435547351837158203125, -0.10551933944225311279296875, -0.1650772392749786376953125, -0.16628013551235198974609375, 0.4566681683063507080078125, 0.26620471477508544921875, 0.07905410230159759521484375, -0.0344715826213359832763671875, 0.2801513373851776123046875, 0.3551975786685943603515625, 0.1857795417308807373046875, -0.15243469178676605224609375, 0.0065152789466083049774169921875, 0.087281800806522369384765625, -0.02974036894738674163818359375, -0.004064667038619518280029296875, 0.54133474826812744140625, 0.20380504429340362548828125, 0.2065002024173736572265625, 0.562787950038909912109375, 0.777702748775482177734375, 0.416318356990814208984375, 0.13029418885707855224609375, 0.05450944602489471435546875, 0.06338687241077423095703125, 0.068963669240474700927734375, 0.05248178541660308837890625, -0.19295923411846160888671875, 0.0073744081892073154449462890625, 0.031836770474910736083984375, -0.0282163657248020172119140625, 0.1256272792816162109375, -0.154942333698272705078125, -0.03063341043889522552490234375, -0.0503536798059940338134765625, -0.009788001887500286102294921875, -0.03087524510920047760009765625, -0.19507490098476409912109375, -0.15310125052928924560546875, -0.05333261191844940185546875, -0.13250167667865753173828125, -0.097842670977115631103515625, -0.010412591509521007537841796875, 0.13322947919368743896484375, 0.230251133441925048828125, 0.10620494186878204345703125, 0.1715758740901947021484375, -0.075954847037792205810546875, -0.0111117698252201080322265625, 0.11575897037982940673828125, 0.02729902602732181549072265625, 0.044670291244983673095703125, -0.10222540795803070068359375, -0.08709104359149932861328125, -0.074608005583286285400390625, -0.1618290245532989501953125, -0.2718867957592010498046875, -0.072060577571392059326171875, -0.123669616878032684326171875, 0.117311142385005950927734375, 0.347710549831390380859375, -0.144997298717498779296875, 0.076248176395893096923828125, -0.038143835961818695068359375, -0.20726175606250762939453125, 0.14970080554485321044921875, 0.262131989002227783203125, -0.11149381101131439208984375, 0.076501853764057159423828125, -0.064789079129695892333984375, 0.00230437400750815868377685546875, -0.123482875525951385498046875, -0.080735467374324798583984375, -0.02948009967803955078125, -0.2230379879474639892578125, -0.14156506955623626708984375, 0.4611255228519439697265625, 0.3568117320537567138671875, 0.667499125003814697265625, 0.4006817042827606201171875, 0.46975910663604736328125, 0.345125854015350341796875, 0.7642881870269775390625, 0.34043443202972412109375, 0.873473227024078369140625, 0.876290142536163330078125, 1.070937633514404296875, 0.979094207286834716796875, 0.952047288417816162109375, 0.79193556308746337890625, 0.994348347187042236328125, 0.913808286190032958984375, 1.31340312957763671875, 1.49406921863555908203125, -0.0924346745014190673828125, -0.0341245830059051513671875, -0.07587181031703948974609375, -0.049201898276805877685546875, 0.3355139195919036865234375, -0.3725233972072601318359375, -0.2673822343349456787109375, -0.1839669644832611083984375, -0.20827926695346832275390625, -0.1812566220760345458984375, 0.082561708986759185791015625, -0.2872239053249359130859375, -0.3832598030567169189453125, -0.075133524835109710693359375, -0.0223956368863582611083984375, -0.3610899448394775390625, -0.57953822612762451171875, -0.4423201978206634521484375, 0.16123799979686737060546875, -0.009970418177545070648193359375, 0.079644285142421722412109375, 0.1334277093410491943359375, 0.2839563190937042236328125, 0.081954471766948699951171875, -0.168650567531585693359375, 0.08305983245372772216796875, 0.017944015562534332275390625, 0.21059446036815643310546875, -0.0089145638048648834228515625, -0.112140201032161712646484375, -0.1540244519710540771484375, -0.087236173450946807861328125, -0.16544993221759796142578125, 0.0031171706505119800567626953125, -0.201493084430694580078125, -0.14827072620391845703125, 0.620081722736358642578125, 0.4775740206241607666015625, 0.441849410533905029296875, 0.429531633853912353515625, 0.43554985523223876953125, 0.52018940448760986328125, 0.4489079415798187255859375, 0.74632513523101806640625, 0.3852203786373138427734375, 0.285446345806121826171875, 0.4226439297199249267578125, 0.70664179325103759765625, 0.4917264282703399658203125, 0.513064861297607421875, 0.400936067104339599609375, 0.776743113994598388671875, 0.491417407989501953125, 0.783842623233795166015625, 0.555193603038787841796875, 0.309115588665008544921875, 0.324740588665008544921875, 0.3515147864818572998046875, 0.3154958784580230712890625, 0.0958926379680633544921875, 0.3656468689441680908203125, 0.2584784328937530517578125, 0.19093976914882659912109375, 0.11478473246097564697265625, 0.2738988101482391357421875, 0.07949639856815338134765625, 0.03612458705902099609375, 0.0422263555228710174560546875, 0.34092235565185546875, 0.2604136765003204345703125, 0.120497025549411773681640625, 0.3601095378398895263671875, 0.06802071630954742431640625, 0.107222341001033782958984375, 0.012037795968353748321533203125, 0.09408438205718994140625, -0.07984434068202972412109375, -0.0449371971189975738525390625, -0.02515012584626674652099609375, 0.096548460423946380615234375, -0.098410673439502716064453125, 0.12927186489105224609375, 0.124394230544567108154296875, 0.02869314886629581451416015625, 0.14756058156490325927734375, 0.057460688054561614990234375, 0.0027261185459792613983154296875, -0.06391631066799163818359375, -0.090254485607147216796875, 0.20245365798473358154296875, -0.439580976963043212890625, -0.24375669658184051513671875, -0.2342150509357452392578125, -0.0289966203272342681884765625, -0.088172495365142822265625, -0.124825902283191680908203125, 0.309270381927490234375, -0.0369420945644378662109375, 0.082410953938961029052734375, 0.1779297292232513427734375, 0.2239940166473388671875, -0.1307121813297271728515625, -0.12004767358303070068359375, -0.08013583719730377197265625, -0.2206380367279052734375, -0.4091105759143829345703125, -0.119258232414722442626953125, -0.0435894764959812164306640625, 0.4450636208057403564453125, 0.521755635738372802734375, 0.3796218335628509521484375, 0.26777422428131103515625, 0.505338013172149658203125, 0.321712195873260498046875, 0.15356267988681793212890625, 0.3435693681240081787109375, 0.5030615329742431640625, 0.4873713552951812744140625, 0.29854881763458251953125, 0.24716757237911224365234375, 0.578256785869598388671875, 0.14922501146793365478515625, 0.371928274631500244140625, 0.471688449382781982421875, 0.30114138126373291015625, 0.57985270023345947265625, -0.10322354733943939208984375, 0.124117054045200347900390625, -0.24301207065582275390625, -0.20871917903423309326171875, -0.17134504020214080810546875, -0.290691852569580078125, 0.015464532189071178436279296875, -0.298571765422821044921875, -0.37451875209808349609375, -0.25899028778076171875, 0.114904306828975677490234375, -0.22441303730010986328125, -0.0264038145542144775390625, -0.2216089069843292236328125, -0.13163165748119354248046875, -0.03072397597134113311767578125, -0.2848848402500152587890625, -0.2564990222454071044921875, 0.23136503994464874267578125, -0.23794819414615631103515625, 0.1929083168506622314453125, 0.24056462943553924560546875, 0.060526765882968902587890625, 0.010399048216640949249267578125, -0.005149130709469318389892578125, -0.0043718852102756500244140625, 0.13303257524967193603515625, -0.00227471999824047088623046875, 0.15671838819980621337890625, 0.104030244052410125732421875, -0.051556415855884552001953125, 0.2539619505405426025390625, -0.09153749048709869384765625, 0.109348438680171966552734375, 0.06978054344654083251953125, 0.22848713397979736328125, 0.11203502118587493896484375, -0.06356735527515411376953125, 0.3942779600620269775390625, 0.03852806985378265380859375, 0.0430856980383396148681640625, 0.01969782449305057525634765625, -0.08521436154842376708984375, -0.004040989093482494354248046875, 0.1805447638034820556640625, -0.1896145045757293701171875, 0.113806776702404022216796875, 0.06620149314403533935546875, 0.1351532638072967529296875, -0.10947458446025848388671875, 0.06795586645603179931640625, -0.1297357082366943359375, -0.16141223907470703125, -0.22562338411808013916015625, 0.271513402462005615234375, -0.00396412424743175506591796875, 0.43092334270477294921875, 0.034187294542789459228515625, 0.329169750213623046875, 0.10891665518283843994140625, 0.0377029664814472198486328125, 0.250248432159423828125, 0.21906276047229766845703125, 0.3076091706752777099609375, 0.073107711970806121826171875, -0.11516487598419189453125, 0.08960525691509246826171875, 0.145105302333831787109375, 0.005717719905078411102294921875, -0.013046049512922763824462890625, 0.2050314843654632568359375, 0.1878640651702880859375, 0.1382541954517364501953125, 0.074692882597446441650390625, -0.139538586139678955078125, -0.19751600921154022216796875, 0.0380083061754703521728515625, 0.2954432070255279541015625, 0.3052105009555816650390625, 0.085224919021129608154296875, 0.082721732556819915771484375, 0.13273322582244873046875, -0.12305867671966552734375, -0.07652287185192108154296875, 0.074701420962810516357421875, 0.0887524783611297607421875, -0.0075904713012278079986572265625, 0.04393769800662994384765625, -0.0603134892880916595458984375, 0.1106474101543426513671875, 0.1965439021587371826171875, 0.333312094211578369140625, -0.1460656225681304931640625, 0.049432575702667236328125, -0.169043362140655517578125, 0.2476970851421356201171875, 0.1054546833038330078125, 0.08598144352436065673828125, 0.0588527955114841461181640625, -0.02946524880826473236083984375, 0.2592369616031646728515625, -0.3302337229251861572265625, -0.06156377494335174560546875, -0.2663409411907196044921875, -0.13408760726451873779296875, 0.16805647313594818115234375, -0.119534917175769805908203125, 0.4677529036998748779296875, -0.09919635951519012451171875, 0.02449869550764560699462890625, 0.035302437841892242431640625, 0.14610816538333892822265625, 0.17041395604610443115234375, 0.0600134171545505523681640625, -0.03191851079463958740234375, -0.02610485441982746124267578125, 0.077505528926849365234375, -0.116279847919940948486328125, 0.22875964641571044921875, 0.0728586018085479736328125, -0.171952784061431884765625, -0.258668363094329833984375, 0.0340265072882175445556640625, 0.02776184491813182830810546875, -0.18094123899936676025390625, 0.13213329017162322998046875, 0.196303844451904296875, 0.01949946768581867218017578125, -0.046336926519870758056640625, 0.0189199335873126983642578125, 0.13749705255031585693359375, 0.15572591125965118408203125, 0.0539518184959888458251953125, -0.2377229630947113037109375, 0.118109650909900665283203125, 0.2543010711669921875, 0.038308717310428619384765625, -0.2563349306583404541015625, 0.0589857660233974456787109375, -0.0024207555688917636871337890625, 0.021457396447658538818359375, 0.01709487475454807281494140625, -0.1818417012691497802734375, -0.08307693898677825927734375, 0.23382161557674407958984375, 0.0878312289714813232421875, -0.089968286454677581787109375, 0.4355631768703460693359375, 0.2331542670726776123046875, 0.397432982921600341796875, 0.3198803961277008056640625, 0.373204410076141357421875, 0.372672855854034423828125, 0.099014222621917724609375, 0.0326129496097564697265625, 0.3127468526363372802734375, 0.4492946565151214599609375, 0.58946382999420166015625, 0.64977514743804931640625, 0.344788849353790283203125, 0.40612757205963134765625, 0.77486717700958251953125, -0.01841312460601329803466796875, -0.12244780361652374267578125, 0.2499504983425140380859375, 0.011976518668234348297119140625, 0.0364175401628017425537109375, -0.074120245873928070068359375, 0.18142302334308624267578125, -0.2125677168369293212890625, 0.0382294617593288421630859375, -0.2698613703250885009765625, 0.00154490466229617595672607421875, -0.2515808045864105224609375, -0.15701986849308013916015625, 0.2696765959262847900390625, -0.1476700603961944580078125, -0.1527306735515594482421875, -0.24106912314891815185546875, -0.0630327761173248291015625, -0.84349668025970458984375, -0.4030560553073883056640625, -0.218423187732696533203125, -0.3889655172824859619140625, -0.2931176722049713134765625, 0.03110644407570362091064453125, -0.01571828313171863555908203125, 0.278796136379241943359375, 0.01836706884205341339111328125, -0.14622445404529571533203125, 0.0578832961618900299072265625, 0.2990655601024627685546875, 0.13745500147342681884765625, 0.1302291452884674072265625, -0.178278267383575439453125, 0.10837142169475555419921875, -0.3028396666049957275390625, -0.19512474536895751953125, 0.2506993114948272705078125, 0.4383451640605926513671875, 0.0417738370597362518310546875, 0.3084833323955535888671875, 0.112471647560596466064453125, 0.2772892415523529052734375, 0.1308825016021728515625, 0.006083800457417964935302734375, 0.1910665035247802734375, 0.34228789806365966796875, 0.3475938737392425537109375, 0.22493374347686767578125, 0.065383829176425933837890625, 0.20003627240657806396484375, -0.0224201567471027374267578125, 0.3347648084163665771484375, 0.113881804049015045166015625, 0.0686255991458892822265625, -0.2412749826908111572265625, -0.0438707433640956878662109375, 0.02726924978196620941162109375, 0.02146986313164234161376953125, 0.040931545197963714599609375, -0.12510953843593597412109375, 0.00021475556422956287860870361328125, 0.07742513716220855712890625, -0.08823753893375396728515625, -0.23977129161357879638671875, 0.16169865429401397705078125, -0.1258834898471832275390625, -0.150492727756500244140625, 0.00901994295418262481689453125, -0.14000596106052398681640625, -0.195780932903289794921875, -0.20265485346317291259765625, -0.0498438291251659393310546875, 0.06845061480998992919921875, 0.1111468970775604248046875, 0.0050555472262203693389892578125, -0.202909529209136962890625, -0.10979254543781280517578125, 0.22644519805908203125, 0.060707859694957733154296875, -0.01139700971543788909912109375, 0.08089046180248260498046875, 0.06008650362491607666015625, 0.133344233036041259765625, 0.28152906894683837890625, 0.07363806664943695068359375, 0.09651909768581390380859375, 0.16968931257724761962890625, -0.02066896669566631317138671875, -0.115132920444011688232421875, 0.2065148055553436279296875, 0.14636228978633880615234375, -0.0386988632380962371826171875, 0.075531460344791412353515625, 0.1885950863361358642578125, -0.166751384735107421875, 0.0337409637868404388427734375, 0.28896510601043701171875, 0.081031955778598785400390625, -0.20539735257625579833984375, -0.0616691000759601593017578125, -0.0256061144173145294189453125, -0.0387585647404193878173828125, 0.0208961665630340576171875, -0.0511921346187591552734375, 0.2441324293613433837890625, 0.183582842350006103515625, -0.0772081911563873291015625, 0.075201965868473052978515625, -0.00227687158621847629547119140625, 0.07829047739505767822265625, 0.0393599309027194976806640625, 0.3649413287639617919921875, 0.1003998219966888427734375, 0.270421683788299560546875, 0.4445139467716217041015625, 0.3418270051479339599609375, 0.049959994852542877197265625, 0.061416447162628173828125, 0.15090502798557281494140625, 0.282495021820068359375, 0.2126791477203369140625, 0.104766197502613067626953125, 0.22597801685333251953125, 0.2468013465404510498046875, 0.66297209262847900390625, 0.62552869319915771484375, 0.522217810153961181640625, 0.41866910457611083984375, 0.1849019825458526611328125, 0.103945411741733551025390625, 0.09555162489414215087890625, 0.3928021490573883056640625, 0.15296770632266998291015625, -0.067384012043476104736328125, -0.0121087469160556793212890625, 0.010638612322509288787841796875, -0.00377528998069465160369873046875, 0.0643079578876495361328125, 0.11849422752857208251953125, 0.2488415241241455078125, 0.1608814895153045654296875, 0.0603440105915069580078125, 0.4591429531574249267578125, 0.705377042293548583984375, -0.02113221772015094757080078125, -0.059491239488124847412109375, -0.3782347142696380615234375, -0.2233053147792816162109375, -0.02348200418055057525634765625, -0.10055996477603912353515625, -0.3485127985477447509765625, -0.20438198745250701904296875, -0.244884967803955078125, -0.263471424579620361328125, -0.15521965920925140380859375, -0.480846107006072998046875, -0.53298628330230712890625, -0.55321085453033447265625, -0.3037271797657012939453125, -0.3637406527996063232421875, -0.41117346286773681640625, -0.297474205493927001953125, -0.23034124076366424560546875, -0.461817264556884765625, -0.247700989246368408203125, -0.1084173023700714111328125, -0.318190276622772216796875, -0.10141074657440185546875, -0.2027187049388885498046875, -0.0375006310641765594482421875, -0.0595438517630100250244140625, -0.335865318775177001953125, -0.1657019555568695068359375, -0.007771293632686138153076171875, -0.12057344615459442138671875, 0.06131668388843536376953125, 0.112006746232509613037109375, -0.084620006382465362548828125, 0.02919499576091766357421875, 0.4844315350055694580078125, -0.603353023529052734375, -0.3520374298095703125, -0.2431788742542266845703125, -0.237481653690338134765625, -0.089440025389194488525390625, -0.4219338893890380859375, 0.005945998243987560272216796875, -0.073371298611164093017578125, -0.3110266625881195068359375, -0.081248767673969268798828125, -0.0536877103149890899658203125, 0.07361806929111480712890625, 0.077506698668003082275390625, -0.01827746815979480743408203125, 0.2264330387115478515625, 0.0220361612737178802490234375, -0.09841616451740264892578125, 0.0437246449291706085205078125, -0.15170954167842864990234375, 0.02990219555795192718505859375, 0.0684304535388946533203125, -0.277988255023956298828125, -0.224890232086181640625, -0.0440215170383453369140625, -0.14497654139995574951171875, 0.00926644168794155120849609375, -0.0594687052071094512939453125, -0.2723626792430877685546875, -0.17724429070949554443359375, -0.009749828837811946868896484375, -0.228617608547210693359375, 0.0312571823596954345703125, 0.08331806957721710205078125, -0.013762251473963260650634765625, 0.2505821883678436279296875, 0.4933133423328399658203125, -0.18584530055522918701171875, 0.17643763124942779541015625, -0.02152094058692455291748046875, 0.16826431453227996826171875, -0.123964421451091766357421875, 0.13079680502414703369140625, 0.0376509688794612884521484375, 0.089987717568874359130859375, 0.07296521961688995361328125, -0.00212837755680084228515625, 0.0550034604966640472412109375, -0.1572611033916473388671875, -0.104523651301860809326171875, 0.08325569331645965576171875, 0.08374463021755218505859375, 0.03702853620052337646484375, 0.117797471582889556884765625, 0.238937079906463623046875, 0.13855321705341339111328125, 0.0448321960866451263427734375, 0.18680407106876373291015625, 0.3577164709568023681640625, 0.17935474216938018798828125, -0.2254040539264678955078125, 0.058210112154483795166015625, -0.15861617028713226318359375, 0.117879830300807952880859375, -0.1380748450756072998046875, 0.084509909152984619140625, -0.0355702601373195648193359375, -0.13089118897914886474609375, -0.13868404924869537353515625, -0.015629231929779052734375, 0.16581322252750396728515625, 0.057774722576141357421875, 0.498681724071502685546875, 0.14124067127704620361328125, 0.113176874816417694091796875, 0.271049439907073974609375, 0.0482220239937305450439453125, 0.16787360608577728271484375, 0.261274814605712890625, 0.292963325977325439453125, 0.130603373050689697265625, -0.005608876235783100128173828125, 0.2040317952632904052734375, 0.274701535701751708984375, 0.23603294789791107177734375, 0.4966562092304229736328125, 0.3645630180835723876953125, 0.005420775152742862701416015625, 0.43976509571075439453125, -0.01911882869899272918701171875, 0.2952644824981689453125, 0.19148419797420501708984375, -0.0352592803537845611572265625, -0.1789145171642303466796875, -0.08369682729244232177734375, 0.1614295542240142822265625, 0.06396259367465972900390625, -0.4720377624034881591796875, -0.199684202671051025390625, 0.06890507042407989501953125, -0.2652539312839508056640625, -0.12657041847705841064453125, -0.1172887980937957763671875, 0.0325150974094867706298828125, 0.0067988657392561435699462890625, -0.19085679948329925537109375, 0.064899168908596038818359375, 0.14471106231212615966796875, 0.4729538857936859130859375, 0.0353476591408252716064453125, 0.00257479283027350902557373046875, -0.092802189290523529052734375, 0.1153796613216400146484375, -0.038091503083705902099609375, -0.039304606616497039794921875, 0.01984647475183010101318359375, -0.104551099240779876708984375, -0.047857515513896942138671875, -0.21487776935100555419921875, -0.107586883008480072021484375, -0.15286378562450408935546875, -0.089662201702594757080078125, -0.078933410346508026123046875, 0.047581307590007781982421875, 0.2195442616939544677734375, 0.2592187821865081787109375, 0.470215499401092529296875, 0.3113304078578948974609375, -0.069665856659412384033203125, -0.12257428467273712158203125, -0.03033308684825897216796875, -0.0621570758521556854248046875, 0.24950610101222991943359375, -0.1797290742397308349609375, 0.1635384261608123779296875, 0.16947348415851593017578125, 0.15766303241252899169921875, -0.06540878117084503173828125, 0.018931709229946136474609375, 0.460765659809112548828125, 0.0531357564032077789306640625, 0.29206764698028564453125, -0.0372987687587738037109375, 0.09774447977542877197265625, -0.21361668407917022705078125, -1.03691709041595458984375, -0.983437001705169677734375, -0.721796333789825439453125, -0.8453733921051025390625, -0.4687728583812713623046875, -0.56394374370574951171875, -0.6225745677947998046875, -0.4017805159091949462890625, -0.406908571720123291015625, -0.4535864889621734619140625, -0.17396867275238037109375, -0.2153460085391998291015625, -0.30423510074615478515625, -0.3616063594818115234375, -0.23504434525966644287109375, -0.4153916835784912109375, -0.2357179820537567138671875, -0.568843364715576171875, 0.1870370209217071533203125, -0.2100019752979278564453125, -0.0413471795618534088134765625, -0.112340293824672698974609375, -0.126608908176422119140625, 0.2291747033596038818359375, -0.148443162441253662109375, -0.02210381068289279937744140625, 0.1711150705814361572265625, -0.19764463603496551513671875, -0.1120935976505279541015625, -0.21922247111797332763671875, -0.090772263705730438232421875, 0.034898780286312103271484375, -0.113564036786556243896484375, -0.06536220014095306396484375, 0.08658443391323089599609375, 0.3084948956966400146484375, 0.435733616352081298828125, 0.303537428379058837890625, 0.2398843467235565185546875, 0.265286982059478759765625, 0.3042395412921905517578125, -0.06025612354278564453125, 0.005953789688646793365478515625, 0.02628599293529987335205078125, 0.15269374847412109375, 0.06977845728397369384765625, 0.090334616601467132568359375, 0.1846817433834075927734375, 0.1377114355564117431640625, 0.000722024007700383663177490234375, -0.0127039365470409393310546875, 0.073841623961925506591796875, 0.3849006593227386474609375, -0.00023996186791919171810150146484375, 0.3457592427730560302734375, 0.514904677867889404296875, 0.076208420097827911376953125, 0.53606283664703369140625, 0.05583493411540985107421875, 0.1911086142063140869140625, 0.344991743564605712890625, 0.490506470203399658203125, 0.6395614147186279296875, 0.68875515460968017578125, 0.4385493099689483642578125, 0.55839216709136962890625, 0.2974257171154022216796875, 0.424490749835968017578125, 0.718193590641021728515625, 0.39760124683380126953125, 0.2757808864116668701171875, 0.3700652420520782470703125, 0.1755408942699432373046875, 0.31054413318634033203125, 0.21416233479976654052734375, 0.16535367071628570556640625, -0.02700418047606945037841796875, 0.373050689697265625, 0.1766619384288787841796875, -0.01585643552243709564208984375, 0.0905632078647613525390625, 0.136456668376922607421875, 0.14305062592029571533203125, -0.086270011961460113525390625, -0.0318153612315654754638671875, -0.013358115218579769134521484375, 0.0089215971529483795166015625, -0.02611491270363330841064453125, 0.313363373279571533203125, 0.24721108376979827880859375, -0.1110179424285888671875, -0.20177662372589111328125, -0.3605457246303558349609375, -0.23663957417011260986328125, -0.2884904444217681884765625, -0.514395534992218017578125, -0.1082374155521392822265625, -0.6082713603973388671875, -0.093124903738498687744140625, -0.4502700269222259521484375, -0.2516716420650482177734375, -0.24193011224269866943359375, -0.2584993839263916015625, -0.4238261878490447998046875, -0.4357496201992034912109375, -0.3776527345180511474609375, -0.1478407084941864013671875, -0.24051542580127716064453125, -0.41165316104888916015625, -0.2902368009090423583984375, -0.4358801543712615966796875, -0.37159550189971923828125, -0.18673789501190185546875, -0.13430236279964447021484375, -0.4614128768444061279296875, -0.4381963908672332763671875, -0.3774063587188720703125, -0.04430027306079864501953125, -0.187186777591705322265625, -0.37488996982574462890625, -0.15532238781452178955078125, -0.2603440582752227783203125, -0.3368818461894989013671875, -0.1361434757709503173828125, -0.207586109638214111328125, -0.1590576469898223876953125, -0.0592041350901126861572265625, 0.0438368953764438629150390625, 0.2636151015758514404296875, 0.0552185475826263427734375, 0.042275883257389068603515625, 0.0984241068363189697265625, -0.24493582546710968017578125, -0.09056985378265380859375, 0.0264205038547515869140625, 0.2887315452098846435546875, -0.0366241298615932464599609375, 0.1419979631900787353515625, 0.01946236751973628997802734375, 0.060408532619476318359375, 0.12734387814998626708984375, -0.070730663836002349853515625, -0.097045421600341796875, 0.12746511399745941162109375, 0.3599231243133544921875, 0.2496157586574554443359375, 0.249779224395751953125, 0.079129151999950408935546875, 0.1880376636981964111328125, 0.27404391765594482421875, 0.14716613292694091796875, 0.347880542278289794921875, 0.16237358748912811279296875, 0.3173730671405792236328125, 0.25733411312103271484375, 0.328059375286102294921875, 0.3296041786670684814453125, -0.0624809525907039642333984375, -0.05743987858295440673828125, -0.068472974002361297607421875, 0.098924092948436737060546875, 0.341029226779937744140625, -0.1370275914669036865234375, 0.17146478593349456787109375, 0.2702410221099853515625, 0.279919207096099853515625, 0.19026194512844085693359375, 0.32684040069580078125, 0.250783145427703857421875, 0.3282881081104278564453125, 0.19131062924861907958984375, -0.031390048563480377197265625, 0.450469672679901123046875, 0.3090433776378631591796875, 0.213479518890380859375, 0.326331198215484619140625, 0.608544647693634033203125, 0.22322173416614532470703125, 0.618751466274261474609375, 0.449694097042083740234375, 0.109625138342380523681640625, -0.11629815399646759033203125, 0.189364612102508544921875, -0.063074588775634765625, 0.02822787500917911529541015625, 0.0358642041683197021484375, -0.0277000851929187774658203125, -0.15734593570232391357421875, -0.06437681615352630615234375, 0.0611952841281890869140625, 0.22105538845062255859375, -0.24684536457061767578125, -0.08552069962024688720703125, 0.3351225554943084716796875, 0.22047074139118194580078125, 0.107167191803455352783203125, 0.531575024127960205078125, 0.757652819156646728515625, 0.17104928195476531982421875, 0.293857097625732421875, 0.086930878460407257080078125, 0.0171323828399181365966796875, 0.113025568425655364990234375, 0.17524941265583038330078125, 0.108467288315296173095703125, 0.17306746542453765869140625, -0.03454281389713287353515625, 0.0461127869784832000732421875, 0.0388312079012393951416015625, -0.018375776708126068115234375, 0.3347725570201873779296875, 0.351148307323455810546875, 0.203025877475738525390625, 0.38014876842498779296875, 0.3331530988216400146484375, 0.6777546405792236328125, -0.3151362240314483642578125, -0.52960550785064697265625, -0.2640039622783660888671875, -0.303732097148895263671875, -0.368266284465789794921875, -0.4271243512630462646484375, -0.490643203258514404296875, -0.679707348346710205078125, -0.350244700908660888671875, -0.477488994598388671875, -0.673964083194732666015625, -0.669226586818695068359375, -0.546199858188629150390625, -0.64109039306640625, -0.80956900119781494140625, -0.92636644840240478515625, -0.731380283832550048828125, -0.991182506084442138671875, -0.070721693336963653564453125, 0.20709066092967987060546875, -0.106181807816028594970703125, -0.058471776545047760009765625, -0.2134113311767578125, 0.1091288030147552490234375, -0.1418102681636810302734375, -0.004252440296113491058349609375, -0.123723685741424560546875, 0.112250201404094696044921875, -0.2489616870880126953125, 0.18324913084506988525390625, -0.16922445595264434814453125, -0.0330337099730968475341796875, -0.2015451490879058837890625, -0.3200652301311492919921875, 0.064121283590793609619140625, 0.0022148243151605129241943359375, 0.13656277954578399658203125, 0.16787694394588470458984375, -0.000189425074495375156402587890625, 0.13552774488925933837890625, 0.10980115830898284912109375, 0.1380381882190704345703125, -0.272479355335235595703125, -0.06422413885593414306640625, -0.4023368060588836669921875, -0.120079882442951202392578125, -0.1158547103404998779296875, 0.0239808149635791778564453125, -0.16089127957820892333984375, -0.1589879691600799560546875, 0.014970918186008930206298828125, -0.3935462534427642822265625, -0.632628500461578369140625, -0.06909643113613128662109375, -0.070854343473911285400390625, -0.311780393123626708984375, -0.1332137584686279296875, -0.1917358934879302978515625, -0.10584892332553863525390625, -0.124959893524646759033203125, -0.3554475009441375732421875, -0.11899387836456298828125, -0.01836910657584667205810546875, 0.0462714619934558868408203125, -0.29751217365264892578125, -0.1365226209163665771484375, 0.0073470803909003734588623046875, -0.22554235160350799560546875, -0.0074802306480705738067626953125, -0.21330229938030242919921875, -0.252023279666900634765625, -0.275830328464508056640625, 0.54962551593780517578125, 0.3294777572154998779296875, 0.594471275806427001953125, 0.19550211727619171142578125, 0.233698308467864990234375, 0.20509774982929229736328125, 0.2525074183940887451171875, 0.3953320086002349853515625, 0.311629712581634521484375, 0.2392926514148712158203125, 0.4465948045253753662109375, 0.659624159336090087890625, 0.2626779973506927490234375, 0.771988570690155029296875, 0.596036434173583984375, 0.93160879611968994140625, 0.87984240055084228515625, 1.107515811920166015625, 0.091599404811859130859375, 0.016672670841217041015625, 0.1878121197223663330078125, -0.0624678172171115875244140625, 0.1303165853023529052734375, 0.09008772671222686767578125, -0.0498622618615627288818359375, 0.267018258571624755859375, 0.032078839838504791259765625, -0.00410988368093967437744140625, 0.1968462467193603515625, -0.01952578686177730560302734375, 0.2360537052154541015625, 0.03070849739015102386474609375, 0.22088064253330230712890625, 0.4884653985500335693359375, 0.327131748199462890625, 0.09279270470142364501953125, -0.094297550618648529052734375, -0.0540417023003101348876953125, -0.2728351056575775146484375, -0.3904323577880859375, 0.1160215437412261962890625, 0.174387156963348388671875, 0.01248243637382984161376953125, 0.089483000338077545166015625, -0.0745777189731597900390625, 0.02457605302333831787109375, 0.117058582603931427001953125, -0.082584850490093231201171875, -0.1137910783290863037109375, 0.162168443202972412109375, 0.16734699904918670654296875, 0.5628592967987060546875, 0.393207013607025146484375, 0.67466843128204345703125, -0.3299988806247711181640625, -0.18428516387939453125, -0.3891311585903167724609375, -0.19275613129138946533203125, -0.2029320895671844482421875, -0.21542830765247344970703125, -0.0376785658299922943115234375, -0.3997007906436920166015625, -0.014786110259592533111572265625, -0.16487066447734832763671875, -0.360618293285369873046875, 0.260137617588043212890625, -0.15154178440570831298828125, 0.0229614712297916412353515625, -0.40547478199005126953125, -0.2526590824127197265625, -0.0590871460735797882080078125, -0.2087041437625885009765625, 0.20678699016571044921875, -0.234016001224517822265625, -0.065187267959117889404296875, 0.0312774889171123504638671875, 0.1775170862674713134765625, 0.13937915861606597900390625, -0.075465776026248931884765625, 0.20685856044292449951171875, -0.3223677575588226318359375, 0.1392832696437835693359375, -0.2589484751224517822265625, -0.3104563057422637939453125, -0.0063081006519496440887451171875, -0.4446595609188079833984375, -0.12837302684783935546875, -0.8386843204498291015625, -1.08786809444427490234375, -1.80061018466949462890625, 0.056446172297000885009765625, 0.0556505657732486724853515625, -0.23650266230106353759765625, -0.089051283895969390869140625, -0.074616096913814544677734375, 0.264651596546173095703125, 0.09438233077526092529296875, 0.0500834174454212188720703125, -0.070742584764957427978515625, 0.054239891469478607177734375, 0.3184761106967926025390625, 0.05690197646617889404296875, 0.2661101520061492919921875, 0.1396635472774505615234375, 0.08139593899250030517578125, -0.0431366153061389923095703125, 0.283981144428253173828125, 0.066316209733486175537109375, -0.0540782511234283447265625, 0.126975536346435546875, -0.20863376557826995849609375, -0.2112929821014404296875, -0.12862078845500946044921875, -0.3227686583995819091796875, -0.1541564762592315673828125, -0.19212897121906280517578125, -0.23670499026775360107421875, 0.01223141141235828399658203125, -0.1394256651401519775390625, -0.0320353023707866668701171875, -0.34301221370697021484375, -0.09017853438854217529296875, -0.0680960118770599365234375, -0.3952015936374664306640625, -0.318778812885284423828125, -0.3370764553546905517578125, 0.058869652450084686279296875, 0.0749413669109344482421875, 0.2961744368076324462890625, -0.069528631865978240966796875, 0.15701703727245330810546875, -0.01909033022820949554443359375, 0.10582096874713897705078125, 0.21949450671672821044921875, -0.0365590155124664306640625, -0.08441174030303955078125, -0.06049238145351409912109375, 0.3457024395465850830078125, -0.1238968670368194580078125, 0.2182804644107818603515625, -0.064773261547088623046875, 0.2664453685283660888671875, 0.21771399676799774169921875, 0.389343678951263427734375, -0.2944188416004180908203125, -0.4065732061862945556640625, -0.2140142023563385009765625, -0.02401840500533580780029296875, -0.0262230075895786285400390625, -0.07034723460674285888671875, -0.2575644552707672119140625, 0.058316342532634735107421875, 0.0164935290813446044921875, 0.074918143451213836669921875, 0.24748148024082183837890625, 0.11835272610187530517578125, 0.05516295135021209716796875, 0.0771890580654144287109375, -0.034922949969768524169921875, -0.24951766431331634521484375, -0.0774213969707489013671875, -0.377323806285858154296875, -0.2369644939899444580078125, -0.00200919969938695430755615234375, -0.063961185514926910400390625, -0.1137682497501373291015625, -0.541272819042205810546875, -0.3956793248653411865234375, -0.282284557819366455078125, -0.2045961320400238037109375, 0.014549101702868938446044921875, -0.109056770801544189453125, -0.12536002695560455322265625, -0.3136048018932342529296875, -0.0576929114758968353271484375, -0.095213629305362701416015625, -0.381803810596466064453125, -0.013920578174293041229248046875, -0.34805691242218017578125, -0.451276838779449462890625, 0.26498973369598388671875, 0.0424479506909847259521484375, -0.119781650602817535400390625, -0.17233289778232574462890625, -0.049802444875240325927734375, 0.18051065504550933837890625, -0.00263745919801294803619384765625, 0.24686093628406524658203125, 0.318854629993438720703125, 0.17912113666534423828125, 0.4787023961544036865234375, 0.2300762236118316650390625, -0.112815745174884796142578125, 0.24055220186710357666015625, 0.13610629737377166748046875, -0.21060188114643096923828125, -0.512079060077667236328125, -1.1748638153076171875, -0.21610780060291290283203125, -0.013825974427163600921630859375, 0.2059543132781982421875, 0.0706875324249267578125, 0.14645063877105712890625, 0.08965052664279937744140625, 0.136644184589385986328125, -0.008042219094932079315185546875, 0.1434411108493804931640625, -0.01147532649338245391845703125, 0.3004569113254547119140625, 0.2924682199954986572265625, 0.4479361474514007568359375, 0.345641911029815673828125, 0.2751113474369049072265625, 0.53401851654052734375, 0.8082888126373291015625, 0.916049659252166748046875, -0.015440617688000202178955078125, -0.2346609532833099365234375, -0.096160598099231719970703125, -0.105503983795642852783203125, 0.04612202942371368408203125, -0.0225692875683307647705078125, 0.0017200410366058349609375, 0.107034265995025634765625, -0.108088336884975433349609375, -0.0983909070491790771484375, 0.2066143453121185302734375, -0.349178850650787353515625, 0.06304763257503509521484375, 0.181057631969451904296875, -0.19856236875057220458984375, -0.03788645565509796142578125, 0.16220672428607940673828125, -0.18208979070186614990234375, 0.007728633470833301544189453125, -0.116483934223651885986328125, 0.1336152553558349609375, -0.040786363184452056884765625, 0.082582585513591766357421875, 0.20584432780742645263671875, 0.2503752410411834716796875, -0.1513531208038330078125, -0.134286582469940185546875, -0.075262583792209625244140625, 0.20876280963420867919921875, -0.0463911108672618865966796875, 0.20442275702953338623046875, 0.121442757546901702880859375, -0.083884157240390777587890625, -0.3735959231853485107421875, -0.881980419158935546875, -1.361972808837890625, -0.0475407540798187255859375, -0.10637931525707244873046875, 0.025846563279628753662109375, 0.14479978382587432861328125, -0.0238633640110492706298828125, -0.02206616289913654327392578125, -0.078272916376590728759765625, -0.31238949298858642578125, -0.22292529046535491943359375, 0.06682644784450531005859375, 0.18466593325138092041015625, 0.35801184177398681640625, 0.455890953540802001953125, 0.1829904019832611083984375, 0.1028244197368621826171875, 0.52497756481170654296875, 0.3194715976715087890625, 0.365366876125335693359375, 0.093667350709438323974609375, 0.3229513466358184814453125, 0.045806825160980224609375, 0.041768841445446014404296875, 0.053141117095947265625, 0.0247613154351711273193359375, 0.086806081235408782958984375, 0.019568122923374176025390625, 0.2524695098400115966796875, 0.20036928355693817138671875, 0.01474248059093952178955078125, -0.081134907901287078857421875, 0.383015334606170654296875, 0.4275433719158172607421875, 0.3435212075710296630859375, 0.2179767191410064697265625, 0.5569055080413818359375, 0.4811829030513763427734375, -0.3238427937030792236328125, -0.0926191806793212890625, 0.00140669266693294048309326171875, 0.13725824654102325439453125, -0.16279876232147216796875, -0.2599743306636810302734375, 0.05244791507720947265625, -0.110046304762363433837890625, -0.21618922054767608642578125, 0.123675309121608734130859375, 0.29627692699432373046875, -0.20216087996959686279296875, -0.060695625841617584228515625, -0.16368894279003143310546875, -0.13749583065509796142578125, -0.00979133881628513336181640625, -0.11222936213016510009765625, 0.006810468621551990509033203125, -0.4396460950374603271484375, -0.3128105700016021728515625, -0.12812469899654388427734375, 0.007346997968852519989013671875, -0.0346048437058925628662109375, -0.092709235846996307373046875, 0.0700249373912811279296875, 0.085021339356899261474609375, 0.00690723955631256103515625, -0.066677160561084747314453125, 0.0059511750005185604095458984375, 0.090988837182521820068359375, -0.0833432972431182861328125, 0.05772721767425537109375, 0.03194813430309295654296875, 0.0259392894804477691650390625, 0.08269937336444854736328125, 0.0499334074556827545166015625, 0.105365216732025146484375, 0.22916747629642486572265625, 0.0516990609467029571533203125, 0.3645842075347900390625, -0.17342452704906463623046875, 0.001146392081864178180694580078125, 0.1251370608806610107421875, 0.08856128156185150146484375, 0.17072622478008270263671875, -0.2768792212009429931640625, -0.2067921161651611328125, -0.011715578846633434295654296875, 0.03033722378313541412353515625, 0.06549213826656341552734375, 0.406390130519866943359375, 0.18683482706546783447265625, 0.3478212654590606689453125, 0.1257862746715545654296875, -0.062875501811504364013671875, -0.1531660258769989013671875, -0.06942832469940185546875, 0.118856646120548248291015625, 0.0007101975497789680957794189453125, 0.1856869161128997802734375, -0.18968005478382110595703125, 0.307909548282623291015625, 0.22440765798091888427734375, 0.0403925962746143341064453125, -0.2972665727138519287109375, 0.045778982341289520263671875, -0.063520886003971099853515625, 0.24677456915378570556640625, -0.18582113087177276611328125, -0.22646279633045196533203125, 0.078435771167278289794921875, -0.05968643724918365478515625, 0.071666933596134185791015625, 0.354469776153564453125, 0.162520945072174072265625, 0.2982424795627593994140625, -0.043136633932590484619140625, 0.3877052962779998779296875, -0.0905335247516632080078125, 0.2950653135776519775390625, 0.1750356853008270263671875, -0.001673413091339170932769775390625, 0.0467638708651065826416015625, 0.103457026183605194091796875, 0.2284734249114990234375, 0.22844229638576507568359375, 0.24225519597530364990234375, 0.383057773113250732421875, -0.15178906917572021484375, -0.826678454875946044921875, -0.087442599236965179443359375, 0.02080477587878704071044921875, -0.08938722312450408935546875, -0.292789638042449951171875, -0.1673820316791534423828125, 0.3080507218837738037109375, 0.23173917829990386962890625, 0.1518613994121551513671875, 0.01632852293550968170166015625, 0.06321819126605987548828125, -0.115679718554019927978515625, 0.1727348268032073974609375, 0.1402373015880584716796875, 0.105214424431324005126953125, -0.086045645177364349365234375, -0.0485632680356502532958984375, -0.08831001818180084228515625, -0.12129046022891998291015625, 0.3255424797534942626953125, 0.5544536113739013671875, 0.377259731292724609375, 0.4343998730182647705078125, 0.50619733333587646484375, 0.45118820667266845703125, 0.17368113994598388671875, 0.2040173113346099853515625, 0.03819088637828826904296875, 0.006414987146854400634765625, 0.515179812908172607421875, 0.284912884235382080078125, 0.17327605187892913818359375, 0.257692992687225341796875, 0.2500034868717193603515625, 0.3138634264469146728515625, 0.08003334701061248779296875, 0.36469542980194091796875, 0.30748081207275390625, 0.255361616611480712890625, 0.05634875595569610595703125, 0.02863607741892337799072265625, 0.27142465114593505859375, -0.02944430150091648101806640625, -0.2630077898502349853515625, -0.2720861136913299560546875, 0.1131128370761871337890625, 0.07385452091693878173828125, 0.117271952331066131591796875, 0.2319453656673431396484375, 0.0005140690482221543788909912109375, 0.14610718190670013427734375, 0.1798665225505828857421875, 0.198247134685516357421875, -0.078371725976467132568359375, 0.1199348866939544677734375, -0.0987695157527923583984375, -0.17473669350147247314453125, -0.105857960879802703857421875, 0.11458609998226165771484375, 0.23085846006870269775390625, 0.114466853439807891845703125, -0.02260908670723438262939453125, 0.109246142208576202392578125, 0.14365158975124359130859375, 0.089586220681667327880859375, 0.053384073078632354736328125, 0.2548680603504180908203125, -0.111496724188327789306640625, 0.16730590164661407470703125, -0.04106862843036651611328125, 0.08483254909515380859375, 0.0571164190769195556640625, 0.2161774337291717529296875, -0.2206747233867645263671875, -0.23777954280376434326171875, -0.16072510182857513427734375, 0.0008796773036010563373565673828125, 0.12940324842929840087890625, -0.02171068824827671051025390625, -0.17916129529476165771484375, -0.08430780470371246337890625, -0.282205760478973388671875, -0.0598010756075382232666015625, -0.087074100971221923828125, -0.058448255062103271484375, -0.2258438766002655029296875, -0.03365381062030792236328125, -0.1439330875873565673828125, -0.4177288711071014404296875, -0.16090779006481170654296875, -0.3477728366851806640625, -0.1879741251468658447265625, -0.0622541606426239013671875, 0.1454179286956787109375, 0.01734652929008007049560546875, 0.108393244445323944091796875, 0.18495295941829681396484375, 0.04129453003406524658203125, 0.15243597328662872314453125, -0.3067575991153717041015625, -0.07229794561862945556640625, 0.17013706266880035400390625, -0.15897810459136962890625, 0.0444330982863903045654296875, -0.3590084016323089599609375, -0.22329430282115936279296875, -0.496508181095123291015625, -0.971145093441009521484375, -1.4458901882171630859375, 0.2915120422840118408203125, 0.0666649043560028076171875, 0.3260662853717803955078125, 0.16108267009258270263671875, 0.06714658439159393310546875, 0.021385289728641510009765625, 0.154124736785888671875, 0.2770538330078125, -0.0294130183756351470947265625, 0.4125575125217437744140625, 0.2855638563632965087890625, 0.3276088237762451171875, 0.50186836719512939453125, 0.245914518833160400390625, 0.4595107138156890869140625, 0.23238067328929901123046875, 0.3541190326213836669921875, 0.3845591247081756591796875, 0.1984226405620574951171875, -0.1393128931522369384765625, 0.024712242186069488525390625, 0.23969332873821258544921875, 0.19158084690570831298828125, 0.1742356717586517333984375, -0.24716961383819580078125, -0.23958177864551544189453125, -0.18507325649261474609375, -0.13565106689929962158203125, -0.3212988376617431640625, -0.118681006133556365966796875, 0.07206527888774871826171875, 0.0559558607637882232666015625, 0.0273401848971843719482421875, -0.24256156384944915771484375, 0.0446554608643054962158203125, -0.077346570789813995361328125, -0.240243434906005859375, -0.3876849114894866943359375, -0.25038015842437744140625, -0.106525920331478118896484375, 0.0278344489634037017822265625, -0.097045652568340301513671875, 0.13622854650020599365234375, 0.054789222776889801025390625, -0.078611038625240325927734375, 0.052678473293781280517578125, 0.2235861122608184814453125, -0.2236465513706207275390625, 0.027520120143890380859375, -0.106446720659732818603515625, -0.0537679158151149749755859375, 0.01855011098086833953857421875, 0.18937613070011138916015625, -0.16313667595386505126953125, 0.171544551849365234375, 0.2279471457004547119140625, 0.2366387844085693359375, 0.106940485537052154541015625, 0.15885119140148162841796875, 0.3037586212158203125, 0.0047361510805785655975341796875, -0.08735953271389007568359375, 0.130426883697509765625, -0.091908417642116546630859375, -0.05066986382007598876953125, -0.042752407491207122802734375, 0.0490605570375919342041015625, 0.3287838399410247802734375, 0.15261630713939666748046875, 0.2186023890972137451171875, 0.133122861385345458984375, 0.21896611154079437255859375, -0.2325532436370849609375, -0.328149020671844482421875, -0.02367200888693332672119140625, 0.0906887948513031005859375, -0.11449702084064483642578125, 0.050594963133335113525390625, 0.2425496578216552734375, -0.015255694277584552764892578125, 0.0933888256549835205078125, 0.117680869996547698974609375, -0.124930270016193389892578125, -0.14461268484592437744140625, -0.1964530646800994873046875, -0.0601918511092662811279296875, -0.134127914905548095703125, 0.100355185568332672119140625, -0.3061835765838623046875, -0.3484404385089874267578125, 0.288884222507476806640625, 0.063010394573211669921875, 0.059091992676258087158203125, 0.118037290871143341064453125, 0.257926762104034423828125, 0.334528863430023193359375, 0.1752762496471405029296875, 0.06812061369419097900390625, 0.24969778954982757568359375, 0.3325445950031280517578125, 0.10273928940296173095703125, 0.090878285467624664306640625, 0.17889006435871124267578125, 0.3492195308208465576171875, 0.3553164303302764892578125, 0.457916438579559326171875, 0.4213314950466156005859375, 0.364502370357513427734375, 0.3219275176525115966796875, 0.4648711681365966796875, 0.3365145623683929443359375, 0.2997291088104248046875, 0.3651593625545501708984375, 0.5696613788604736328125, 0.2742216587066650390625, 0.3041073381900787353515625, 0.119593441486358642578125, 0.415759623050689697265625, 0.24958659708499908447265625, 0.528824329376220703125, 0.23171965777873992919921875, 0.111874260008335113525390625, 0.094021953642368316650390625, 0.117784440517425537109375, 0.063282489776611328125, 0.060057826340198516845703125, -0.21708144247531890869140625, -0.12100161612033843994140625, 0.0954721868038177490234375, -0.23982496559619903564453125, -0.0540647543966770172119140625, -0.04810915887355804443359375, 0.03020752780139446258544921875, 0.0804578959941864013671875, -0.0177367441356182098388671875, -0.01775478385388851165771484375, 0.08333416283130645751953125, 0.17796690762042999267578125, 0.3317665755748748779296875, 0.301076471805572509765625, 0.2465399205684661865234375, 0.46134746074676513671875, 0.02408035099506378173828125, 0.22051338851451873779296875, -0.25233137607574462890625, 0.02756381221115589141845703125, -0.10504065454006195068359375, -0.04116193950176239013671875, -0.13419862091541290283203125, -0.16555793583393096923828125, -0.183641016483306884765625, 0.0249763689935207366943359375, 0.086726211011409759521484375, 0.069955341517925262451171875, -0.0230908133089542388916015625, -0.10550539195537567138671875, -0.048233725130558013916015625, -0.075164102017879486083984375, -0.23657540977001190185546875, -0.08754305541515350341796875, -0.3380959331989288330078125, -0.02761786244809627532958984375, -0.4615536034107208251953125, -0.3912687599658966064453125, -0.22764934599399566650390625, -0.35094487667083740234375, -0.23715765774250030517578125, 0.176801860332489013671875, -0.3228197991847991943359375, -0.2106458246707916259765625, -0.19659297168254852294921875, -0.16668522357940673828125, -0.12280561029911041259765625, -0.22456128895282745361328125, -0.3084944188594818115234375, -0.283094942569732666015625, -0.3043502271175384521484375, -0.3212356269359588623046875, -0.530588328838348388671875, -0.2611952126026153564453125, 0.1984358131885528564453125, 0.098140418529510498046875, 0.08045101165771484375, 0.2193162441253662109375, 0.04245899617671966552734375, 0.081440813839435577392578125, -0.072741977870464324951171875, 0.3527490198612213134765625, 0.20785339176654815673828125, 0.14534042775630950927734375, 0.19849558174610137939453125, 0.2660336196422576904296875, 0.30654847621917724609375, 0.40111434459686279296875, -0.0374542884528636932373046875, 0.172004044055938720703125, 0.54157102108001708984375, 0.18926049768924713134765625, -0.3296275436878204345703125, -0.0064532435499131679534912109375, 0.0561880506575107574462890625, -0.000122871759231202304363250732421875, 0.3372041881084442138671875, 0.087776958942413330078125, 0.09675736725330352783203125, -0.0512234978377819061279296875, 0.2969181239604949951171875, 0.01160701178014278411865234375, -0.014620616100728511810302734375, 0.2844194471836090087890625, -0.0558953993022441864013671875, -0.0564096160233020782470703125, -0.105163514614105224609375, -0.0587768144905567169189453125, 0.03400027751922607421875, 0.24079859256744384765625, 0.11926853656768798828125, 0.218683302402496337890625, 0.118836499750614166259765625, 0.1933303177356719970703125, 0.0548435151576995849609375, 0.28716003894805908203125, 0.066055871546268463134765625, 0.366215646266937255859375, 0.24990737438201904296875, 0.47928714752197265625, 0.3611191213130950927734375, 0.337827265262603759765625, 0.336216866970062255859375, 0.375915706157684326171875, 0.640182018280029296875, 0.4578506648540496826171875, 0.250200569629669189453125, 0.51231098175048828125, 0.14629924297332763671875, 0.2064920961856842041015625, 0.06408582627773284912109375, -0.1602804660797119140625, 0.15198786556720733642578125, 0.0008534020162187516689300537109375, -0.0143425278365612030029296875, 0.3058394491672515869140625, 0.0593759119510650634765625, 0.1146683990955352783203125, 0.1037878692150115966796875, 0.2547321021556854248046875, -0.397621572017669677734375, -0.08575569093227386474609375, -0.2695226371288299560546875, -0.3840451538562774658203125, -0.2756727635860443115234375, -0.4913830459117889404296875, 0.17906109988689422607421875, 0.0254929251968860626220703125, -0.2523321211338043212890625, -0.0299842767417430877685546875, 0.0444828160107135772705078125, 0.0487465076148509979248046875, -0.2142474353313446044921875, 0.0509535558521747589111328125, -0.093341715633869171142578125, -0.0283247530460357666015625, -0.102365314960479736328125, -0.08838097751140594482421875, 0.2111487090587615966796875, -0.036466658115386962890625, -0.04937447607517242431640625, 0.1801376640796661376953125, -0.20595173537731170654296875, -0.11059050261974334716796875, 0.97353184223175048828125, 0.664871990680694580078125, 0.9913804531097412109375, 0.506369888782501220703125, 0.516070663928985595703125, 0.526242315769195556640625, 0.678032398223876953125, 0.442569673061370849609375, 0.637281894683837890625, 0.4729440510272979736328125, 0.881759226322174072265625, 0.685493409633636474609375, 0.857712686061859130859375, 0.53237211704254150390625, 0.771649062633514404296875, 0.3179492056369781494140625, 0.60828745365142822265625, 0.896569907665252685546875, -0.542369842529296875, -0.529779493808746337890625, -0.3088271319866180419921875, -0.333325684070587158203125, -0.493049085140228271484375, -0.472352504730224609375, -0.1487490236759185791015625, -0.538664877414703369140625, -0.311159312725067138671875, -0.51916682720184326171875, -0.45428335666656494140625, -0.46167933940887451171875, -0.421626031398773193359375, -0.4167622029781341552734375, -0.5373992919921875, -0.619625091552734375, -0.4349074065685272216796875, -0.6676070690155029296875, 0.09793318808078765869140625, -0.0060985437594354152679443359375, -0.06710968911647796630859375, -0.147344112396240234375, -0.0001061422590282745659351348876953125, 0.0439610779285430908203125, -0.00139536871574819087982177734375, 0.0336147435009479522705078125, 0.0328170843422412872314453125, -0.155764520168304443359375, 0.073477812111377716064453125, -0.17734886705875396728515625, 0.02483871765434741973876953125, 0.15768678486347198486328125, 0.1492137014865875244140625, -0.2108307778835296630859375, -0.0417959503829479217529296875, 0.070737712085247039794921875, 0.4621544182300567626953125, 0.39280140399932861328125, 0.24300968647003173828125, 0.2717503011226654052734375, 0.155008494853973388671875, 0.19089536368846893310546875, 0.2746070921421051025390625, 0.16067159175872802734375, 0.0450883470475673675537109375, 0.0568187534809112548828125, 0.18986634910106658935546875, 0.434856593608856201171875, 0.1977915465831756591796875, 0.390134274959564208984375, 0.082368791103363037109375, 0.233536541461944580078125, 0.3167326152324676513671875, 0.3077242374420166015625, -0.319605171680450439453125, 0.074986480176448822021484375, -0.041028462350368499755859375, 0.21711878478527069091796875, -0.04475574195384979248046875, -0.067165292799472808837890625, -0.077332653105258941650390625, 0.0286730267107486724853515625, 0.086511470377445220947265625, -0.00751754082739353179931640625, -0.112703002989292144775390625, 0.101176761090755462646484375, 0.09047496318817138671875, -0.21806742250919342041015625, -0.093514643609523773193359375, -0.102720685303211212158203125, 0.15308536589145660400390625, 0.23516492545604705810546875, 0.329880237579345703125, 0.076291777193546295166015625, 0.13861167430877685546875, 0.1529289186000823974609375, 0.40188395977020263671875, 0.3652417957782745361328125, 0.1812461316585540771484375, 0.62671148777008056640625, 0.45640003681182861328125, 0.505082607269287109375, 0.556704223155975341796875, 0.14661304652690887451171875, 0.217386782169342041015625, 0.5036013126373291015625, 0.58792269229888916015625, 0.4003446400165557861328125, 0.3728230893611907958984375, 0.2702406346797943115234375, -0.11933089792728424072265625, -0.20402012765407562255859375, -0.06440038979053497314453125, -0.006341165862977504730224609375, -0.1295222342014312744140625, -0.0330471061170101165771484375, -0.01393863745033740997314453125, 0.061127655208110809326171875, -0.14504443109035491943359375, -0.080314643681049346923828125, -0.0901664793491363525390625, 0.035416997969150543212890625, 0.01039844937622547149658203125, -0.10165633261203765869140625, -0.081491291522979736328125, 0.090011663734912872314453125, -0.2560272514820098876953125, -0.14584372937679290771484375, -0.10738246142864227294921875, 0.112076289951801300048828125, 0.254447042942047119140625, -0.019310854375362396240234375, 0.2874448001384735107421875, 0.1881383955478668212890625, -0.06802277266979217529296875, 0.1964581012725830078125, 0.2206588685512542724609375, 0.0058324900455772876739501953125, -0.0211978964507579803466796875, 0.182266294956207275390625, 0.2807010710239410400390625, 0.18613009154796600341796875, 0.231783092021942138671875, 0.3733432590961456298828125, 0.2731777727603912353515625, 0.3979597985744476318359375, -0.02136227674782276153564453125, -0.02827037684619426727294921875, -0.02780201844871044158935546875, 0.08171291649341583251953125, -0.307809054851531982421875, 0.0474964044988155364990234375, -0.106429614126682281494140625, -0.07190252840518951416015625, 0.23874531686305999755859375, 0.259232461452484130859375, 0.067778207361698150634765625, 0.14577710628509521484375, 0.1385083496570587158203125, -0.0060661039315164089202880859375, -0.0478661470115184783935546875, -0.2228124439716339111328125, -0.037217535078525543212890625, 0.127470552921295166015625, 0.158319950103759765625, 0.2500573694705963134765625, 0.20649921894073486328125, 0.2823604643344879150390625, 0.178348839282989501953125, 0.0576135553419589996337890625, 0.123461343348026275634765625, 0.2840382158756256103515625, 0.11704556643962860107421875, -0.06762517988681793212890625, 0.16996924579143524169921875, 0.0209450908005237579345703125, 0.08799360692501068115234375, 0.077596850693225860595703125, 0.2149772346019744873046875, 0.1220351755619049072265625, -0.008955220691859722137451171875, -0.112424723803997039794921875, 0.0512206852436065673828125, 0.19015739858150482177734375, 0.354587256908416748046875, -0.07364894449710845947265625, -0.0008966813911683857440948486328125, 0.109621942043304443359375, 0.065213762223720550537109375, -0.13125939667224884033203125, -0.15875272452831268310546875, -0.199855506420135498046875, -0.000851714168675243854522705078125, 0.02634300850331783294677734375, 0.02330015599727630615234375, -0.118844382464885711669921875, -0.02883596904575824737548828125, 0.15260778367519378662109375, -0.0558296702802181243896484375, -0.42697906494140625, -0.0764120519161224365234375, -0.2588427364826202392578125, -0.0875839889049530029296875, -0.05840940773487091064453125, -0.059596933424472808837890625, 0.101824261248111724853515625, 0.00038881812361069023609161376953125, -0.0205714963376522064208984375, 0.24083013832569122314453125, -0.116325877606868743896484375, 0.047931782901287078857421875, 0.116044022142887115478515625, 0.08916963636875152587890625, 0.045738399028778076171875, -0.13568915426731109619140625, 0.0407450497150421142578125, -0.123582713305950164794921875, 0.2631590664386749267578125, 0.13035823404788970947265625, -0.0584928803145885467529296875, 0.17649190127849578857421875, 0.3215384781360626220703125, 0.05242104828357696533203125, -0.0531079657375812530517578125, 0.2634876072406768798828125, 0.3089617788791656494140625, 0.2545864880084991455078125, 0.175921261310577392578125, 0.4132405221462249755859375, 0.19156897068023681640625, 0.3832627832889556884765625, 0.3385229408740997314453125, -0.07041816413402557373046875, 0.24438069760799407958984375, -0.0360871851444244384765625, -0.2926451861858367919921875, -0.22178943455219268798828125, -0.07022659480571746826171875, 0.099311582744121551513671875, -0.08072860538959503173828125, 0.260020196437835693359375, 0.02840659581124782562255859375, 0.227776110172271728515625, 0.346904695034027099609375, 0.312928974628448486328125, 0.0013129017315804958343505859375, 0.2670054733753204345703125, 0.4161377847194671630859375, 0.4733432233333587646484375, 0.3595943748950958251953125, 0.2525394260883331298828125, 0.5724604129791259765625, 0.507657587528228759765625, 0.4970603287220001220703125, 0.23439405858516693115234375, 0.12016232311725616455078125, -0.008504544384777545928955078125, 0.01111033372581005096435546875, 0.4060309231281280517578125, 0.3016780316829681396484375, 0.4883177578449249267578125, 0.22670103609561920166015625, 0.4718426167964935302734375, 0.24223522841930389404296875, 0.1852955520153045654296875, 0.4611323177814483642578125, 0.20385564863681793212890625, 0.2601624429225921630859375, 0.2084467113018035888671875, 0.3215468227863311767578125, 0.400793612003326416015625, 0.1270236968994140625, -0.24411569535732269287109375, 0.001465289504267275333404541015625, -0.17273627221584320068359375, -0.2522622048854827880859375, -0.3000268638134002685546875, -0.10145859420299530029296875, 0.105954594910144805908203125, -0.19836939871311187744140625, -0.1316268444061279296875, -0.22293446958065032958984375, -0.01600521244108676910400390625, -0.014613983221352100372314453125, -0.16056634485721588134765625, -0.212188661098480224609375, 0.086457468569278717041015625, 0.087882719933986663818359375, -0.26872575283050537109375, -0.172857582569122314453125, 0.117506377398967742919921875, 0.242925584316253662109375, 0.142045199871063232421875, 0.19797374308109283447265625, 0.0892690718173980712890625, 0.3138141930103302001953125, 0.21103344857692718505859375, 0.21483336389064788818359375, 0.0125485993921756744384765625, 0.2769281566143035888671875, -0.074696131050586700439453125, -0.054028473794460296630859375, 0.17164061963558197021484375, -0.24561972916126251220703125, 0.091608703136444091796875, 0.3157062828540802001953125, 0.3006903231143951416015625, 0.142761886119842529296875, 0.08727870881557464599609375, 0.0788726806640625, 0.256606876850128173828125, 0.1254988014698028564453125, 0.1634494960308074951171875, 0.3354537785053253173828125, -0.077863328158855438232421875, 0.0097450427711009979248046875, 0.22611272335052490234375, 0.3471457064151763916015625, 0.261507928371429443359375, -0.089064776897430419921875, 0.313054859638214111328125, 0.1863803565502166748046875, 0.2334549427032470703125, 0.1672217845916748046875, 0.111619852483272552490234375, 0.067550949752330780029296875, 0.2006543576717376708984375, 0.16602098941802978515625, 0.1381956040859222412109375, -0.06185491383075714111328125, 0.045723982155323028564453125, -0.102427773177623748779296875, 0.22539995610713958740234375, 0.22620548307895660400390625, 0.006297610700130462646484375, 0.106609441339969635009765625, 0.1441152095794677734375, 0.1966851651668548583984375, 0.36650002002716064453125, 0.3171266615390777587890625, 0.02574784122407436370849609375, 0.039494335651397705078125, 0.0213780738413333892822265625, -0.0734430253505706787109375, -0.042835056781768798828125, 0.276069700717926025390625, 0.2724071443080902099609375, 0.116364933550357818603515625, 0.04570944607257843017578125, 0.16411896049976348876953125, -0.19247758388519287109375, -0.0580272264778614044189453125, 0.09794293344020843505859375, -0.2511834800243377685546875, 0.035718388855457305908203125, 0.0198352523148059844970703125, 0.01711322925984859466552734375, 0.0508967079222202301025390625, 0.09066341817378997802734375, 0.1385360658168792724609375, 0.17451281845569610595703125, 0.249538123607635498046875, 0.0193521715700626373291015625, -0.06538112461566925048828125, 0.115960180759429931640625, 0.0417495183646678924560546875, 0.25876724720001220703125, -0.069479756057262420654296875, 0.143318951129913330078125, -0.05483601987361907958984375, -0.13604259490966796875, -0.10731066763401031494140625, 0.015146486461162567138671875, -0.1833574473857879638671875, -0.27952945232391357421875, -0.235990583896636962890625, -0.15320689976215362548828125, -0.197675406932830810546875, -0.17752067744731903076171875, -0.516087949275970458984375, 0.2251539528369903564453125, 0.01833239756524562835693359375, 0.3048497736454010009765625, 0.34075748920440673828125, 0.0571901015937328338623046875, 0.0534964464604854583740234375, 0.077683039009571075439453125, 0.15075123310089111328125, 0.0676806271076202392578125, -0.097479321062564849853515625, 0.1535960733890533447265625, 0.13133917748928070068359375, 0.3064809739589691162109375, 0.302337944507598876953125, 0.3294183909893035888671875, -0.0070661627687513828277587890625, 0.1515452861785888671875, 0.14365549385547637939453125, 0.041869066655635833740234375, 0.0561433993279933929443359375, -0.011900722049176692962646484375, -0.14583219587802886962890625, -0.01952124945819377899169921875, -0.03574383258819580078125, 0.02749746106564998626708984375, -0.0652295053005218505859375, -0.07315720617771148681640625, 0.111251480877399444580078125, -0.038109786808490753173828125, -0.239991486072540283203125, -0.13189668953418731689453125, 0.15778827667236328125, -0.136637210845947265625, -0.001850904780440032482147216796875, -0.11934511363506317138671875, 0.006350531242787837982177734375, -0.1561814844608306884765625, -0.124993801116943359375, -0.3898597657680511474609375, -0.3954787552356719970703125, 0.0387843437492847442626953125, -0.411211788654327392578125, -0.0561247803270816802978515625, -0.35100853443145751953125, -0.3326587677001953125, -0.357128620147705078125, -0.0040945573709905147552490234375, -0.296575069427490234375, 0.07088379561901092529296875, 0.14119182527065277099609375, -0.0548639185726642608642578125, 0.2339068353176116943359375, -0.12885940074920654296875, -0.545627534389495849609375, 0.12402248382568359375, -0.05972145497798919677734375, -0.1958573758602142333984375, 0.0565249957144260406494140625, 0.07765352725982666015625, -0.01676810346543788909912109375, 0.010132615454494953155517578125, 0.074864275753498077392578125, -0.082178413867950439453125, -0.1421916782855987548828125, -0.0545537360012531280517578125, -0.13689894974231719970703125, -0.13088481128215789794921875, 0.117586173117160797119140625, -0.0468399859964847564697265625, -0.485805094242095947265625, -0.2996256053447723388671875, -0.927813351154327392578125, -0.647765100002288818359375, -0.66533863544464111328125, -0.6134040355682373046875, -0.435603618621826171875, -0.610664665699005126953125, -0.436192214488983154296875, -0.587592422962188720703125, -0.793907701969146728515625, -0.3160956203937530517578125, -0.69290316104888916015625, -0.4444700181484222412109375, -0.262353599071502685546875, -0.35335862636566162109375, -0.590937674045562744140625, -0.110803999006748199462890625, -0.4563834369182586669921875, -0.4940494596958160400390625, -0.0542731322348117828369140625, 0.2828335464000701904296875, 0.13484521210193634033203125, -0.086027748882770538330078125, 0.070282511413097381591796875, 0.41425311565399169921875, 0.15032921731472015380859375, -0.00375349004752933979034423828125, -0.01604223810136318206787109375, 0.03740163147449493408203125, 0.14877985417842864990234375, 0.33324325084686279296875, 0.23387770354747772216796875, 0.16554708778858184814453125, 0.11368544399738311767578125, 0.4857156574726104736328125, 0.3256385326385498046875, 0.0877560079097747802734375, 0.02493708021938800811767578125, 0.15102811157703399658203125, -0.2930366992950439453125, 0.080089442431926727294921875, -0.149392068386077880859375, -0.115621693432331085205078125, -0.13706476986408233642578125, 0.24402566254138946533203125, 0.19938535988330841064453125, -0.20900277793407440185546875, -0.12763430178165435791015625, 0.3547495901584625244140625, 0.042323164641857147216796875, 0.0175156481564044952392578125, -0.0148356668651103973388671875, -0.13120414316654205322265625, -0.203542232513427734375, -0.235831320285797119140625, -0.187394440174102783203125, -0.21121610701084136962890625, 0.27050268650054931640625, -0.02760151587426662445068359375, 0.124636732041835784912109375, 0.3230961859226226806640625, 0.130256712436676025390625, -0.070586316287517547607421875, 0.096725143492221832275390625, 0.16795623302459716796875, 0.0306428708136081695556640625, 0.0553428046405315399169921875, 0.3336841762065887451171875, 0.1108442246913909912109375, 0.08631800115108489990234375, 0.2655019462108612060546875, 0.0308288000524044036865234375, 0.082274980843067169189453125, -0.23553101718425750732421875, 0.0365850627422332763671875, 0.0226064622402191162109375, -0.143390238285064697265625, -0.2565864622592926025390625, -0.24649731814861297607421875, -0.2661705315113067626953125, -0.09764616191387176513671875, 0.180409610271453857421875, 0.0376889295876026153564453125, -0.18507988750934600830078125, -0.104698173701763153076171875, 0.13197349011898040771484375, 0.03080800361931324005126953125, 0.21552811563014984130859375, 0.16388462483882904052734375, -0.28949069976806640625, -0.3802829086780548095703125, -0.7064325809478759765625, 0.41372776031494140625, -0.15723502635955810546875, -0.13926111161708831787109375, 0.1627422273159027099609375, 0.204719007015228271484375, -0.079973585903644561767578125, 0.0356694944202899932861328125, 0.1798198521137237548828125, -0.1142726838588714599609375, 0.0554011501371860504150390625, -0.02306684665381908416748046875, 0.204044282436370849609375, 0.011999954469501972198486328125, 0.15220718085765838623046875, 0.115446679294109344482421875, -0.104029603302478790283203125, -0.570983946323394775390625, -1.188373565673828125, 0.0605348013341426849365234375, -0.15324385464191436767578125, 0.02147836983203887939453125, 0.066568911075592041015625, 0.012904719449579715728759765625, -0.342655241489410400390625, 0.19458676874637603759765625, -0.06913651525974273681640625, 0.014912233687937259674072265625, 0.0528870038688182830810546875, -0.0020035146735608577728271484375, -0.1286427080631256103515625, 0.118018396198749542236328125, -0.23380267620086669921875, 0.163253247737884521484375, 0.13647900521755218505859375, 0.418367803096771240234375, 0.4633658230304718017578125, -0.45227158069610595703125, -0.03589726984500885009765625, -0.3662498891353607177734375, 0.1463755071163177490234375, 0.022298835217952728271484375, 0.02576683275401592254638671875, -0.02582043595612049102783203125, 0.0406322069466114044189453125, -0.24462987482547760009765625, -0.041495941579341888427734375, 0.04474444687366485595703125, 0.0552376843988895416259765625, -0.142877757549285888671875, -0.2290482223033905029296875, -0.448989689350128173828125, -0.02705162949860095977783203125, -0.05740009248256683349609375, -0.587894618511199951171875, -0.0587749741971492767333984375, 0.0592040009796619415283203125, 0.260558903217315673828125, -0.26154887676239013671875, 0.077083446085453033447265625, 0.401150524616241455078125, 0.14114971458911895751953125, 0.1459954082965850830078125, -0.10944409668445587158203125, -0.1374748051166534423828125, 0.12503840029239654541015625, 0.051095671951770782470703125, -0.041230522096157073974609375, -0.01678386144340038299560546875, -0.161523401737213134765625, -0.4786211550235748291015625, -0.1693502366542816162109375, -0.769370019435882568359375, 0.2848806679248809814453125, 0.334645330905914306640625, 0.1668839156627655029296875, 0.198719918727874755859375, 0.1633794009685516357421875, 0.055289544165134429931640625, 0.1859345138072967529296875, 0.1011235713958740234375, 0.056378640234470367431640625, 0.02607716619968414306640625, 0.254069745540618896484375, -0.00255612540058791637420654296875, 0.10874330997467041015625, -0.02633590437471866607666015625, 0.211972415447235107421875, 0.0572552271187305450439453125, -0.007985659874975681304931640625, 0.383760035037994384765625, 0.011450954712927341461181640625, 0.041188932955265045166015625, 0.1257258951663970947265625, 0.24618192017078399658203125, 0.0068107754923403263092041015625, 0.18809367716312408447265625, 0.1026313304901123046875, -0.067226924002170562744140625, -0.08949001133441925048828125, 0.2615509033203125, 0.0799987614154815673828125, 0.20516280829906463623046875, 0.36100089550018310546875, -0.0460926108062267303466796875, -0.0366606600582599639892578125, 0.291692674160003662109375, -0.11296458542346954345703125, -0.1929533779621124267578125, 0.059700764715671539306640625, -0.24538020789623260498046875, 0.4322840273380279541015625, 0.23813746869564056396484375, 0.2061893939971923828125, 0.087535597383975982666015625, 0.103816114366054534912109375, 0.3429416716098785400390625, -0.075823247432708740234375, -0.14148275554180145263671875, -0.0250438936054706573486328125, 0.348941862583160400390625, 0.2703923881053924560546875, 0.17023861408233642578125, -0.2064830362796783447265625, 0.12925843894481658935546875, -0.293466269969940185546875, -0.255977094173431396484375, -0.41472089290618896484375, -0.2911222279071807861328125, -0.0543122105300426483154296875, -0.009995992295444011688232421875, -0.22449648380279541015625, -0.078573174774646759033203125, -0.35445678234100341796875, -0.063723571598529815673828125, 0.0661445558071136474609375, -0.21941785514354705810546875, -0.385116398334503173828125, -0.24544672667980194091796875, -0.087837554514408111572265625, -0.1104008257389068603515625, -0.03603589534759521484375, 0.1995266377925872802734375, -0.0587846003472805023193359375, -0.19928409159183502197265625, 0.1326783597469329833984375, -0.02515000663697719573974609375, 0.3960606157779693603515625, -0.0587703995406627655029296875, 0.3048625886440277099609375, 0.3361329734325408935546875, 0.149089813232421875, 0.5063121318817138671875, 0.1464705169200897216796875, 0.293174564838409423828125, 0.0595311634242534637451171875, 0.11710597574710845947265625, 0.0588283240795135498046875, 0.500391066074371337890625, 0.4015395641326904296875, 0.2594268620014190673828125, 0.1288456618785858154296875, 0.15207158029079437255859375, -0.21631824970245361328125, 0.064686305820941925048828125, -0.02420310489833354949951171875, -0.2686112225055694580078125, 0.20488993823528289794921875, -0.21455387771129608154296875, -0.097453795373439788818359375, 0.0409201942384243011474609375, -0.050404332578182220458984375, -0.124273918569087982177734375, -0.18722091615200042724609375, 0.1004581153392791748046875, -0.090559832751750946044921875, -0.061498381197452545166015625, -0.418767273426055908203125, -0.2988794744014739990234375, -0.2903610765933990478515625, -0.235837280750274658203125, 0.289576470851898193359375, 0.24085135757923126220703125, -0.0820864737033843994140625, -0.0472588129341602325439453125, 0.13975608348846435546875, 0.443817138671875, 0.16902498900890350341796875, 0.2907730042934417724609375, 0.01587381400167942047119140625, 0.385428130626678466796875, 0.489514291286468505859375, -0.045250274240970611572265625, 0.1270146667957305908203125, -0.097260259091854095458984375, -0.171799600124359130859375, -0.0436971820890903472900390625, -0.713106215000152587890625, -0.947888851165771484375, -0.02653393335640430450439453125, -0.0429261028766632080078125, 0.4552615582942962646484375, -0.01865688525140285491943359375, 0.18738372623920440673828125, 0.34038436412811279296875, 0.15988840162754058837890625, -0.048051871359348297119140625, -0.1565218865871429443359375, 0.2588643729686737060546875, 0.207588255405426025390625, 0.3322102725505828857421875, 0.304478943347930908203125, -0.06575520336627960205078125, 0.071675457060337066650390625, 0.2159597873687744140625, -0.2435026466846466064453125, 0.0182400085031986236572265625, -0.17601813375949859619140625, -0.694297611713409423828125, -0.09190855920314788818359375, -0.073303602635860443115234375, 0.06712536513805389404296875, 0.24822144210338592529296875, 0.3279738128185272216796875, 0.001893963548354804515838623046875, 0.248877584934234619140625, 0.05895547568798065185546875, 0.3741389214992523193359375, 0.174944460391998291015625, 0.234747111797332763671875, -0.0497000329196453094482421875, -0.02810155414044857025146484375, -0.17332024872303009033203125, 0.1620451509952545166015625, 0.0160785950720310211181640625, -0.64986598491668701171875, -0.4970672130584716796875, -0.10090844333171844482421875, -0.19874976575374603271484375, -0.115551471710205078125, -0.466544806957244873046875, -0.009542419575154781341552734375, -0.202457606792449951171875, -0.264945089817047119140625, -0.22353446483612060546875, -0.044116757810115814208984375, -0.20360934734344482421875, -0.2574941813945770263671875, -0.16620500385761260986328125, 0.1252311766147613525390625, -0.45614564418792724609375, -0.638582289218902587890625, -1.082045078277587890625, -0.10014967620372772216796875, 0.13333024084568023681640625, 0.20919556915760040283203125, 0.306706845760345458984375, 0.20898665487766265869140625, 0.076913453638553619384765625, 0.23021535575389862060546875, -0.0221035368740558624267578125, -0.115784518420696258544921875, 0.2955582439899444580078125, 0.08068931102752685546875, 0.381744205951690673828125, -0.052075169980525970458984375, 0.3844190537929534912109375, -0.2743003368377685546875, 0.1046570241451263427734375, 0.2010748684406280517578125, 0.03024976886808872222900390625, -0.1946249902248382568359375, 0.191357135772705078125, -0.22793461382389068603515625, 0.2502860128879547119140625, 0.0938470065593719482421875, 0.3770655691623687744140625, 0.1257218420505523681640625, 0.34034907817840576171875, -0.03055371530354022979736328125, 0.0148106552660465240478515625, 0.14073850214481353759765625, -0.084923617541790008544921875, 0.117340348660945892333984375, 0.1582403481006622314453125, 0.446312129497528076171875, 0.42956101894378662109375, 0.09616832435131072998046875, -0.185804188251495361328125, 0.080844528973102569580078125, 0.213940143585205078125, -0.1669335663318634033203125, 0.3714389503002166748046875, 0.21641957759857177734375, 0.2473231256008148193359375, 0.13726253807544708251953125, -0.15714849531650543212890625, 0.03946261107921600341796875, -0.11073990166187286376953125, 0.1280739605426788330078125, 0.20872421562671661376953125, -0.15417303144931793212890625, 0.011734149418771266937255859375, -0.097256831824779510498046875, -0.081695385277271270751953125, -0.3630529344081878662109375, -0.715341866016387939453125, 0.0001858134637586772441864013671875, 0.1966102123260498046875, 0.3360202014446258544921875, 0.279723107814788818359375, -0.038343526422977447509765625, -0.081443153321743011474609375, 0.070634283125400543212890625, 0.16319073736667633056640625, -0.083386309444904327392578125, 0.363708972930908203125, 0.2675386369228363037109375, 0.2011616528034210205078125, -0.13375233113765716552734375, 0.2078672349452972412109375, -0.3307261168956756591796875, -0.091615162789821624755859375, 0.113731049001216888427734375, 0.12191592156887054443359375, -0.531754434108734130859375, -0.4324464499950408935546875, -0.55716800689697265625, -0.2602621018886566162109375, -0.078326992690563201904296875, -0.1949589550495147705078125, -0.293167173862457275390625, -0.15059216320514678955078125, 0.1701224148273468017578125, 0.22376902401447296142578125, -0.21135686337947845458984375, -0.170626938343048095703125, -0.3925231993198394775390625, 0.0083614774048328399658203125, -0.7168667316436767578125, -0.3557908236980438232421875, -0.781391561031341552734375, -1.103038311004638671875, -0.4601008594036102294921875, -0.067638911306858062744140625, -0.38820922374725341796875, -0.2010478079319000244140625, 0.059093080461025238037109375, -0.11711050570011138916015625, -0.011404213495552539825439453125, -0.2589957416057586669921875, -0.0526377521455287933349609375, -0.1881550252437591552734375, -0.008202494122087955474853515625, -0.2785613238811492919921875, -0.208659827709197998046875, 0.112089104950428009033203125, -0.16591227054595947265625, 0.15447127819061279296875, 0.101835303008556365966796875, 0.15697191655635833740234375, -0.22358267009258270263671875, 0.170473992824554443359375, 0.02197088301181793212890625, -0.080435812473297119140625, 0.095379658043384552001953125, 0.095213659107685089111328125, 0.119031913578510284423828125, 0.07264983654022216796875, 0.385220944881439208984375, 0.15992261469364166259765625, 0.294460356235504150390625, 0.305741369724273681640625, 0.06624619662761688232421875, 0.121289320290088653564453125, 0.0483027398586273193359375, 0.0645522177219390869140625, -0.180119335651397705078125, -0.0489822216331958770751953125, -0.687818944454193115234375, -0.2806570827960968017578125, 0.033348955214023590087890625, -0.2976616919040679931640625, -0.012891709804534912109375, -0.16371382772922515869140625, -0.15229474008083343505859375, -0.0587339736521244049072265625, -0.0486854054033756256103515625, 0.1399010717868804931640625, -0.18804602324962615966796875, 0.2097995579242706298828125, -0.24497519433498382568359375, 0.12196807563304901123046875, -0.095591209828853607177734375, -0.5064346790313720703125, -0.5458812713623046875, -0.435144722461700439453125, 0.503028690814971923828125, 0.882633686065673828125, 0.942245423793792724609375, 0.50508940219879150390625, 0.54363191127777099609375, 0.36016142368316650390625, 0.4835450649261474609375, 0.7103478908538818359375, 0.669354975223541259765625, 0.88310253620147705078125, 0.67806231975555419921875, 0.8364827632904052734375, 0.4761640727519989013671875, 0.509672820568084716796875, 0.20624832808971405029296875, 0.34819209575653076171875, 0.42492425441741943359375, 0.5474832057952880859375, 0.3986098468303680419921875, 0.22780485451221466064453125, 0.3408489227294921875, 0.15601970255374908447265625, 0.302932202816009521484375, 0.33583199977874755859375, 0.092876292765140533447265625, 0.704609930515289306640625, 0.8317430019378662109375, 0.635596573352813720703125, 0.886871814727783203125, 0.9665813446044921875, 1.07254755496978759765625, 1.3941395282745361328125, 1.08023893833160400390625, 1.09698259830474853515625, 1.25991153717041015625, 1.66265165805816650390625, -0.078101851046085357666015625, -0.12557934224605560302734375, 0.1677471697330474853515625, -0.2679307758808135986328125, -0.032374151051044464111328125, -0.15504847466945648193359375, -0.0253999717533588409423828125, -0.099349685013294219970703125, -0.03738076984882354736328125, 0.0614758990705013275146484375, 0.22051404416561126708984375, 0.17458705604076385498046875, 0.16325773298740386962890625, 0.14859955012798309326171875, 0.3664233386516571044921875, 0.08982025086879730224609375, 0.00302511616609990596771240234375, -0.1450702250003814697265625, 0.14058125019073486328125, 0.2063353359699249267578125, -0.02612881362438201904296875, -0.19655601680278778076171875, 0.052896134555339813232421875, -0.16548420488834381103515625, 0.102457694709300994873046875, 0.17450533807277679443359375, -0.067944563925266265869140625, -0.3201553523540496826171875, -0.1906830370426177978515625, -0.2674947082996368408203125, -0.04329551756381988525390625, 0.187465965747833251953125, 0.044970430433750152587890625, -0.09670211374759674072265625, 0.20556323230266571044921875, 0.021842204034328460693359375, 0.4612491428852081298828125, 0.476037204265594482421875, 0.4981229305267333984375, 0.217183649539947509765625, 0.21654175221920013427734375, 0.21792094409465789794921875, 0.07155692577362060546875, -0.02684940956532955169677734375, 0.21259342133998870849609375, 0.0463187955319881439208984375, 0.4232681095600128173828125, -0.077454470098018646240234375, 0.3539142906665802001953125, 0.1322248876094818115234375, 0.417705237865447998046875, 0.4013516008853912353515625, 0.4323602020740509033203125, 0.3100807666778564453125, -0.082406260073184967041015625, -0.085194997489452362060546875, -0.16471226513385772705078125, -0.2800530493259429931640625, 0.27445995807647705078125, -0.3877207338809967041015625, 0.01989188231527805328369140625, -0.2602333128452301025390625, 0.07436741888523101806640625, -0.22283540666103363037109375, -0.0302812494337558746337890625, -0.20104198157787322998046875, 0.13449124991893768310546875, 0.3326183259487152099609375, 0.005309519357979297637939453125, -0.02541538141667842864990234375, 0.446377217769622802734375, 0.1396575868129730224609375, 0.3398574888706207275390625, -0.1458870470523834228515625, -0.046889372169971466064453125, 0.1360682547092437744140625, 0.1986465752124786376953125, 0.163285732269287109375, 0.516013324260711669921875, 0.181711137294769287109375, 0.454381167888641357421875, 0.554464995861053466796875, 0.722602665424346923828125, 0.6980812549591064453125, 0.4392000138759613037109375, 0.75469386577606201171875, 1.11668694019317626953125, 0.9793186187744140625, 1.15141427516937255859375, 1.235100269317626953125, 0.08972315490245819091796875, -0.092129044234752655029296875, -0.098167479038238525390625, -0.0821450650691986083984375, -0.20612992346286773681640625, -0.007761974819004535675048828125, 0.10220825672149658203125, 0.17385368049144744873046875, 0.013552616350352764129638671875, 0.11059333384037017822265625, 0.10678453743457794189453125, 0.19159089028835296630859375, 0.034148395061492919921875, 0.22969000041484832763671875, 0.503189742565155029296875, 0.1794381439685821533203125, -0.076385416090488433837890625, -0.06094776093959808349609375, -0.09818436205387115478515625, 0.2546735107898712158203125, -0.08244688808917999267578125, -0.2147260606288909912109375, -0.02502307482063770294189453125, -0.3198444843292236328125, -0.361162006855010986328125, 0.1943610608577728271484375, -0.012630070559680461883544921875, 0.222999870777130126953125, -0.03032038174569606781005859375, 0.376275479793548583984375, 0.120806299149990081787109375, 0.3558641374111175537109375, 0.575356781482696533203125, 0.1702409088611602783203125, -0.2288548946380615234375, 0.1938012540340423583984375, -0.10079537332057952880859375, 0.1033260822296142578125, 0.10134823620319366455078125, 0.22010822594165802001953125, 0.279614984989166259765625, 0.23677246272563934326171875, -0.012312402017414569854736328125, 0.00528190471231937408447265625, 0.21285392343997955322265625, 0.0484771840274333953857421875, -0.2076401412487030029296875, 0.256351530551910400390625, 0.23393942415714263916015625, 0.23158323764801025390625, -0.075537689030170440673828125, 0.276263058185577392578125, 0.08434604108333587646484375, 0.2217654883861541748046875, 0.61023533344268798828125, 0.49400150775909423828125, 0.527008533477783203125, 0.357168614864349365234375, 0.50664126873016357421875, 0.17886964976787567138671875, 0.666244685649871826171875, 0.84008991718292236328125, 0.728385865688323974609375, 1.08817398548126220703125, 0.841948091983795166015625, 1.09817159175872802734375, 1.23047697544097900390625, 1.240047931671142578125, 1.09782707691192626953125, 1.18634045124053955078125, 1.47390186786651611328125, 1.68397653102874755859375, -0.3639715611934661865234375, -0.510542392730712890625, -0.2720898687839508056640625, -0.15272517502307891845703125, -0.1570948660373687744140625, 0.12890972197055816650390625, 0.00345571525394916534423828125, -0.2171809971332550048828125, 0.0374104678630828857421875, 0.17525409162044525146484375, 0.11261908710002899169921875, 0.1179392337799072265625, 0.1151777803897857666015625, -0.12877885997295379638671875, 0.0909656584262847900390625, 0.004237149842083454132080078125, 0.1889065206050872802734375, 0.0873167812824249267578125, 0.2733846604824066162109375, 0.35555660724639892578125, 0.18289744853973388671875, 0.2774566113948822021484375, 0.2598727643489837646484375, 